svm_type c_svc
kernel_type rbf
gamma 0.0285714
nr_class 33
total_sv 1061
rho -0.231044 -0.0742242 -0.00944486 0.00934478 0.0029329 -0.0460342 -0.0109146 0.143542 -0.0251007 0.142986 -0.200998 0.127535 -0.202307 -0.0650842 0.190443 0.142066 -0.185883 -0.0205327 0.00381872 -0.118277 -0.00166368 0.0652631 0.126144 0.0683998 -0.239773 -0.0944538 -0.138306 -0.0721886 -0.200313 0.0381221 -0.349529 0.0852201 0.17954 0.22898 0.243738 0.232076 0.213477 0.229458 0.314037 0.209458 0.349109 0.0335852 0.335043 0.0334612 0.237751 0.40198 0.348467 0.0833462 0.228393 0.236851 0.201259 0.233028 0.290794 0.343438 0.293349 -0.0148336 0.146282 0.129075 0.162777 0.0337567 0.266514 -0.115915 0.312557 0.066023 0.06957 0.0701551 0.0471391 0.0476521 0.215331 0.0347682 0.194504 -0.145498 0.179544 -0.14521 -0.0063482 0.254599 0.19229 -0.131613 0.0374234 0.0638478 -0.0590686 0.0563283 0.124858 0.187453 0.13037 -0.182856 -0.0330325 -0.0807569 -0.0134608 -0.145212 0.100384 -0.3045 0.146042 0.0186379 -0.0114631 -0.00878019 -0.00320607 0.112183 -0.0157857 0.142527 -0.192479 0.128201 -0.191633 -0.0575239 0.205928 0.142107 -0.178623 -0.0137218 0.0142521 -0.112091 0.00780665 0.0739049 0.134881 0.0779676 -0.230917 -0.0860263 -0.129546 -0.0621277 -0.195376 0.0476884 -0.34755 0.0963178 -0.0109394 -0.0282675 -0.0208572 0.0864896 -0.071883 0.127355 -0.209946 0.115012 -0.211317 -0.0753305 0.191858 0.127014 -0.195549 -0.0305545 -0.00372066 -0.128672 -0.0111159 0.0568105 0.12082 0.0607364 -0.249539 -0.104234 -0.14946 -0.0807156 -0.215472 0.029153 -0.3701 0.0834988 -0.0276296 -0.0111729 0.109427 -0.0243249 0.135878 -0.201934 0.117893 -0.201569 -0.0651552 0.190537 0.132826 -0.185084 -0.0195347 0.00563275 -0.117524 -0.000477748 0.0661099 0.125564 0.0688869 -0.239205 -0.0942935 -0.137515 -0.0701993 -0.200588 0.0392321 -0.353089 0.0866145 0.00746696 0.178176 -0.00586742 0.156192 -0.184594 0.135692 -0.188683 -0.0467985 0.20736 0.153217 -0.168117 -0.00219922 0.0203759 -0.0991687 0.0167443 0.0835773 0.144163 0.0864166 -0.222066 -0.0756256 -0.119425 -0.0535643 -0.184093 0.0565883 -0.33446 0.104035 0.104752 -0.0140945 0.145093 -0.190203 0.128449 -0.189371 -0.0674635 0.206907 0.143767 -0.202518 -0.00996395 0.0159537 -0.122832 0.00978942 0.0782114 0.138645 0.0811472 -0.237845 -0.08305 -0.134624 -0.0601098 -0.191893 0.0511275 -0.345544 0.0999129 -0.120163 0.0405241 -0.286497 0.0239371 -0.290777 -0.155571 0.102047 0.0385245 -0.272657 -0.113499 -0.0973301 -0.209174 -0.0908183 -0.0265077 0.0341153 -0.0229409 -0.325342 -0.189571 -0.231524 -0.160817 -0.285979 -0.051287 -0.433097 -0.00425033 0.169608 -0.16696 0.154862 -0.212709 -0.0413517 0.223394 0.169075 -0.163996 0.00368312 0.0304149 -0.0937279 0.0234478 0.100305 0.157623 0.10522 -0.219836 -0.0923946 -0.113931 -0.0587337 -0.205764 0.0667861 -0.350293 0.117611 -0.336111 -0.0237577 -0.338757 -0.195696 0.0643062 0.0402101 -0.310585 -0.155305 -0.146774 -0.248732 -0.131859 -0.0955734 -0.0251974 -0.0716462 -0.363679 -0.232429 -0.27219 -0.245856 -0.323178 -0.0924457 -0.464579 -0.0460591 0.31421 -0.0764215 0.137652 0.376968 0.333353 0.0154103 0.18213 0.210682 0.0890754 0.200537 0.277205 0.333145 0.283404 -0.0479011 0.0881041 0.0677493 0.132648 0.0109628 0.23863 -0.173819 0.295158 -0.319119 -0.1793 0.0814477 0.0158454 -0.295402 -0.137921 -0.119018 -0.232658 -0.115994 -0.075209 0.00849794 -0.0731854 -0.347285 -0.216881 -0.255556 -0.218097 -0.309737 -0.0761376 -0.4528 -0.0294129 0.136526 0.378228 0.339843 0.0137964 0.180428 0.21865 0.0875533 0.198887 0.282543 0.336811 0.281684 -0.0389858 0.152226 0.0652735 0.143117 -0.0333179 0.237611 -0.17062 0.291441 0.256006 0.194444 -0.143371 0.0494047 0.0699917 -0.0831455 0.0672245 0.129728 0.189225 0.132677 -0.216081 -0.0257262 -0.194311 -0.00573909 -0.138168 0.102972 -0.304981 0.152499 -0.0651683 -0.36774 -0.219381 -0.200177 -0.307575 -0.19115 -0.138555 -0.0744592 -0.156184 -0.41663 -0.289474 -0.331631 -0.265186 -0.375078 -0.152939 -0.512012 -0.117367 -0.309426 -0.154013 -0.142812 -0.24741 -0.130857 -0.137056 -0.0208203 -0.0662358 -0.363622 -0.232418 -0.270747 -0.233388 -0.326178 -0.0908542 -0.466487 -0.0447911 0.195201 0.191986 0.147047 0.19783 0.249995 0.305382 0.251818 -0.0940202 0.100184 0.0763816 0.117085 -0.0141759 0.226972 -0.174416 0.270562 0.0261321 -0.116809 0.0249908 0.0880505 0.151551 0.090779 -0.237726 -0.074042 -0.130403 -0.0503851 -0.184151 0.063961 -0.342854 0.116597 -0.123842 -0.00613034 0.0695691 0.134022 0.0703031 -0.25076 -0.102061 -0.14444 -0.0759744 -0.22041 0.0636691 -0.380281 0.0932849 0.124188 0.184328 0.2427 0.186945 -0.159202 0.0254577 -0.017077 0.0441111 -0.0887879 0.158332 -0.248882 0.206599 0.066644 0.126048 0.0695435 -0.254051 -0.0933174 -0.158545 -0.0698618 -0.199602 0.0405382 -0.360882 0.0868729 0.0558817 0.00477346 -0.307719 -0.16108 -0.207242 -0.189196 -0.276686 0.0102002 -0.414993 0.0232612 -0.0643926 -0.357644 -0.226729 -0.26918 -0.228719 -0.31979 -0.0867693 -0.465296 -0.0397291 -0.304929 -0.172478 -0.209183 -0.163644 -0.268585 -0.0296238 -0.415092 0.0185025 0.156954 0.151236 0.169874 0.0397911 0.279648 -0.11868 0.328001 -0.0475321 0.0131139 -0.149089 0.136158 -0.334829 0.191408 0.0663288 -0.0672489 0.184825 -0.24021 0.230158 -0.1323 0.114382 -0.286129 0.157182 0.240724 -0.157537 0.34473 -0.404514 0.0474715 0.458804
label 48 49 50 51 52 53 54 55 56 97 98 99 100 101 102 103 104 105 106 107 108 109 110 112 113 114 115 116 117 118 119 120 121
nr_sv 37 28 30 32 31 34 30 26 38 28 40 34 37 34 37 33 35 26 25 31 34 36 35 34 34 22 38 35 36 25 29 24 33
SV
0.1958618541818622 0.3218982523486005 0.2678194798313926 0.3166992208779766 0.290252690548285 0.578538397164619 0.2552897519504138 0.6072787226918965 0.243593267315881 0.2463867338762342 0.1974147111521531 0.190081596650682 0.2004752502087817 0.2379643531087129 0.2937526857562552 0.2551706923900948 0.2060318311862916 0.2491143872991195 0.2910399276945526 0.2238520551481049 0.2534668338587107 0.2635863255237971 0.273246066309932 0.2155130950390279 0.1928478865360898 0.2272494528817871 0.218019358697975 0.2252962229510057 0.2046011352925954 0.2635749914342813 0.166660853919142 0.2754963164777673 0:1 1:5 2:8 3:7 4:5 5:4 6:6 7:5 8:7 9:7 10:7 11:1 14:4 15:7 16:3 17:5 18:3 19:4 20:4 21:6 22:4 23:5 24:5 25:5 26:4 27:4 
0.3194037395740975 0.3771566855296896 0.4031081070133294 0.4138293262194574 0.3677421717742431 0.8464427249837582 0.410106040288283 0.486136828131232 0.3950324114952416 0.4551195991431306 0.323844424092496 0.4295702725436397 0.3125872610382904 0.3883907550083826 0.4925856489601571 0.4740011407545572 0.338114030952 0.4068670185776129 0.4216311680218154 0.3665034030606525 0.4150396987343013 0.4343139310554183 0.4578461239762127 0.4294044228158838 0.3160638147904092 0.3662019173717334 0.3582830475102854 0.3810187682850467 0.3309116720846598 0.4315687791621977 0.2686043604272447 0.4482824027701313 1:5 2:10 3:11 4:3 5:4 6:3 7:4 8:8 9:11 10:2 14:2 15:7 16:4 17:3 18:3 19:3 20:3 21:6 22:4 23:6 24:4 25:6 26:4 27:5 28:1 
0.5015822407997065 0.6087491557051351 0.648895130210836 0.6617351708508764 0.7126453832256014 0.8030398124524152 0.6451398227844347 1 0.6491571794559977 0.7631601438357877 0.5271413220789309 0.7889687062083783 0.5503331203142813 0.609079540288799 0.7778636099549402 0.801638020292306 0.5309602312960935 0.6383302060098978 0.7115622886738033 0.5749148583646535 0.650630654744588 0.7151602563050576 0.7447200027666037 0.7211166435504991 0.4955675945208858 0.5958666496318984 0.561690724752129 0.6235293586643599 0.5300840133065001 0.6766769015722407 0.424502421610757 0.7118714095773208 2:9 3:12 4:4 5:2 6:2 7:3 8:9 9:10 10:4 11:2 14:4 15:4 16:3 17:4 18:4 19:4 20:4 21:5 22:6 23:4 24:3 25:3 26:4 27:5 
0.03365487124901223 0.03209777701356749 0.05058908969547133 0.04805005115329321 0.08351257798400062 0.3041583493268953 0.04338164940021474 0.08150852384773866 0.04185397861479895 0.04200702975621724 0.02795298530963711 0.06890327427262795 0.01412368512752881 0.04126220977043285 0.05161427665011714 0.1208769941277244 0.03658480539014516 0.04345771075662448 0.01903956089633675 0.0392753374728905 0.04363899137580553 0.06988722050754652 0.04017872151784918 0.04907844655434912 0.03331079542233781 0.02569149848410167 0.03827446405691235 0.06212103652182931 0.03754758806399574 0.04597959752318562 0.02621388578380549 0.04760065964526613 1:6 2:11 3:6 4:2 5:4 6:2 7:5 8:11 9:9 14:1 15:5 16:4 17:6 18:3 19:4 20:4 21:4 22:4 23:4 24:3 25:4 26:4 27:5 28:1 
0.2923900529972695 0.3566001209388173 0.3783355406885026 0.3805223742517658 0.3693514894057219 0.4483152140258659 0.3753472802073521 0.4726598054975401 0.3661592136115203 0.3977871863517677 0.3028518338439711 0.3934802079660183 0.3031608974928159 0.3543631312580198 0.4500303590008247 0.3706989019390731 0.3080932128224195 0.3712915684211809 0.3810440318545031 0.3339368718301987 0.3787298618174335 0.38625688624041 0.4214721585318815 0.3960533936158588 0.2885836514243005 0.3457461926044413 0.3266999614467602 0.3339365386043635 0.3014452267837803 0.3933615155137461 0.2473881312634102 0.4102187732705944 1:7 2:12 3:6 4:3 5:4 6:3 7:6 8:12 9:8 11:3 14:3 15:7 16:5 17:7 18:3 19:4 20:4 21:4 22:4 23:4 24:3 25:5 26:4 27:6 28:1 
0.3545418816891439 0.4196900878993094 0.453307793415077 0.4668577741598589 0.4514627835395515 0.5311376656043485 0.4563825307252932 0.8977592307235043 0.4526147357404285 0.529317697220432 0.3710233197357319 0.5074879811446548 0.375132550241947 0.4320878382021811 0.5478995735973334 0.532721863081146 0.3760632573868426 0.4523085325484932 0.5151337609364597 0.4062111392155349 0.4611425787698175 0.4910763551106544 0.5216555909919713 0.4908326719325962 0.3510470845511274 0.4210665505829127 0.3976958270544333 0.429530877139714 0.3716768229194211 0.4788275679178232 0.30012905520067 0.5048991319087689 1:1 2:10 3:13 4:4 5:3 6:3 7:3 8:10 9:9 10:1 14:1 15:6 16:3 17:4 18:4 19:4 20:3 21:3 22:5 23:4 24:4 25:4 26:3 27:5 28:4 
0.5275979570848743 0.6999946441714335 0.6799235172847697 0.6955909579056569 0.7367977414551949 0.7368990629843127 0.6798423254315752 0.7762194899954922 0.6771352512504224 0.9544334820576651 0.5534952699802974 0.8214837008892416 0.5538747737092883 0.6416193320170197 0.8231158806412892 0.8179178635519668 0.5583102327100261 0.6727470934622898 0.6933444357363996 0.605425524296995 0.685819726967364 0.7468652756325146 0.8307517537939719 0.7627922304233454 0.5217963283790643 0.6253048040665736 0.5911532067813223 0.66383445916455 0.5519138860496949 0.7137926833740315 0.4476823200713854 0.7483657348260869 1:2 2:8 3:10 4:6 5:5 6:3 7:4 8:5 9:11 10:7 14:1 15:6 16:3 17:4 18:4 19:4 20:4 21:4 22:4 23:4 24:4 25:5 26:4 27:6 28:4 
0.03145526224523816 0.1049412870363933 0.06513791540676871 0.05769586273576598 0.2421275072509462 0.7901830461861853 0.04608679276398091 1 0.04797949853691412 0.03345710661559938 0.03778108713465721 0.0007395310564972848 0.04903227112444732 0.03782647139362335 0.0480425273572982 0.07252483689285788 0.03340029157608282 0.04000836799520758 0.0798241970508792 0.0356259395315144 0.03996886688064744 0.04552536763700994 0.04101099165330449 0.03140316328418901 0.03171242380292777 0.04188952594055581 0.03502528940171852 0.02770422833222139 0.03801404186925846 0.04172846375827388 0.02743901858513825 0.05299392335367354 1:2 2:9 3:11 4:5 5:3 6:4 7:5 8:7 9:11 10:3 14:2 15:6 16:4 17:3 18:4 19:4 20:4 21:4 22:3 23:5 24:3 25:5 26:4 27:5 28:3 31:1 
0 0 0 0 0.0738401425931049 0.8772157999881501 0 0.1311156919468153 0 0.0594974974009768 0.004727280052486065 0 0.01467343397927565 0 0 0.1854437014794774 0 0 0.03075178516269431 0 0 0.01588940544203957 0 0 0 0 0 0.005848203610175186 0 0 0 0 0:1 1:9 2:9 3:6 4:4 5:3 6:3 7:5 8:8 9:7 14:4 15:6 16:4 17:2 18:4 19:4 20:4 21:4 22:4 23:5 24:3 25:4 26:3 27:4 
0.1489574741145606 0.3199799369045246 0.3135485947442387 0.1982788512997458 0.2846053645985092 0.291284008269745 0.1915786951022871 0.5626419696236752 0.2067085696688322 0.1126202112920472 0.1401658454394338 0.2576192390171388 0.1393717516476982 0.182291339353138 0.2330191761494745 0.1110531972217041 0.1582638117018892 0.1893639890105273 0.178317430311881 0.1711061641227296 0.1936846247414852 0.182331674582953 0.2034146392429934 0.2228004723879731 0.1484289045399756 0.1757063905799042 0.1675558043238502 0.1773697763928004 0.1624560574051694 0.201367165557881 0.1271739614972787 0.2166853545622561 1:9 2:8 3:5 4:3 5:4 6:3 7:7 8:11 9:6 14:3 15:6 16:4 17:3 18:3 19:4 20:2 21:4 22:4 23:4 24:3 25:4 26:5 27:6 28:1 
0.3762467059973585 0.4447074676846366 0.5578350999575841 0.4911601162827715 0.5203080550032949 0.5187015245878239 0.4809185028413507 0.6542868098289033 0.4567512947510543 0.5719781987915187 0.3809457062665184 0.5331761095256703 0.3783016645689053 0.4557086143069545 0.5823296912084407 0.5694242714211932 0.3960140830558493 0.4751868787057226 0.4732527436472249 0.4281116953334946 0.503241160728546 0.5147727070813776 0.5480780112289283 0.5146388046148862 0.3687922276400576 0.4287017415575726 0.4179649716681783 0.432518349258828 0.3831907668168136 0.5042955215819526 0.3158596829211289 0.5299484677573086 0:6 1:9 2:7 3:5 4:4 5:4 6:5 7:6 8:8 9:6 14:3 15:6 16:5 17:5 18:4 19:5 20:4 21:5 22:4 23:4 24:3 25:4 26:5 27:3 
0.04533124971943001 0.003573806601904597 0.03354486892801136 0.04755724339201944 0.01305316839686434 0 0.0533691326391273 0 0.04908107726696784 0.1368287241672829 0.03741401351984051 0.1597524545432191 0.02844891468493331 0.05500089653707758 0.07455651791467138 0.07816829797257857 0.047385119437596 0.0575614222203561 0.03166981646249027 0.05193381604800409 0.05926745109591917 0.05869064965780819 0.07921224542113152 0.06551585990006126 0.04373465778535779 0.04267635851552862 0.05063678390145371 0.06102186200990458 0.04124194874300797 0.05971630595316731 0.03646579769751847 0.05744908829170729 1:3 2:10 3:10 4:5 5:3 6:4 7:4 8:9 9:11 10:4 14:1 15:6 16:4 17:3 18:4 19:5 20:5 21:4 22:3 23:6 24:3 25:6 26:4 27:6 28:3 
0.2634265582552265 0.4152513614456259 0.3537963004331351 0.4001490261345487 0.416160374681727 1 0.3398951646008153 1 0.433874294908763 0.7238153312395237 0.3678874842859267 0.6653441386323488 0.5236703070451556 0.3195546549827146 0.427884234930112 0.6335220754577999 0.2776996623867177 0.3352003628783963 0.5680166505208921 0.3009386790769678 0.3428438311295562 0.4493525794404566 0.5185936970939985 0.5045378677313157 0.2602879592582032 0.433228052430381 0.2945277338962854 0.4702170394709024 0.2942225748207549 0.3554896198345538 0.2384190951042469 0.3909730596363044 1:6 2:10 3:6 4:5 5:4 6:3 7:6 8:7 9:8 10:2 15:4 16:4 17:3 18:5 19:4 20:3 21:5 22:4 23:5 24:4 25:4 26:4 27:6 28:2 
0.2693363907700985 0.2865126664808051 0.3200451271776449 0.3504369129127263 0.3188342780681387 0.4514532994393364 0.3464855576407206 0.4607365709826374 0.3396767160551581 0.4480827368971002 0.2918281822241516 0.4257365362742267 0.2875701589222449 0.3286250167063038 0.4192197667908181 0.5054710659824782 0.2853464931915491 0.3435466204774301 0.3896159404523302 0.3094889209715875 0.350671332614004 0.4037810345617328 0.4153112072891317 0.3835023290954443 0.2663967784758981 0.3201577117268397 0.3019466560628843 0.3528580967810775 0.281335320061414 0.3646662507300426 0.2283969488309342 0.380151234634186 1:9 2:12 3:4 4:2 5:3 6:3 7:7 8:11 9:6 14:3 15:5 16:3 17:4 18:3 19:5 20:4 21:4 22:4 23:4 24:3 25:6 26:4 27:5 
0.01904166653902566 0.04036901452506654 0.0571357247018481 0.02952770417224596 0.03388496496244675 0.01387149541255769 0.02617244379108304 0.3124951810765869 0.03199969586300658 0 0.02034948937630549 0.06886231648607846 0.021803149687695 0.02332841332611944 0.02901930055329144 0.04014388814544224 0.02061900793049764 0.02375344580936752 0.003667000186108731 0.02181933530063877 0.02433036776672282 0.02724393035320755 0.01602802015874335 0.03412928358406139 0.0192438856137738 0.02350277509489692 0.0216635076504706 0.02974069001367271 0.02147053124630842 0.0264624503891748 0.01671069534568097 0.02646414890968461 1:2 2:8 3:10 4:6 5:3 6:3 7:3 8:9 9:11 10:5 15:6 16:4 17:4 18:4 19:4 20:4 21:5 22:3 23:5 24:3 25:5 26:4 27:6 28:3 
0.5770231666155193 0.6983103711188805 0.7431889930619409 0.770429432447331 0.7542151244901304 0.8264683224299412 0.7407968215062223 0.9215993292230287 0.7305587230447348 0.9246633764134777 0.5969104537594736 1 0.597474927091859 0.7010131086624053 0.9151637655725263 0.9193539919549041 0.610270328825248 0.7343420439698507 0.7509802449636183 0.6612515858544513 0.7495979998630321 0.8276000854181104 0.8517824247313603 0.8925682983984876 0.5699830865435422 0.6753382780199848 0.6457417551950667 0.727519105146618 0.5990597890045903 0.7814447343004189 0.4876684753522476 0.8132723684364029 1:8 2:8 3:6 4:3 5:2 6:4 7:5 8:8 9:10 10:5 11:6 15:6 16:5 17:3 18:5 19:6 20:6 21:6 22:5 23:4 24:4 25:6 26:4 27:5 
0.2083690448942178 0.3985055820392008 0.2424558136616265 0.3045812507257692 0.1766297999189793 0.674602419405122 0.2756733356994097 0.2233372299025334 0.2712280465048574 0.2707026081733456 0.2266685226530329 0.3331199566149567 0.2738685618548567 0.2452792988564456 0.3121495253548685 0.2788824366427357 0.211768859104851 0.2551351906018898 0.3791070945130802 0.2297759361088821 0.2593229476379544 0.2874039065901235 0.3092910455098417 0.2998446231223495 0.1978533236360612 0.2724732017259008 0.2251619831407671 0.2727678983899284 0.2207837880260089 0.2715945639066443 0.1858248731072342 0.2902975820513062 0:1 1:8 2:6 3:7 4:4 5:5 6:5 7:6 8:5 9:8 10:3 13:1 14:5 15:5 16:3 17:4 18:3 19:3 20:4 21:4 22:5 23:4 24:4 25:4 26:6 27:3 
0.1020389107026086 0.101207262600078 0.09694938035375586 0.1387546835224842 0.1541024995009946 0.431105417331171 0.1292935696902091 0.2326618444981043 0.1273715427896012 0.3159732297530809 0.09823939964014057 0.255283199587806 0.09503650716697383 0.1247242490912707 0.1604173188882982 0.2495462104196187 0.108221847123045 0.1308438219446441 0.1129805712444905 0.1174565189664159 0.1323579389256667 0.1422939521642062 0.1674659202785894 0.1422955252286441 0.1020248784988287 0.114302240434761 0.1148465188316104 0.1180150134555299 0.1034574462598882 0.1375687752017646 0.08454746621295052 0.143282474657852 0:1 1:7 2:8 3:7 4:5 5:6 6:3 7:4 8:7 9:9 10:6 13:1 14:4 15:6 16:4 17:3 18:5 19:4 20:5 21:5 22:4 23:5 24:4 25:5 26:4 27:4 
0.4490946183620341 0.5229170528084307 0.5657107271509003 0.5969248370242904 0.5433175366359247 0.5082602871961642 0.5763262894466291 0.6237168749638865 0.5680095500127395 0.6663800753845355 0.4667334525005304 0.6671471115848097 0.4600079569848463 0.547240974656601 0.6957643846675912 0.6326310879667485 0.4747708663573555 0.5717751802622948 0.6010925365829118 0.5144294027079452 0.589433077573789 0.6211221117298014 0.6582887397409222 0.6261361152735464 0.4444475245551837 0.5261509132947734 0.503930358732855 0.5378398863851546 0.4643211242185333 0.6077247976553158 0.3787384352907249 0.6328449924675084 0:4 1:9 2:7 3:6 4:4 5:7 6:6 7:6 8:5 9:8 10:3 11:1 13:2 14:6 15:5 16:5 17:5 18:4 19:4 20:4 21:3 22:5 23:4 24:5 25:5 26:6 27:3 
0.1734495770656786 0.2795092583606327 0.2691812349256386 0.2524397025859371 0.2523318304524483 0.43587311822346 0.2274640770233949 0.6094450376095701 0.2245051517395022 0.3081792373709747 0.1977071782285595 0.5659346746553219 0.2073134149816591 0.21091236460536 0.2782922257633629 0.2887889271363253 0.1842667600219801 0.2200828915883186 0.2643719352263892 0.1986397601929746 0.2254617589900992 0.2553273749206516 0.2721034626209616 0.3897060486403727 0.1710692294377414 0.2148219244384108 0.1956117637084674 0.2340115209291723 0.1842420921473486 0.2392492046967788 0.1505226345775381 0.2471194206956783 1:5 2:8 3:7 4:4 5:4 6:4 7:7 8:7 9:6 10:8 11:3 13:1 14:3 15:6 16:3 17:5 18:4 19:4 20:3 21:6 22:4 23:5 24:4 25:5 26:5 27:5 
0.2288057981644606 0.2778573777235123 0.2966842389375401 0.3016313258217845 0.3426574053121008 0.3729698376689451 0.2944950590997131 0.4733985503665077 0.2787968628613512 0.3482557481314301 0.2337074171170866 0.3203862317169249 0.2317502888197824 0.2788622081864835 0.3543798327489031 0.3103551808186334 0.2434644637400835 0.2918500579670029 0.2885710266679238 0.2633666091624152 0.2986481765644385 0.3144206274925321 0.3300142927619569 0.3146688582196787 0.2263347047738397 0.2656735076086564 0.2571316542029397 0.2676172103393149 0.2368863279601703 0.3098574851020641 0.1943524144775667 0.3234648509937322 0:1 1:9 2:10 3:4 4:3 5:4 6:5 7:6 8:11 9:7 11:3 14:4 15:7 16:4 17:3 18:4 19:5 20:5 21:5 22:4 23:4 24:3 25:4 26:3 27:6 28:2 
0 0 0 0.005658104398853142 0.05907520827481798 0 0 0.0826506386779996 0 0.0336215396117371 0 0.1128056871484559 0 0 0 0.04942454298949698 0 0 0 0 0 0 0 0 0 0.00131506561523356 0 0 0 0 0 0 0:1 1:9 2:8 3:5 4:2 5:4 6:4 7:6 8:11 9:6 14:3 15:6 16:4 17:3 18:4 19:5 20:2 21:4 22:4 23:4 24:3 25:4 26:3 27:6 28:1 
0.3688359297210197 0.4593106115842818 0.4850419183391821 0.4843889900828564 0.5149359635684609 0.5528008951434628 0.4747375145167978 1 0.4737173482594655 0.5334636015599693 0.3826744321528892 0.5218580519912485 0.3830235438992452 0.448031660967457 0.5709341314048609 0.5440246017212442 0.3903089196389734 0.4699072071167684 0.471012908141343 0.4232282421248967 0.4787976603374544 0.5078847607864321 0.5360442957636138 0.5105245337710486 0.3643515140305672 0.4350816888591328 0.4131885932712693 0.4381056123760509 0.3843253190766532 0.4984906974609108 0.3122704875191016 0.5219207755969724 1:2 2:10 3:10 4:5 5:3 6:3 7:3 8:13 9:9 15:6 16:4 17:4 18:4 19:4 20:3 21:5 22:3 23:5 24:3 25:4 26:4 27:6 28:3 
0 0.0769557357065237 0.1879526357616167 0 0.3410646720748644 0.1743001918890178 0 0.6988693066969206 0 0.1256800052395322 0 0.09473694104011209 0 0 0 0.1329207870975469 0 0 0 0 0 0 0 0 0 0 0 0 0 0 0 0 0:3 1:7 2:6 3:7 4:4 5:5 6:5 7:6 8:5 9:8 10:3 13:1 14:5 15:5 16:3 17:4 18:4 19:4 20:4 21:4 22:4 23:4 24:4 25:4 26:6 27:3 
0.2144742964056252 0.2390965179160769 0.2671161511279616 0.2763190677212201 0.2550717812107714 0.2494446987497569 0.2763392138397615 0.1727843783996246 0.266841137594049 0.4082192372697335 0.2128632307578164 0.3585251312420376 0.1944969138791134 0.2612885016432508 0.336240339307274 0.352502287953086 0.2275856179705767 0.2734271695979708 0.2564431485803967 0.2459271164805155 0.2783930783878632 0.2945563890603115 0.3354636816255288 0.2989644964710419 0.2125737834769383 0.2406122601471251 0.2410713378170977 0.2544614627753596 0.2203143173061043 0.2895416843633464 0.1802145471483196 0.3023913957551607 0:3 1:8 2:12 3:5 4:4 5:4 6:4 7:6 8:11 9:8 10:2 14:2 15:6 16:4 17:4 18:5 19:6 20:5 21:4 22:4 23:6 24:3 25:5 26:5 27:6 28:2 
0.3264411979840998 0.3773010407786092 0.4137879619705766 0.4388680454624934 0.4082955116627934 0.4622812197877558 0.4197804308562028 0.4244044212032571 0.417545195736866 0.4835267504728747 0.3367789752916697 0.5964220646666737 0.3374375457285108 0.397219660118714 0.507890549924974 0.5572311073352969 0.3461468571932727 0.4157543145019464 0.4158702888960552 0.3748497788407311 0.4240022508753743 0.4682547613793015 0.4786368519095569 0.461858879027061 0.3235577515114563 0.3807460411317664 0.3662614077162261 0.3988704316293901 0.3418295650571921 0.4403049983917772 0.2766593731881618 0.4638213969079434 1:7 2:10 3:7 4:3 5:3 6:2 7:6 8:12 9:9 13:1 14:5 15:4 16:3 17:5 18:4 19:4 20:4 21:5 22:3 23:5 24:5 25:3 26:4 27:4 
0.5651239431456277 0.6719632409698705 0.7245376161673412 0.744355144813401 0.7267240601563585 0.7057526205774183 0.7269399019432781 0.8450374924349362 0.7144302652231449 0.8348025701259623 0.5865909333056674 0.8500818723276901 0.5838999259100879 0.6874923372116289 0.8753013431260543 0.8343966433044616 0.5987924751037584 0.7203146891380852 0.7375856904284457 0.6478347671111137 0.7340490997904479 0.7820154066112791 0.8262421635494422 0.7834225302394677 0.5591389548212596 0.6653016652195402 0.6335903804337422 0.6782619293625247 0.5874140727451234 0.7628704535899743 0.4781213422325547 0.7977750187971187 1:2 2:10 3:11 4:4 5:3 6:3 7:4 8:13 9:9 10:6 11:4 15:6 16:5 17:6 18:6 19:6 20:4 21:6 22:5 23:6 24:3 25:4 26:3 27:6 28:3 
0.518164611311567 0.8949969342698657 0.6746310295550914 0.6817904867676799 0.7186182497038599 0.7878622322465256 0.6703602287006606 1 0.6547309350535725 0.7947394682158611 0.5397868747982815 0.7592029650336808 0.5314040024242369 0.629841897826123 0.8164508664194086 0.763963869358611 0.5488799510637844 0.6606942432117984 0.674985944237838 0.5945600517710847 0.6743225845356764 0.7226531189930154 0.7862091558381225 0.7641555413815553 0.5122843773134702 0.6091541008357521 0.5817714328330665 0.6239574623541571 0.5380598599823422 0.7098918678081663 0.4385905609707668 0.7312200619224548 1:4 2:8 3:7 4:5 5:5 6:4 7:5 8:7 9:6 10:9 11:6 14:2 15:6 16:5 17:5 18:4 19:4 20:4 21:6 22:3 23:5 24:4 25:5 26:5 27:7 28:1 
0.05071577775141644 0.01682748717873017 0.02989005797944456 0.06068617503123033 0 0 0.0650975674259892 0 0.07858445561376215 0 0.06954877912577741 0 0.06062701826378834 0.05890961943472603 0.07476078230668723 0 0.051405177740232 0.06398502099249473 0.03971962475472438 0.0567844429968752 0.06297063788398408 0.08245483138975959 0.0748813237014942 0.06371522924310687 0.04796100606266228 0.06091647553910497 0.05455070972166284 0.07544880235390589 0.04951403982534964 0.06507744320199874 0.03926625997444933 0.06659536750850775 0:1 1:9 2:8 3:5 4:2 5:4 6:3 7:6 8:11 9:6 14:3 15:6 16:4 17:3 18:4 19:4 20:2 21:4 22:4 23:4 24:3 25:4 26:3 27:6 28:1 
0.1498328828996947 0.201718091551411 0.3248581617065329 0.2185503279432198 0.1752922200439459 0 0.1876649595730696 0.3727810410007504 0.2707219658057203 0.275319345994446 0.192731012996963 0.2770442018530305 0.2007705647575388 0.175844742602482 0.2277389426920628 0.4510499249342609 0.1536761677404384 0.185045114605401 0.2061121056131279 0.1649987330030964 0.1870657256445075 0.2712026449044763 0.2469562654274757 0.2122011718949653 0.1450465921148902 0.2260917647488457 0.1620851627688788 0.241901247491376 0.1764800804486118 0.2002431855207714 0.1295529172075145 0.2105257199157184 0:5 1:9 2:7 3:6 4:3 5:3 6:4 7:6 8:9 9:5 14:4 15:5 16:4 17:4 18:4 19:4 20:3 21:4 22:4 23:5 24:4 25:4 26:4 27:4 
0 0 0 0 0 0 0 0.2742994941890456 0 0 0 0.002106085924885637 0 0 0 0 0 0 0 0 0 0 0 0 0 0 0 0 0 0 0 0 0:2 1:7 2:7 3:7 4:4 5:5 6:6 7:6 8:6 9:8 10:3 13:1 14:5 15:5 16:3 17:4 18:5 19:3 20:4 21:4 22:4 23:4 24:4 25:5 26:6 27:4 
0.05728082178315251 0.07771378967244272 0.02636393252893577 0.07101306503091238 0.04096756659121498 0.3085804580904569 0.07727360531450728 0.07714203419982918 0.0500783871552395 0.08445937111019473 0.04465655424791846 0.08609019550675667 0.04012832975092145 0.07260679032880467 0.1004838320167388 0.0562241023335275 0.06359788873732507 0.07694249403662079 0.152294518741645 0.07011340921267507 0.07825581588171349 0.05875668865357722 0.0788864697327817 0.09971627012676017 0.05854849929767111 0.05808290408121689 0.06810089986094338 0.06222411114772465 0.05254171300970237 0.08237352388783517 0.0478037506628011 0.08720382080929277 0:5 1:9 2:8 3:6 4:4 5:3 6:4 7:6 8:9 9:5 10:1 11:1 14:4 15:5 16:5 17:4 18:4 19:4 20:3 21:4 22:5 23:5 24:4 25:5 26:4 27:4 31:1 
0.1821886386985803 0.2363696215710096 0.2515327186581678 0.2316363953114116 0.4482496016961721 0.3527070817352984 0.2412305730784517 0.2501887356587452 0.2325282833254747 0.26679129112696 0.1921710731442373 0.2748507142666801 0.1834146977342397 0.2238976568661738 0.2897819772314015 0.2813108996652832 0.1960327533653193 0.2343911424506595 0.2075429068175437 0.2113916667495335 0.2396293528038854 0.2715785343845187 0.2813479809260826 0.270973800114936 0.1814428333751088 0.2090360223472906 0.2067538929534448 0.235316191969543 0.1923192232935041 0.2500479462073174 0.1533375861330411 0.2600317071372218 1:7 2:7 3:7 4:4 5:5 6:5 7:4 8:6 9:9 10:6 11:1 14:5 15:6 16:4 17:3 18:3 19:4 20:5 21:5 22:4 23:4 24:4 25:5 26:5 27:3 29:1 
0.1209847607633872 0.1582384430199062 0.1351016504724522 0.1544445462876397 0.1938929705712792 0.7995507566624386 0.1557373343610497 0.7163405583342168 0.1432975348238932 0.1207922186330071 0.1212426485255728 0.1122057361557416 0.1220196508095436 0.1476979476643568 0.1837530821394545 0.1178303203078116 0.1285811792085061 0.1555329292144307 0.1693943325178092 0.1395676772775341 0.1566909684241265 0.1486907860291799 0.1637395515638679 0.1528494351668035 0.1197149743887104 0.1391464827985846 0.1360937183800431 0.1240508305016159 0.1225941331892205 0.1640049838739561 0.1016126011447294 0.1702276463426215 0:1 1:7 2:11 3:8 4:5 5:3 6:4 7:7 8:12 9:7 14:5 15:6 16:4 17:5 18:4 19:5 20:4 21:4 22:4 23:6 24:3 25:4 26:5 27:5 28:1 
0.04884047677066805 0.01608751786390817 0.04912247074290998 0.05722594606240722 0.007554697270792748 0 0.05987912517983965 0 0.05994441815626927 0.05368378577040633 0.04388428205673821 0.07258230517305382 0.03162958070077375 0.0605974245385025 0.07775512608638988 0.04841300359011318 0.0548689290690932 0.06491626972192308 0.01608020174077172 0.05874643388416505 0.06094778413030023 0.06160847783178761 0.06646039987567541 0.06418568961140768 0.05024413203344667 0.04854359182823961 0.05623873481734278 0.05214759259632058 0.04953739915056776 0.06741152914548915 0.0378213197094002 0.06894968569297194 0:4 1:9 2:7 3:6 4:4 5:6 6:5 7:6 8:7 9:8 10:3 13:2 14:6 15:5 16:5 17:4 18:4 19:4 20:4 21:3 22:6 23:4 24:5 25:4 26:6 27:3 
0 0 0.004261195084187878 0 0.01380456963377192 0.1116495936043987 0 0.09902058166758826 0 0 0 0 0.002659404412351954 0 0 0 0 0 0 0 0 0 0 0 0 0 0 0 0 0 0 0 1:7 2:11 3:6 4:3 5:2 6:3 7:7 8:12 9:7 14:5 15:4 16:3 17:5 18:3 19:4 20:4 21:4 22:4 23:5 24:3 25:4 26:5 27:5 
0 0 0 0 0 0 0 0 0 0.2020031629066425 0 0 0 0 0 0.08172023644963357 0 0 0 0 0 0 0 0 0 0 0 0 0 0 0 0 1:10 2:10 3:5 4:3 5:4 6:3 7:5 8:11 9:6 14:3 15:5 16:4 17:4 18:3 19:5 20:2 21:4 22:4 23:4 24:3 25:5 26:4 27:6 28:1 
-0 0 0 0 0 0 0 0 0 0 0 0 0 0.01829995060876551 0 0 0 0 0 0.5064345952778889 0 0 0 0 0 0 0 0 0 0 0 0 3:1 4:3 5:7 6:9 7:8 8:4 14:2 15:3 16:5 17:3 18:3 19:2 20:2 21:3 22:1 23:2 24:2 25:1 26:1 27:2 
-0.6003558423906914 0.6149710542498035 0.6880033937524838 0.6657163336291598 0.6139927585674485 0.5860800154259768 0.7234039464774931 0.6452105135554574 0.5859923172691033 0.6474184715446398 0.5173702551885223 0.6487053323227794 0.5112942559203266 0.6448725824379745 0.6711485710540787 0.6584468683374083 0.4298584772441565 0.5854484600680103 0.6349891481984997 0.5448789346242235 0.6070294697738775 0.6243597401219936 0.6440234275285317 0.6204844860730901 0.4072596461203673 0.5665458907112488 0.5123762995211443 0.5598885702056217 0.5180658762636801 0.6066422193925675 0.4499864540776929 0.6348815501025249 0:1 1:3 2:2 3:4 4:4 5:5 6:7 7:5 8:5 9:2 13:1 14:2 15:3 16:4 17:5 18:4 19:3 20:2 21:2 22:3 23:2 24:3 25:2 26:2 
-0.1489057106798809 0.1480211063017275 0.14867454597664 0.1506382394668597 0.1488125193275682 0.1464514414257268 0.1789201146150643 0.1584851265614114 0.1454894951935337 0.1622663919856792 0.1243723073017961 0.1610347993257926 0.1248539854118435 0.192532466788359 0.1684495167571733 0.1617599574095763 0.08562668632275676 0.1579832183449545 0.1513178180991062 0.02806401577612878 0.1477937407673758 0.1550322231082821 0.1626146321779616 0.1555349047467243 0.116032397372846 0.1386947616517543 0.1543046555756079 0.140029957928967 0.1241654097544097 0.1530171724131584 0.1082891535876781 0.1570997113828044 2:2 3:2 4:2 5:3 6:14 7:10 14:1 15:3 16:3 17:5 18:3 19:3 20:1 21:2 22:2 23:2 24:2 25:2 26:2 27:2 
-0.7200068306603015 0.6895979956996039 0.7264891672127709 0.7263162175409078 0.7200334755142577 0.7095144877917354 0.6746984652673156 0.7683365645279993 0.707299997074785 0.7889183182354297 0.6039350118992127 0.7806572401966042 0.6041592387606025 0.684327193380028 0.8203270118565047 0.7886076122790558 0.6324008827972667 0.7106137732927227 0.7237631371270178 0.6586977103096964 0.720491910889508 0.7551588194568792 0.7852317351071508 0.7563689069694643 0.5715436954604783 0.6692328205058156 0.6478671652775444 0.6803120219936764 0.6051355064419979 0.7408278674129618 0.5138806083349616 0.776139674162422 2:1 3:3 4:2 5:3 6:8 7:14 8:2 14:2 15:3 16:5 17:5 18:4 19:2 20:2 21:2 22:1 23:1 24:1 25:1 26:2 27:2 
-0.2830041227012571 0.2900817037150236 0.3237742627895123 0.2906640789836383 0.3004329205640631 0.2780481370534341 0.4526640175486215 0.3035009266936623 0.2758386068520178 0.3101257594805864 0.2313868167915375 0.3047406339761083 0.2345889604355365 0.4841148294949564 0.3228378221689699 0.3095081541752265 0.1387813959708371 0.2544557153229168 0.2836092301472629 0 0.262930766785178 0.2947367849778048 0.3081789657029484 0.2958387424589365 0.1757446434925619 0.255235908667743 0.1570965172858993 0.2669480287450274 0.2129634737899135 0.2903885867993047 0.1686467047241723 0.294361292356396 3:1 4:4 5:8 6:7 7:9 8:5 9:3 15:4 16:6 17:6 18:2 19:2 20:2 21:2 22:2 23:3 24:2 25:2 26:2 27:2 
-0.4069873284580426 0.3907723533978751 0.4041885930566234 0.4144171821351483 0.4076896943738813 0.4017329033858557 0.4156494431043521 0.4349134193308332 0.4011992190510589 0.4469052992381514 0.34289368113739 0.442024301409185 0.3424309736609822 0.416124956423209 0.4644394165439718 0.4467332691071095 0.3815837992273406 0.4130664881516755 0.4094533129472867 0.4494114163588892 0.4076958902699843 0.4275644310060784 0.4453628406221568 0.428394214457701 0.3273259273885187 0.3794989644687887 0.3782289623857937 0.3842996582570746 0.3425627413299571 0.4186970127699945 0.2945113638494142 0.4359895341264559 3:1 4:2 5:2 6:12 7:14 14:1 15:3 16:4 17:3 18:2 19:2 20:2 21:2 22:2 23:2 24:2 25:2 26:2 27:2 
-0 0 0 0 0 0 0 0 0 0 0 0 0 0 0 0 0 0 0 1 0 0 0 0 0 0 0 0 0 0 0 0 1:1 2:1 3:1 4:4 5:7 6:9 7:7 8:2 14:2 15:2 16:2 17:4 18:3 19:3 20:1 21:3 22:2 23:2 24:2 25:2 26:2 27:1 28:1 
-0.6922202060567486 0.6681109174278521 0.6988449526844664 0.7009086465886869 0.6951693143251665 0.682398765193988 0.8204640727307747 0.7394855245763097 0.6813581135112947 0.7590991332653462 0.5808384227722438 0.7513390164774041 0.5821255096538309 1 0.7877929672267507 0.7581930417204874 1 0.9367739104937615 0.6932352085956834 1 0.7202148598947985 0.7256742509172368 0.7553287813217017 0.7267921077265379 0.6798678000129498 0.6452575800318761 1 0.6533914101692426 0.5842015968864674 0.7119933512520522 0.5021295842601308 0.7375262634085831 4:2 5:10 6:11 7:4 14:2 15:2 16:2 17:3 18:1 19:2 20:2 21:2 22:2 23:2 24:2 25:1 26:2 27:2 
-0 0 0 0 0 0 0.04710464289803244 0 0 0 0 0 0 0 0 0 0 0 0 0 0 0 0 0 0 0 0 0 0 0 0 0 2:2 3:2 4:3 5:6 6:12 7:8 8:1 13:1 14:3 15:3 16:4 17:4 18:2 19:3 20:1 21:2 22:2 23:3 24:2 25:1 26:2 27:1 
-0.5768928008308111 0.5564257280892964 0.5711894967598536 0.5972358927094674 0.5974949272820801 0.5691265631801128 0.9107686704919102 0.6161546605679862 0.5745590682993246 0.6321048451666921 0.4821971723636364 0.6275204329553279 0.4836931491659204 0.7403120370228122 0.6558611711813714 0.6313478768306102 0.4907734902369172 0.5564958762044674 0.5791954307970539 0.566583354261729 0.5930543329004377 0.6055805045162886 0.6300552376831602 0.6068878483028541 0.4568128810654911 0.536399652088912 0.5406436808010152 0.5442788253089508 0.4861328304794052 0.5945360503262156 0.4263243344116937 0.6142257355387493 3:1 4:4 5:7 6:6 7:9 8:5 9:3 11:3 15:3 16:6 17:6 18:3 19:3 20:1 21:3 22:2 23:3 24:2 25:2 26:2 27:2 
-0.3427652871315748 0.32250764425443 0.3419412268910691 0.3437814522275643 0.3433717879684778 0.3384379122446001 0.2427553353703875 0.3664812679296193 0.3365721729242481 0.3762843517777127 0.2884999340101056 0.3728770045584476 0.2879357935528131 0.2073744995411869 0.391355724635669 0.3768571669399035 0.3559685374138478 0.3202854733370434 0.3435505396430055 0.3069772805254035 0.3515478418450926 0.3607395977496081 0.3741020554794209 0.3610683330037316 0.2829067066963133 0.319209451982009 0.2962749462702595 0.3248460226015887 0.2867348717763523 0.3529577449913678 0.2441824431040087 0.3649464921290193 2:1 3:1 4:2 5:4 6:14 7:8 14:1 15:2 16:3 17:5 18:2 19:3 20:1 21:2 22:2 23:2 24:1 25:2 26:2 27:2 
-0.4128454055236993 0.3908515750957663 0.3993266952451943 0.443024828091775 0.4082639327736853 0.4079668924399853 0.3698505866763148 0.439796839172385 0.4089298487320941 0.453353714686656 0.343461042841359 0.4480409335445855 0.3454871551839775 0.1575094507353578 0.4706054011735876 0.4530705815940619 0.3050925394203035 0.4169742931021727 0.4124033805743932 0.07078174212008857 0.4111015102786194 0.4326213423033203 0.450533732364836 0.4337688922177052 0.3018458088421752 0.3772393252575326 0.2425892426148967 0.3904862819435319 0.3326004818824926 0.4252528863869242 0.2704817289281508 0.446758741048366 3:2 4:2 5:5 6:9 7:11 8:5 9:1 15:3 16:3 17:6 18:4 19:2 20:1 21:1 22:2 23:2 24:3 25:3 26:1 27:2 28:2 
-0.5178628117083796 0.50788581602129 0.5507115724580826 0.55178512757968 0.5503320145098403 0.5143119944065113 0.8179423043217912 0.5574659823861308 0.5419027914299456 0.5698326714418593 0.4991250485227819 0.5646958953250344 0.4630334615047946 1 0.5919911033555326 0.575978587373307 0.6427507973639214 0.5941479367185641 0.5211961858214548 0.7681778525117792 0.5367251149478598 0.5522707447068234 0.5684435623249005 0.5472822919251539 0.5727066698631815 0.5279250742990182 0.8917293340765 0.4924176476575393 0.5525644518548614 0.5342754408612325 0.4988995406452817 0.5766257444787702 1:1 2:2 3:4 4:3 5:7 6:5 7:6 8:5 9:2 13:1 14:2 15:3 16:3 17:3 18:4 19:5 20:2 21:2 22:2 23:2 24:2 25:2 26:2 
-0.003221737540093875 0 0 0 0 0 0 0 0 0 0 0 0 0 0 0 0 0 0 0 0 0 0 0 0 0 0 0 0 0 0 0 3:2 4:4 5:7 6:7 7:8 8:4 9:1 15:2 16:2 17:6 18:4 19:1 20:2 21:2 22:2 23:3 24:2 25:2 26:2 27:2 28:1 
-0 0 0 0 0 0 0 0 0 0 0 0 0 0.1003659141697762 0 0 0 0 0 0.03410222299171217 0 0 0 0 0 0 0 0 0 0 0 0 1:2 2:2 3:2 4:4 5:8 6:8 7:6 8:1 14:2 15:2 16:3 17:4 18:4 19:3 20:2 21:2 22:2 23:2 24:2 25:2 26:2 27:1 
-0 0 0 0 0 0 0.1119424764693821 0 0 0 0 0 0 0 0 0 0 0 0 0 0 0 0 0 0.04224793104767944 0 0 0 0 0 0 0 2:2 3:1 4:1 5:9 6:14 7:8 14:2 15:3 16:4 17:5 18:3 19:2 20:1 21:3 22:1 23:2 24:2 25:3 26:2 27:2 
-0.6600609253107662 0.6311625714222453 0.6599510672862745 0.6647609086870077 0.6611328989694054 0.650238296786903 0.6551975667962974 0.7049928190940098 0.6482185793297941 0.7234116666866728 0.5544099423955957 0.715560853848252 0.5542694641202512 0.6821548453072253 0.7515591800998044 0.7233431966803842 0.583503586853064 0.6617534218872498 0.6630399416689653 0.6717462768610799 0.6622341773515412 0.6919670403657283 0.7202080111969443 0.6935812181549295 0.5314761649412219 0.6147644412399186 0.6140471218210251 0.6238017181764279 0.5551487281376931 0.6792995343551838 0.4749390769929536 0.7036888734957971 3:1 4:2 5:3 6:14 7:14 15:2 16:3 17:4 18:5 19:2 20:2 21:2 22:2 23:2 24:2 25:2 26:2 27:2 28:2 
-0.3064941915191062 0.3106787118051704 0.4344541269339111 0.3180288222567517 0.3205779579806035 0.3014277462369409 0.4443066189543391 0.3278746633201035 0.3097171811142249 0.3360844067824998 0.2570554411801639 0.3347125251330303 0.2562248999632366 0.8591511352252862 0.3499128366485971 0.3344661523474163 0.563304703979065 0.5063347026442622 0.3060275933458287 0.6521705186552842 0.3181400173194464 0.3212250216403454 0.3348739563844245 0.3245188800785725 0.2086502712727751 0.3015894214467688 0.1833194893325127 0.2907891585971511 0.3390332259213057 0.3163592789771762 0.2467059079472492 0.3599011845100951 1:1 2:1 3:1 4:2 5:6 6:7 7:8 8:6 9:1 13:1 14:1 15:3 16:3 17:3 18:2 19:4 20:2 21:2 22:2 23:2 24:2 25:2 26:1 27:3 
-0.1445027993668333 0.1395847678773942 0.1184727615451969 0.1530531409919896 0.138789147936817 0.1440676564038862 0 0.1541869728904088 0.1434347427399295 0.1573894026437312 0.1257640610127448 0.1557949580251508 0.1207035912059832 0.2275504569763217 0.1633708846734862 0.1557995092427399 0.2964888699968578 0.1143361008232074 0.1539083769794506 0.8006112022849917 0.1262883954455906 0.1504604125040613 0.1572509427874534 0.150975790521322 0.2717271321732985 0.132119394227112 0.222505184587566 0.1357361240969759 0.1199264995759569 0.1487315262417032 0.125489924097245 0.1580197141833775 3:1 4:4 5:8 6:8 7:7 8:3 15:2 16:3 17:6 18:1 19:2 20:2 21:3 22:2 23:2 24:3 25:1 26:2 27:2 
-0.03057889257336222 0.01084812252789165 0.01650621236270168 0.005839214040041063 0.02349087469242671 0.02806005976666193 0.4577059707301652 0.03018562159151837 0.01933021872037794 0.0332755199576308 0.0126031055579284 0.03208524564699048 0.02396117167579452 0.162465501963419 0.03593623507444891 0.03619100074511217 0 0 0.01972903125735394 0 0.04472002650353294 0.03222543963883666 0.03313724499323831 0.03171356033766536 0 0.01662622277373258 0 0.02900432072280277 0 0.03063805541970007 0 0.01487417309019347 3:1 4:4 5:8 6:8 7:7 8:4 9:1 15:2 16:3 17:7 18:2 19:2 20:2 21:3 22:2 23:2 24:2 25:1 26:2 27:2 28:1 
-0 0 0 0 0 0 0 0 0 0 0 0 0 0 0 0 0 0 0 0.04127529193207174 0 0 0 0 0 0 0 0 0 0 0 0 2:2 3:2 4:3 5:4 6:8 7:8 8:5 9:1 13:1 14:1 15:3 16:3 17:4 18:3 19:3 20:2 21:2 22:1 23:2 24:2 25:2 26:1 27:3 
-0.2818765105577359 0.275989317505262 0.2840203896188722 0.2875068776962982 0.2838036537652402 0.2785756614441828 0.1168218863903449 0.3016862671207681 0.2788013557875604 0.309007982341359 0.2374558296955183 0.3059496479103707 0.2381476577461645 0.3591559557249068 0.3216513471848061 0.3095541683453445 0 0.2480939243504193 0.2844880375612867 0 0.2758544935577446 0.2968420101217979 0.3082200122009477 0.2968904952082353 0.1206767171747015 0.2639511403331819 0.2054844113057375 0.2669736606247148 0.2409073134387915 0.2899278929814469 0.1986118302243789 0.3018417489960208 2:2 3:1 4:2 5:10 6:13 7:8 14:1 15:3 16:4 17:6 18:3 19:3 20:2 21:3 22:1 23:2 24:2 25:2 26:2 27:2 
-0.5005442223930427 0.5078116950246691 0.4867509428144444 0.4967835445321627 0.4944687202474576 0.4940182282286841 0.5950475532427385 0.53276216579597 0.4867979998577971 0.5497245173897417 0.41892838800898 0.54224716877956 0.4170882223160361 1 0.5716554509307623 0.5475193397344311 0.797916450837137 0.5366784545892753 0.5142653559614752 1 0.5565091129742465 0.5248996393988788 0.5480464378861277 0.5265923678804709 0.8251445792364902 0.4643143167032112 1 0.4732876230420591 0.3964719773762618 0.5164176322584356 0.377760948493647 0.529790907519039 1:2 2:2 3:2 4:4 5:9 6:8 7:5 13:1 14:2 15:2 16:3 17:4 18:4 19:3 20:2 21:2 22:1 23:2 24:2 25:2 26:1 27:1 
-0.8670994839251203 0.8645839466883501 0.869629345694802 0.8760563190646403 0.8677808095445416 0.8545419000504479 0.9432890142950591 0.9254713424668063 0.8516421259774131 0.9504645246546225 0.728305461281937 0.9410461505129001 0.7282158735521744 0.8603954916551866 0.9873558861126694 0.9497306901659449 0.7172784945265365 0.881994573654998 0.8722144983645814 0.7819547534343283 0.8822164764520589 0.9091577036085309 0.9462597962439721 0.9110543590519706 0.6987569278749856 0.8078847381526576 0.810758906204747 0.8184829694818053 0.7278338610451899 0.8929319291832867 0.6252529270019553 0.9248661584818373 0:4 1:1 2:2 3:1 4:1 5:9 6:15 7:7 14:2 15:3 16:4 17:5 18:3 19:2 20:1 21:3 22:1 23:2 24:2 25:2 26:3 27:3 28:3 29:1 
-0 0.01093944122480494 0 0 0 0 0 0 0 0 0 0 0 0 0 0 0 0 0 0 0 0 0 0 0 0 0 0 0 0 0 0 1:2 2:2 3:2 4:4 5:7 6:8 7:9 8:5 9:1 13:1 14:2 15:2 16:4 17:5 18:4 19:4 20:2 21:2 22:3 23:2 24:2 25:2 26:2 27:3 
-0.1585259389132636 0.1577507507378357 0.1567062854863069 0.1595715051542163 0.1579547865482429 0.1558860037906129 0.3483022987833334 0.16887116106099 0.1549712558376785 0.1737554928535875 0.1324625779398012 0.1710894361829265 0.1320711009119826 0.3675244036810239 0.1806399404199884 0.1736486237770173 0.5365522382280111 0.2086564273200099 0.158874810555067 0.9524779734297577 0.1553558678386934 0.1656801318667335 0.1728346960777621 0.166747808466933 0.05920995777627429 0.1464960457711537 0.06891825839479838 0.1496244619598828 0.1312894254484339 0.1636164454189199 0.1114937093032086 0.1688612550562398 2:1 3:1 4:1 5:8 6:14 7:6 14:2 15:3 16:3 17:3 18:3 19:2 20:1 21:3 22:1 23:3 24:1 25:2 26:2 27:2 
-0 0 0 0 0 0 0 0 0 0 0 0 0 0.4454755696471872 0 0 0.1245685547391439 0 0 0.217701870414564 0 0 0 0 0.06639985801656889 0 0.3850781009951705 0 0 0 0.01754137707114236 0 0:1 1:2 2:2 3:3 4:4 5:7 6:6 7:7 8:2 14:1 15:3 16:3 17:4 18:4 19:3 20:2 21:3 22:2 23:2 24:2 25:2 26:2 27:1 
-0.06574131001555063 0.08535973845901573 0.06413938702780463 0.07594335454160589 0.06234087491520553 0.06878706690856859 0.4288255599584357 0.07445512578300127 0.07455966563137878 0.07690124831916213 0.07001478336729859 0.07609110317824079 0.05973872806287066 0.3488643003480484 0.07937634709714771 0.07381274248181834 0.1155960500588355 0.1666423395200292 0.07656154417950635 0.6480850939132218 0.08675600546003374 0.07342265329556606 0.07676543515781031 0.07450576725054134 0.1160518150614696 0.08946870476555491 0.6786207507548844 0.06648326267811826 0.09269327826889882 0.07238946003890359 0.1361628502088821 0.09466067369730728 3:2 4:4 5:7 6:7 7:8 8:4 9:1 15:2 16:2 17:6 18:4 19:1 20:2 21:2 22:2 23:3 24:2 25:2 26:2 27:2 28:1 
-0.2781051204287781 -0.1754923642821895 0.1998613756394345 0.2634341503842987 0.2408953009835095 0.2375997786524461 0.2652863381848875 0.3303642455673128 0.2127354734017184 0.2506666825436731 0.169353663942073 0.2598692223037138 0.1725753882984968 0.2262468847711055 0.2833700929125924 0.2562529485821437 0.1880347561025741 0.2617447117823746 0.2502349517355766 0.2127355739938125 0.2385634643634098 0.2430705847550809 0.2848097532272019 0.2421895436605839 0.1772446477877996 0.1923797323617148 0.2245804732902316 0.1973617213085467 0.1717959569811451 0.2492451569093668 0.1768482320982332 0.2523553767692993 0:2 1:3 2:4 3:5 4:5 5:7 6:6 7:6 8:4 9:3 10:6 11:5 14:4 15:6 16:3 17:1 18:2 19:2 20:3 21:4 22:4 23:5 24:5 25:4 26:4 27:5 28:3 29:1 
-0 -0 0.01134528112572366 0 0.0513219767967457 0.04668110675797181 0 0 0 0 0 0 0 0 0 0 0 0 0 0 0 0 0 0 0 0 0 0 0 0 0 0 0:1 1:3 2:5 3:8 4:6 5:5 6:4 7:6 8:8 9:6 14:4 15:6 16:4 17:2 18:1 19:2 20:3 21:3 22:3 23:3 24:3 25:3 26:5 27:9 28:1 
-1 -0.7025172723079814 0.9120098901800724 0.920222958839752 0.9586752000428143 1 0.8928943971813746 1 0.8852437618146936 1 0.7302930362695075 1 0.7345771262234501 0.8498391199139194 1 1 0.7422031822905862 0.8867041913368139 0.9210888897172302 0.8046729453209686 0.9037857234342483 0.9660599377205744 1 0.9806119948661839 0.6991993267010299 0.8272832537066123 0.7868122651544155 0.8465722023304081 0.7305493112264834 0.9445728576879037 0.5940099217340952 0.9826120960849626 1:4 2:6 3:8 4:6 5:7 6:4 7:5 8:7 9:7 10:5 11:7 14:5 15:7 16:3 17:4 18:2 19:2 20:4 21:6 22:5 23:5 24:4 25:4 26:6 27:9 
-0.1690169458110815 -0.1444705273384851 0.3565158411828327 0.174737087568926 0.2932461135003778 0.1488796362395881 0.1456027104386958 0.267639680518711 0.1484898788784765 0.1699475038925126 0.1116210698012749 0.1779702894563426 0.1136079272767739 0.1511727271350558 0.1819497435795668 0.1685351183727751 0.1229415040755162 0.1456208474967958 0.1397311716209169 0.1346775596971931 0.1535498961194167 0.1607560289790465 0.1705884704829794 0.1640067853990691 0.1155125186258297 0.1319918798415796 0.1329693528194033 0.1377619295174376 0.1145101974681402 0.1612594603826447 0.09690168213467036 0.1656008992195448 1:2 2:5 3:6 4:7 5:6 6:6 7:7 8:7 9:5 14:3 15:7 16:5 17:4 18:3 19:2 20:2 21:2 22:3 23:3 24:3 25:2 26:3 27:9 
-0.3261702008215055 -0.2863701384150158 0.3934545202448597 0.3461867022460677 0.5282469375593341 0.3281817452741583 0.3675578536194283 0.3993183845152888 0.3307605865995326 0.3892693762164276 0.2793417906921504 0.37939973247228 0.2733082543544662 0.3749304904727594 0.4103750975807618 0.3845910377544234 0.2916430201723689 0.3509582402964638 0.3431778600988966 0.3188711994858312 0.3459762848615776 0.3650056093475726 0.3872512112602082 0.3689170081576442 0.2692503887018606 0.330109244896761 0.3165694457715488 0.31602494536544 0.2752360613050923 0.3587280082092188 0.2468669980512794 0.3791219943338323 1:2 2:4 3:5 4:7 5:7 6:6 7:7 8:6 9:3 10:2 14:2 15:6 16:4 17:4 18:1 19:3 20:2 21:2 22:2 23:2 24:2 25:2 26:4 27:9 28:4 
-0.5158593169807697 -0.4038528006962601 0.6083040420661379 0.51034624403572 0.5354711684998023 0.4966161750652543 0.5282817662246528 0.604246806106742 0.4878265279886653 0.5578681507578599 0.4170195435474625 0.5668753348984635 0.4118044772588142 0.4796419121766775 0.5898559735546171 0.5613944965451001 0.4127687654936932 0.492309174948003 0.5132654112081548 0.4511122103456942 0.4966071405157349 0.5278452029512839 0.5578451401777874 0.531902449188429 0.385815426102792 0.4634745724125059 0.4382327786298594 0.461899564221689 0.412236195377772 0.5164949476594262 0.3567909783896323 0.5473130702151747 1:3 2:5 3:5 4:6 5:7 6:5 7:8 8:6 9:3 10:2 13:1 14:6 15:4 16:3 17:4 18:1 19:2 20:2 21:3 22:2 23:2 24:2 25:4 26:9 27:5 
-0.3439649501912284 -0.2037199604351654 0.3420209960093991 0.2747770641046922 0.4330533640750145 0.3421236320788603 0.2617693064879441 0.6159516723947787 0.2610080077904114 0.2975370181146266 0.2182140146746571 0.3147260959067144 0.2253853267536143 0.2465408663856215 0.3167043189773285 0.2979972454705763 0.2157218703323153 0.2575592572473739 0.2608185254044685 0.2341469659025208 0.2633697940267906 0.2798388488066262 0.2986953997644091 0.2859252017225759 0.2036552423214441 0.249070027292629 0.227241323775508 0.2433417588467863 0.2110714043078558 0.2752044213924819 0.171379959494082 0.284000918471807 1:1 2:5 3:6 4:6 5:6 6:6 7:7 8:9 9:7 10:3 14:4 15:6 16:4 17:5 18:3 19:2 20:2 21:4 22:2 23:2 24:2 25:3 26:8 27:9 
-0 -0.0366580553700462 0.1390657541400943 0 0 0 0.1986595244262922 0 0 0 0 0 0 0.4245469638284184 0 0 0.04975123263596582 0 0 0.1693509650339282 0 0 0 0 0 0 0.2439287162354346 0 0 0 0.04076122626669143 0 0:3 1:1 2:2 3:3 4:6 5:9 6:10 7:6 8:2 9:1 10:2 11:1 14:4 15:5 16:3 17:3 18:3 19:2 20:1 21:2 22:2 23:1 24:3 25:7 26:5 27:4 28:1 
-0.4768247066299225 -0.3094935174751599 0.4182090789499486 0.4084292112881685 0.4681291991659333 0.5487525380842815 0.3841211996911868 0.6452854368290765 0.4144815926883396 0.4591350499536166 0.3546851454442735 0.4565843184184677 0.3663601340135181 0.3688869907917071 0.4731315468040151 0.4630332112116843 0.3264635966431598 0.3916604601348624 0.4705979947558314 0.3516328922145918 0.3967303440849623 0.4238486524515394 0.4490603798738644 0.4303636418005341 0.3070797445687111 0.4225345540463503 0.3442085213044143 0.3773821051670238 0.3333070775331425 0.4129595615917293 0.279266577247113 0.4450526326702826 1:4 2:6 3:8 4:5 5:6 6:5 7:6 8:8 9:4 14:5 15:4 16:5 17:2 18:2 19:3 20:2 21:3 22:3 23:3 24:2 25:3 26:6 27:8 28:1 
-0.6351984144879008 -0.4691569727859888 0.7361729859264577 0.6171009194943931 0.7597785137111216 0.6206561089806564 0.5958244541748621 0.7976516533588651 0.5879172369959674 0.6806938094083641 0.488809316496757 0.6814492869675581 0.487462030563293 0.567840799593929 0.7266546234598952 0.6805395532880044 0.5027845392111704 0.5974921446644266 0.599286623565486 0.5424050896365252 0.6098431748951174 0.6488786538540864 0.6828056814362384 0.6509627906702108 0.4721121907571794 0.5395394494107694 0.5309020142303419 0.564319592594778 0.4866899620792475 0.6354594497767033 0.3957140842836025 0.6592528415663138 0:1 1:3 2:4 3:7 4:6 5:5 6:6 7:7 8:6 9:9 10:4 14:4 15:8 16:4 17:3 18:2 19:2 20:3 21:3 22:3 23:4 24:2 25:3 26:3 27:10 28:3 29:1 
-0 -0 0 0 0 0 0 0 0 0 0 0 0 0 0.0005943346704730201 0 0.0006179886737731845 0 0 0 0.002650057384483992 0 0 0 0 0 0 0 0 0.003152897456175883 0 0 0:2 1:3 2:4 3:8 4:5 5:6 6:5 7:6 8:6 9:7 10:2 13:1 14:4 15:6 16:4 17:3 18:2 19:1 20:2 21:2 22:3 23:4 24:2 25:3 26:4 27:10 28:3 
-0.2494861345353576 -0.1918901131784779 0.4369935129449324 0.2505124213180919 0.2862056752368281 0.2465077293804148 0.2363355715136398 0.2768281876094849 0.2398474324825337 0.2791200677829558 0.1954044205777171 0.2762986957486595 0.1967213488974325 0.2258969098838719 0.292365920424747 0.2781041519869399 0.2015584412805413 0.244630538309691 0.2433774921089099 0.2181828355586246 0.2459015934229893 0.2630941878759784 0.2774425277349659 0.2641117057748553 0.1903033636714739 0.2215624440366018 0.2106090541477154 0.2309388375861211 0.1989270592995885 0.2569792316957281 0.1630577362711096 0.2675638330398195 1:3 2:1 3:5 4:6 5:7 6:6 7:9 8:8 9:4 10:1 11:2 13:1 14:5 15:6 16:3 17:4 18:1 19:2 20:2 21:2 22:1 23:2 24:2 25:4 26:8 27:7 28:2 
-0.6353495235715444 -0.5158984834724688 0.7608336974125692 0.6816504755838174 0.6453865381273813 0.6184478248168594 0.7066986905602961 0.7154264421216309 0.6454412691603951 0.7232647705355657 0.5252914402676229 0.7265962288282356 0.5277545862701661 0.6210329361630094 0.7645776302123478 0.7383609011593313 0.6007036190590566 0.6313942270129678 0.686127837906394 0.6057670995407168 0.6591560651110629 0.691375226606189 0.7143316146281877 0.6941757834836871 0.4990047953899346 0.6140931215699246 0.5775273979828053 0.6163833142556392 0.5442056649061482 0.7085756406859675 0.4613305808270342 0.7080451558483294 0:3 1:3 2:3 3:5 4:3 5:6 6:6 7:7 8:4 9:3 10:5 11:5 14:3 15:6 16:3 17:1 18:1 19:2 20:2 21:4 22:6 23:5 24:4 25:4 26:4 27:4 28:3 29:1 
-0.5853722400678811 -0.387853619708171 0.6296566243937595 0.5050422985318996 0.6975702816288768 0.6233441908458277 0.5855323035347338 0.6838714230571479 0.5310076236198605 0.6356514124741784 0.5125335297283626 0.5991492778772548 0.461522197398631 0.4789791422139883 0.6007941991444151 0.5967843820002041 0.4325161197807259 0.4969139871979404 0.5698644203875538 0.4552508225110161 0.5195374222909424 0.5671460008925469 0.6182643547433601 0.5806171709054778 0.3943291196958909 0.5458826686437138 0.4479529731478649 0.5320603720739278 0.4575146390878991 0.5543521148315389 0.3927824877294205 0.5560782969635312 0:2 1:3 2:5 3:5 4:6 5:5 6:4 7:6 8:3 9:4 10:6 11:3 14:5 15:5 16:1 17:2 18:2 19:3 20:3 21:3 22:4 23:4 24:3 25:4 26:5 27:6 28:2 
-0 -0 0.1247440533322721 0 0 0 0 0 0 0 0 0 0 0 0 0 0 0 0 0 0 0 0 0 0 0 0 0 0 0 0 0 1:1 2:4 3:6 4:7 5:5 6:6 7:7 8:9 9:7 10:1 13:1 14:5 15:5 16:3 17:3 18:2 19:2 20:2 21:3 22:3 23:2 24:2 25:3 26:8 27:9 
-0.6186279355432772 -0.5890812541783707 0.5705542431896419 0.6207135524115976 0.6137041229118493 0.6028250218592869 0.5571116437814239 0.6986071574810416 0.597026595594589 0.6881074582057388 0.4928658062583868 0.6790626865938735 0.4931174632921709 0.3893282335800399 0.7223615153644591 0.6857840748171173 0.5010638818776428 0.628274866292407 0.6207357789268236 0.4856795732045393 0.6116430493165805 0.6473450592180803 0.6820089834587083 0.6504205222292454 0.484633653589471 0.563286091278466 0.4247509722219481 0.5680834094466527 0.4934031011414357 0.6348889176744331 0.4165651788333273 0.6621937802536385 0:3 1:1 2:2 3:3 4:6 5:9 6:11 7:6 8:2 9:1 10:2 11:1 14:4 15:5 16:3 17:3 18:3 19:2 20:1 21:2 22:2 23:1 24:3 25:7 26:5 27:4 28:2 
-0.2532380458288346 -0.2260681908799891 0.242754158250305 0.297950986353578 0.2790789045960726 0.2272952269730032 0.2843708854427194 0.2663105473081104 0.3037503185533026 0.3325737462163785 0.2395987693114698 0.3348669885703001 0.2380432046631659 0.2775764370722544 0.3546165900306524 0.3341743556032455 0.2454590608248979 0.2927769931599564 0.2891679937707634 0.265084306979241 0.298467664863888 0.3175926421671251 0.3348635824076416 0.3216940007081777 0.2301639202688188 0.277477422258927 0.2589147265697556 0.2775053595831986 0.2421724748169278 0.3113761609097343 0.2012090818032613 0.3237376990947301 1:2 2:4 3:6 4:7 5:5 6:5 7:7 8:9 9:7 10:1 14:5 15:5 16:3 17:2 18:2 19:2 20:2 21:3 22:3 23:2 24:2 25:3 26:9 27:9 28:1 
-0.7468929418211195 -0.5712412637037841 0.7780893106394617 0.7431633686057063 0.752602543478341 0.7269540504207382 0.7230173903185104 0.8544478911315553 0.7181013314188297 0.8280613446655078 0.5938253546303708 0.8194563401319488 0.5928245094734589 0.6861278871304644 0.870088056534041 0.8258744858995301 0.600078997813588 0.7162491056714776 0.7426474350135442 0.6472160858534957 0.732930525531886 0.779497681662049 0.8236598929345654 0.78369731184447 0.5663602182094934 0.6755967397034621 0.6409892176708024 0.6832835906318475 0.5928472023752851 0.7632829653111647 0.495880181914427 0.7981256585750879 0:2 1:4 2:1 3:6 4:6 5:8 6:7 7:10 8:3 9:2 10:2 11:2 14:3 15:6 16:3 17:4 18:4 19:1 20:2 21:2 22:3 23:1 24:2 25:6 26:9 27:5 28:2 
-0.09392209351568426 -0.1100216825466294 0.221251009428091 0.1428153442231394 0.1370539331067306 0.07851856248150826 0.1352515784694305 0 0.1349776905980971 0.1666366370886645 0.1130044243738155 0.1476567966738987 0.1077821281754094 0.1329899591255164 0.1713324556899689 0.1642701379076382 0.1205909126202322 0.1425317438092587 0.1443924072418879 0.129157709204063 0.1466487028255683 0.1568703792510328 0.1631603521105668 0.1524360919044203 0.1134631560799497 0.1199911393507799 0.1285126326366406 0.140641095037417 0.1193773795867649 0.1521052981738248 0.09158190996481433 0.158623742812216 1:1 2:4 3:6 4:6 5:6 6:6 7:7 8:10 9:7 10:2 14:5 15:6 16:4 17:5 18:2 19:2 20:2 21:3 22:2 23:2 24:2 25:3 26:8 27:9 
-0.6720206193668942 -0.4506551303667006 1 0.5899490417334619 0.8879681399391134 0.7431750549448504 0.6979486571810137 0.796813786613953 0.6671534805503879 0.6780706272209979 0.558203762820069 0.659159194558646 0.5595443502075544 0.5447908731909186 0.6546722664681056 0.6949626429582992 0.4592557341818651 0.5670067599722933 0.6301435264475795 0.5112397316905033 0.5549237869726891 0.6208752855978823 0.6462068886136544 0.623046907737994 0.4384964338542808 0.7055645867248902 0.4904845482080742 0.5980401908591781 0.5380789804763451 0.5726515643244614 0.4314253818782883 0.626306526759249 0:2 1:4 2:4 3:6 4:5 5:4 6:4 7:5 8:5 9:6 10:2 15:6 16:4 17:2 18:2 19:2 20:2 21:3 22:4 23:3 24:3 25:3 26:4 27:7 28:2 
-0.1840122336787036 -0 0.287288070060163 0 0.3438425613526088 0.1866324777472523 0 0.5259076593609203 0 0 0 0 0 0 0 0 0 0 0 0 0 0 0 0 0 0 0 0 0 0 0 0 0:2 1:4 2:5 3:7 4:6 5:5 6:5 7:6 8:8 9:6 10:3 14:5 15:6 16:5 17:2 18:2 19:2 20:3 21:3 22:3 23:4 24:3 25:4 26:6 27:7 28:2 
-1 -0.7651348182872633 1 1 1 0.990531757013857 0.982397509968268 1 0.9703033553583217 1 0.8011831955068606 1 0.803776669889639 0.9267587125761304 1 1 0.8138059300967588 0.9705641056108353 1 0.8788936732600714 0.9937834802981754 1 1 1 0.7624502467119314 0.9059949174976133 0.861438157964553 0.9518720090882032 0.7983645667741767 1 0.6503349823546487 1 0:2 1:3 2:4 3:5 4:5 5:4 6:4 7:5 8:4 9:10 10:9 11:7 15:6 16:4 17:3 18:3 19:3 20:3 21:5 22:5 23:7 24:5 25:6 26:3 27:5 28:3 29:1 
-0.3249121383243995 -0.2715860288027364 0.7261727962394512 0.3202766866049675 0.6953144663590241 0.3111836148303538 0.4122847339500613 0.3785800683928049 0.3121586013331519 0.3522442747625281 0.2527775188454767 0.35387443237577 0.252449272222432 0.3312499185140868 0.3758258090129523 0.3540217559137581 0.2635896141414736 0.3216347172912322 0.3080444147375997 0.2917679903745257 0.3145463061187215 0.3330494396305909 0.3502620527618637 0.3358866538005333 0.2435842861785193 0.2871782510299217 0.2777481619695742 0.2904520104306019 0.2565256616022903 0.3255249966298192 0.2077558910165237 0.3409875831908742 1:2 2:3 3:4 4:5 5:8 6:5 7:7 8:8 9:5 10:1 11:3 14:5 15:7 16:3 17:4 18:2 19:3 20:2 21:1 22:2 23:2 24:1 25:3 26:6 27:7 28:3 
-0.1128798013959053 -0.1247600204315582 0.2253773978050533 0.1387401687056535 0 0.0991875631369088 0.1504238421715727 0.09906965799880997 0.1361572202729893 0.1475664291932293 0.1096264781147302 0.1506989949523894 0.1076538001366325 0.1368973181489752 0.1622184458152219 0.1520062904989739 0.1150116807589191 0.1385120846949452 0.1532458397184676 0.1317426922131659 0.1385089515396421 0.1450752463349384 0.1500920653049859 0.1450555867863406 0.1063875227524397 0.1424219353840856 0.1222668775983361 0.1244878602517201 0.1133002801019574 0.1415391787682904 0.09822122109023645 0.156225571724448 0:2 1:3 2:3 3:6 4:7 5:6 6:6 7:9 8:6 9:2 10:1 14:4 15:6 16:3 17:4 18:3 19:2 20:2 21:2 22:2 23:2 24:2 25:2 26:6 27:8 28:3 
-0.05018675104917062 -0.03398861940737755 0 0.06399746602359158 0.07319245771197976 0.04692497086191728 0.01051122835214385 0.04342070385746259 0.06002986666375878 0.07171952015491917 0.04857174971364776 0.06870331519600778 0.04953541797824174 0.04906108001695098 0.07158234970249838 0.07170352803916528 0.04472994287293214 0.05591592290916914 0.05689269199769963 0.04478457522935485 0.0618910711722716 0.06681217816040728 0.07173273563699782 0.06621793839437025 0.0469461424028939 0.05412332711461042 0.05072357265017866 0.06007704841311601 0.0465122449916189 0.06459650870617929 0.03306127551608095 0.06514760133464538 0:1 1:2 2:3 3:5 4:6 5:8 6:6 7:8 8:8 9:5 10:1 11:2 14:5 15:6 16:4 17:4 18:3 19:3 20:2 21:1 22:2 23:2 24:1 25:3 26:7 27:7 28:4 29:1 
-0 -0 0.1687925262899387 0 0 0 0 0 0 0 0 0 0 0 0 0 0 0 0 0 0 0 0 0 0 0 0 0 0 0 0 0 1:3 2:4 3:5 4:6 5:6 6:5 7:7 8:7 9:3 10:1 13:1 14:5 15:5 16:3 17:4 18:1 19:2 20:2 21:2 22:2 23:2 24:1 25:3 26:8 27:6 
-0.1165628800190268 -0.03190106797737337 0.2848913441209036 0.05092775724384137 0 0.04066853094638503 0.02869202450161929 0.107139593247261 0.03843671128523644 0.09828366946670127 0.002545996256731704 0.06412893643853092 0.01866087139780626 0.03689942062459402 0.06547217806509968 0.07287018866261694 0.03016627769647399 0.04151952756016283 0.06486399902391439 0.03484176024357832 0.04369029907186672 0.04346612447402942 0.06078834465853353 0.05263305454349602 0.03426102172798853 0.02720440548650569 0.03365463737927839 0.03539367144315351 0.02466914963842191 0.0458414427237603 0.01451258669448894 0.05320368232035906 0:3 1:4 2:4 3:7 4:6 5:5 6:5 7:6 8:5 9:7 10:4 14:5 15:6 16:3 17:2 18:2 19:2 20:2 21:4 22:4 23:3 24:3 25:4 26:5 27:8 28:2 29:1 
-0 -0 0 0 0.1772845278837543 0 0 0.3663095258524244 0 0 0 0 0 0 0 0 0 0 0 0 0 0 0 0 0 0 0 0 0 0 0 0 0:1 1:3 2:5 3:8 4:6 5:5 6:5 7:6 8:8 9:6 14:4 15:7 16:4 17:2 18:2 19:2 20:3 21:3 22:3 23:3 24:3 25:3 26:4 27:9 28:1 
-0.5399574410602299 -0.4041879733536295 0.5472470461955183 0.5403348524242398 0.5507147318200928 0.5269103907498501 0.522683416176807 0.6125870991504766 0.5208604579923891 0.6010772305717216 0.4352600130634454 0.5950700433052801 0.4300534970954513 0.4795283132499195 0.631971348903719 0.601340354152448 0.4329827232263428 0.5371520935611512 0.5394385440588298 0.458267134712631 0.5528246399396617 0.5671115425309676 0.6012331566054868 0.5699496088018877 0.4113663118913574 0.4905431384040224 0.4516217297901567 0.4968527043693775 0.4309733620750183 0.5547731867421113 0.351743909414526 0.5780731737646622 0:3 1:3 2:2 3:3 4:6 5:9 6:10 7:6 8:2 9:1 10:3 11:3 14:4 15:5 16:4 17:3 18:4 19:2 20:1 21:2 22:2 23:1 24:3 25:7 26:5 27:4 28:1 29:2 30:1 
-0.2078477658896651 -0.1679350821244855 0.08070649225018996 0.2302314840957548 0.1363543467459451 0.2369771810198511 0.296715346736637 0.1558380605777559 0.2185681916599949 0.2593404931191792 0.1890745064795225 0.2494793640129414 0.1863038364332222 0.2175168118255612 0.2788919056514552 0.2608166882314663 0.1948522102353841 0.2345773965310314 0.263534856650395 0.2129833526978075 0.2337453803722846 0.2497936865605273 0.2619789856067521 0.2457895905123928 0.1836206815455353 0.2015859960550782 0.2052036048226429 0.2146090746850295 0.1911363967765645 0.2432386831972623 0.1495762006884234 0.2512214404374541 1:2 2:5 3:7 4:7 5:6 6:6 7:5 8:7 9:5 14:4 15:7 16:4 17:4 18:2 19:2 20:2 21:2 22:3 23:3 24:3 25:2 26:3 27:9 
-0 -0 -0.1583925610767051 0 0.4783636005545752 0 0 0 0 0 0 0 0 0 0 0 0 0 0 0 0 0 0 0 0 0 0 0 0 0 0 0 1:1 2:3 3:5 4:4 5:4 6:5 7:6 8:10 9:7 10:1 14:1 15:6 16:4 17:3 18:2 19:2 20:2 21:3 22:2 23:2 24:1 25:5 26:4 27:6 28:3 
-0.3534098868842403 -0.4151939833753778 -0.6067166680380662 0.3539313841364751 0.4122374704340437 0.3445407086002418 0.4351370060721691 0.4461868754148633 0.3472016145898497 0.3918577626394913 0.3038731563366198 0.3823816610085225 0.2928363796790038 0.4122449305865085 0.4108230341635298 0.3949065942754079 0.3118142724787363 0.3763246154777816 0.3678657663894805 0.3914096317938066 0.3667209411559982 0.3689222330123463 0.389445138025571 0.3690572818798247 0.2739950616024279 0.3558192739475509 0.3430230147882161 0.3229139972825284 0.2905072832739658 0.3581861628965263 0.2608601122969257 0.3812174835812618 0:3 1:3 2:2 3:5 4:3 5:5 6:8 7:5 8:4 9:6 14:3 15:5 16:4 17:4 18:2 19:2 20:3 21:3 22:2 23:1 24:1 25:3 26:5 27:5 28:1 
-0.256583083510584 -0.27754906698289 -0.4400654889976471 0.2747061564926973 0.04418537995625589 0.2576138704800899 0.3003161460756285 0.2716793887513035 0.265993013914616 0.3181134084770715 0.2156958368470623 0.3001743946084517 0.2205793158236117 0.26417515743333 0.3356589245041325 0.3073309398529786 0.22821348195189 0.2785059299562841 0.2789373208693733 0.2504104010781896 0.2802217971179832 0.2958667391795559 0.3165856180685437 0.2959762880191293 0.2141432978852368 0.2486285974921203 0.2469138339381341 0.2544347197356995 0.191187707013277 0.2925628376506475 0.1668578025693773 0.3041752800876408 1:1 2:4 3:4 4:2 5:4 6:5 7:10 8:9 9:3 14:5 15:5 16:3 17:3 18:3 19:2 20:2 21:1 22:1 23:2 24:1 25:4 26:5 27:5 
-0.05253896439231696 -0.05714780177791963 -0.007853276854937329 0.07931256586045839 0 0.06045771137215576 0.04053898285682316 0.03201750060558178 0.1190495604718628 0.07455991976792982 0.09229813314985486 0.1196009721987092 0.07171528086702685 0.07103875587200348 0.07882180772687108 0.06528048707449506 0.07590691878215647 0.08305320275687392 0.06211332820545282 0.06916238208643827 0.06759655404698096 0.0785292568267085 0.08101650599999589 0.09153303248421898 0.05124617611292807 0.0952827413637283 0.06211245314793043 0.0891159102792035 0.1124840858436827 0.07345767418277599 0.08851490187737518 0.07478955850805644 1:3 2:2 3:2 4:2 5:4 6:4 7:7 8:7 9:6 10:5 11:2 14:4 15:5 16:1 17:2 18:2 19:2 20:4 21:1 22:1 23:3 24:3 25:5 26:6 27:5 
-0.7198924257415152 -0.5445137333947854 -0.6806181704528553 0.722451069226798 0.7727944183007591 0.6998116631655542 0.7043257832148815 0.7906303945454972 0.6989308670999647 0.8113917498791281 0.5682271597793319 0.8067228781084358 0.5694947402168129 0.667160843008104 0.852512338702172 0.8087916526177416 0.5812113321863063 0.6975033554418839 0.7156685195380724 0.6276614920575385 0.7121465254452545 0.760119854327709 0.8027355823770118 0.7624590608659978 0.5432941332727439 0.6427826895791889 0.6151113007968638 0.6682708534796524 0.5639645027741373 0.7405819170734673 0.4590266970545577 0.7734727489185282 1:1 2:3 3:2 4:5 5:3 6:3 7:4 8:8 9:11 10:4 14:1 15:6 16:5 17:2 18:2 19:2 20:2 21:2 22:1 23:2 24:1 25:4 26:3 27:7 28:4 
-0.3175411521730198 -0.2568624910149812 -0.3331078727594471 0.3177021823996194 0.4718409171985397 0.3121518829182281 0.3472998237814138 0.4079088228818225 0.372879027254112 0.3643515334661379 0.2887431066599339 0.4056597490372278 0.2744365056784224 0.3286178891097691 0.3802282442675167 0.3758323318703363 0.2657969372105505 0.33257034201264 0.3160030189985071 0.2988555910267075 0.3197342413257127 0.3531391066975897 0.3618807964181044 0.3935244987989632 0.2445984886503764 0.3467195017280311 0.2783269309943511 0.3167015910785533 0.2930392172647852 0.3278190882638384 0.2275408999527615 0.3577677414665881 1:4 2:2 3:2 4:4 5:4 6:3 7:8 8:8 9:5 10:3 15:5 16:4 17:1 18:2 19:3 20:3 21:3 22:1 23:2 24:2 25:3 26:4 27:7 28:2 34:1 
-0.4060288523263456 -0.3120001994140418 -0.4213324326088852 0.4322806194888342 0.4519663777042495 0.4087269341301477 0.376634681944626 0.4263948470854627 0.4121122815808704 0.4807715810207009 0.3378787130048911 0.4726537825266294 0.3398883775184847 0.4221350853911532 0.508981860678985 0.4760914128204832 0.3473729000950511 0.4178308119342355 0.4238236759045999 0.3817787539916965 0.4244229800781028 0.4509655168032696 0.479590958053145 0.4565284758877997 0.3226213204120208 0.3846447066230729 0.3749472324716804 0.3951398426413614 0.3392756915369931 0.4433870221021556 0.2783583039224766 0.4631540617072769 0:3 1:1 2:2 3:3 4:4 5:7 6:7 7:3 8:5 9:7 10:2 14:4 15:7 16:3 17:3 18:1 19:2 20:4 21:2 22:3 23:2 24:1 25:2 26:7 27:3 
-0 -0 -0 0 0 0 0.05955840471970787 0 0.06982378541811229 0 0.04231793235944627 0 0 0 0 0 0 0.03850371606557846 0 0.04263518987929482 0 0 0 0 0 0.01521987920517089 0 0.004784730252169094 0.06324393498148709 0 0.008462826402442686 0 2:3 3:4 4:3 5:2 6:3 7:5 8:8 9:7 10:2 14:4 15:4 16:2 17:2 18:1 19:1 20:2 21:2 22:1 23:2 24:3 25:3 26:4 27:6 
-0.2894675671614698 -0.3486655190962764 -0.1877968471332702 0.3762563053075297 0.3806440310876469 0.2978066139777989 0.3690180183768856 0.2960279250859112 0.3180686059042595 0.3517767495589505 0.2555666464803026 0.3420130186261093 0.2547173875629202 0.3466635366152077 0.3743337690460134 0.3516508686015093 0.2783257741211432 0.3463516992781616 0.3200695501926523 0.3182676851090517 0.3138803182152686 0.3347345080603956 0.35097259994282 0.3303979049531801 0.2422888513806921 0.294196712312611 0.2784985046560391 0.287781531230505 0.3491036798509412 0.3278094686536625 0.2595884381696871 0.3896151022225809 0:1 1:3 2:2 3:3 4:3 5:4 6:5 7:9 8:8 9:4 15:6 16:4 17:1 18:1 19:2 20:4 21:3 22:2 23:2 24:4 25:3 26:4 27:6 
-0.7474649800598778 -0.5766801543239664 -0.8333650090115389 0.7455993948451836 0.7159802494892942 0.7271766725411409 0.7841080573354062 0.8422547688104352 0.7161923404600142 0.8319111337266819 0.5879606183817947 0.8236168607224162 0.5875868244680822 0.7212264818987766 0.877597534863543 0.8327617568233141 0.6044866108404608 0.7189051482915497 0.7409574427299109 0.6550711707360193 0.7368912726528201 0.7815034642665613 0.8279163384279148 0.7850658728317935 0.5611470851042385 0.6652263726010856 0.6496395244127523 0.6823088702840728 0.585334293975301 0.7630352843936864 0.4820107216113616 0.7985101217055446 0:3 1:2 2:1 3:4 4:4 5:8 6:8 7:6 8:2 9:7 10:4 13:3 14:6 15:5 16:3 17:4 18:1 19:3 20:2 21:2 22:2 23:2 24:2 25:4 26:7 27:3 
-0.2258138084012357 -0.1815626664394568 -0.4129263910671625 0.2229787826899897 0.3055933001835103 0.2320371020595396 0.3625044015436731 0.2998056893519556 0.2050351781642406 0.266963282044719 0.1762794150164417 0.2553300582475032 0.1754535028799799 0.226364323678587 0.2844004508462126 0.2780918840660721 0.2155246577398286 0.2397447221925288 0.2350352295350411 0.2169559093855714 0.233406822381282 0.251008664682728 0.2616264060102807 0.2443047968450361 0.1758606528101969 0.1950623407581184 0.2014814894577153 0.2298783606258075 0.1632621118409688 0.2417924350431216 0.1511917262834283 0.2486866117856196 1:3 2:2 3:2 4:3 5:3 6:4 7:7 8:7 9:6 10:5 11:3 14:4 15:6 16:1 17:2 18:2 19:2 20:4 21:1 22:1 23:3 24:3 25:5 26:5 27:5 28:1 
-0 -0 -0 0 0.1652945834777674 0 0 0 0 0 0 0 0 0 0 0 0 0 0 0 0 0 0 0 0 0 0 0 0 0 0 0 1:2 2:3 3:5 4:3 5:4 6:4 7:9 8:7 9:6 10:3 14:5 15:4 16:4 17:3 18:2 19:3 20:3 21:2 22:1 23:2 24:2 25:5 26:5 27:5 
-0.240950402749556 -0.1354948181539331 -0.7175744111852893 0.2304345539102498 0.4282165137933883 0.2609591996316443 0.1985894343001623 0.3299479172701715 0.2325595521086325 0.2675317250026087 0.1908710964183377 0.2579495921949096 0.186820534791574 0.2055935219815338 0.2803021854267704 0.273885341863744 0.1793975482461936 0.2217426882270081 0.2406589179916202 0.1883095712955548 0.2377003498225858 0.2466851843467696 0.2646774705437455 0.2526040947075058 0.1757344041702726 0.2605336228229239 0.195688303891162 0.2286222571884354 0.1596332399987562 0.2460675613636028 0.1719652886619145 0.2486760336301763 0:3 1:4 2:2 3:4 4:4 5:4 6:5 7:8 8:7 9:5 10:1 15:6 16:4 17:2 18:2 19:1 20:4 21:3 22:1 23:2 24:3 25:4 26:5 27:7 28:3 
-0.2762141615494645 -0.196446625662514 -0.3962759625242734 0.2595181141163546 0.2454629785452886 0.281842502852475 0.2899167603822017 0.3455569927910573 0.2691000730839597 0.2984305931060073 0.2093309000553529 0.3009969553726809 0.234033346515561 0.2420588842257929 0.3110607395947141 0.3042070110318572 0.2102636190159654 0.2336804003066598 0.266062000825211 0.218984240632461 0.257706497313321 0.2913294607884361 0.2935581212883699 0.2838199233210884 0.1997273776849581 0.2519369871971204 0.2235944622003068 0.2706129741764403 0.2221802317550447 0.2688816465026521 0.1721829300534808 0.2915018833591457 2:4 3:4 4:4 5:2 6:3 7:5 8:9 9:7 10:3 14:4 15:5 16:2 17:3 18:1 19:1 20:3 21:2 22:3 23:2 24:2 25:3 26:4 27:6 
-0.2862667645656742 -0.3084843620592752 -0.4949992247120282 0.3116042955135664 0.8678294387321553 0.2851966377157562 0.3252725303302762 0.3893840061880275 0.28536801028605 0.3234192716642449 0.2344980091997776 0.3499549458744656 0.2350940858199242 0.3091443272189492 0.3410878247947845 0.3381696171955628 0.2371145965851061 0.3040348687057058 0.2944824330265779 0.2566276820704868 0.2852018086294308 0.3024802635300795 0.3206475396723651 0.3048849277181998 0.2174007857642894 0.2734723823719869 0.2489597702825628 0.262313201779022 0.2357632667175129 0.2953401106962548 0.2113587956680063 0.3221190761578251 1:3 2:3 3:4 4:3 5:5 6:7 7:9 8:8 9:5 10:1 13:2 14:5 15:5 16:4 17:2 18:2 19:5 20:3 21:3 22:1 23:2 24:1 25:4 26:5 27:4 
-0.2603289881199013 -0.1797377119589215 -0.1460604090212836 0.2653774485551115 0.4629868510161511 0.232250533367903 0.1878338820496779 0.2609314560068451 0.2197221065572779 0.2785075817936712 0.1782793547789586 0.2816680940121659 0.1896347442828607 0.2179652754548744 0.293633767609612 0.2725578750823044 0.1741190445669302 0.2233711889318616 0.2469525290379954 0.1994133197791366 0.2447500203737561 0.2553883049436986 0.2758449330302293 0.2570705773620938 0.1868181067737997 0.2034487779030056 0.209090094576024 0.215679327203902 0.170812343008022 0.2531200038953101 0.1336502109386771 0.2685375776746026 1:3 2:2 3:2 4:3 5:3 6:5 7:6 8:8 9:8 10:5 11:2 14:4 15:6 16:2 17:3 18:2 19:2 20:3 21:1 22:1 23:3 24:3 25:6 26:6 27:5 
-0 -0 -0.0246781598793905 0 0 0 0 0 0 0 0 0 0 0 0 0 0 0 0 0 0 0 0 0 0 0 0 0 0 0 0 0 0:2 1:3 2:2 3:4 4:2 5:5 6:6 7:6 8:6 9:6 14:3 15:6 16:4 17:3 18:2 19:1 20:2 21:3 22:2 23:2 24:1 25:2 26:4 27:6 28:1 
-0.2839857207188157 -0.2019802513320595 -0.2135162147360961 0.3119406179352453 0.1246849681805628 0.2870859502233506 0.265822527457022 0.3319847006550217 0.3095882613914035 0.3426145080001677 0.2346938064840259 0.3327398410943295 0.2413049873732066 0.2714658162733226 0.3649104451940679 0.3419168189239357 0.2432428462066879 0.3171266461757721 0.3041788642748545 0.2601926743723011 0.3046589283599715 0.326428385045731 0.3423112361902485 0.3328344206356196 0.2316686678759873 0.275307112472079 0.260996648981299 0.2778454883781901 0.2677900538008833 0.3165984745668361 0.1904194316324154 0.3754329741138501 0:1 1:3 2:2 3:2 4:3 5:3 6:5 7:9 8:11 9:6 13:1 14:5 15:5 16:1 17:1 18:2 19:3 20:4 21:2 22:1 23:3 24:3 25:3 26:5 27:6 
-0.1713241476409932 -0.08173805982151813 -0.2104314999651471 0.1326039689137084 0.3464358294433849 0.1284168002855711 0.08767283389433725 0.1930517511448727 0.1447113065177626 0.1442398498686359 0.09255836677141882 0.2081418458382554 0.09853666334911718 0.1065773082339023 0.1469561351258331 0.1529142533090099 0.09025395569154025 0.1054006486530136 0.1225251232935193 0.09646263114425281 0.1214184154981304 0.1356820509644144 0.139558180700684 0.1405727075052771 0.09288172612031879 0.1152296280159159 0.1034261980539152 0.1213041061451181 0.07697594179612388 0.1267533421864726 0.06872785478880333 0.1135966875950749 0:1 1:4 2:3 3:2 4:3 5:4 6:4 7:8 8:9 9:8 10:1 14:5 15:6 16:1 17:2 18:2 19:3 20:3 21:1 22:1 23:3 24:4 25:5 26:5 27:6 
-0.157425882863874 -0.1434672986970288 -0 0.1803084306334803 0 0.1574829072007164 0.202139360620311 0.129910790263369 0.1790486012387346 0.1966176917646685 0.1751533630419142 0.1885615711664688 0.1510740362994761 0.1638926968918635 0.2090453981176047 0.1974951266209648 0.1681967997907356 0.242586019929545 0.1786291365458184 0.1866002858197944 0.1728022269177706 0.1856930377254511 0.1951804748141499 0.1829153686614832 0.1358693342234661 0.1828148816871376 0.1525025344617585 0.1642093033177993 0.225290158833081 0.1793210876007229 0.1497978140452401 0.2053517221561732 1:1 2:4 3:4 4:2 5:3 6:4 7:7 8:9 9:4 14:5 15:4 16:2 17:2 18:1 19:1 20:2 21:1 22:1 23:2 24:3 25:5 26:4 27:5 
-0.7141068679212227 -0.4950915693513555 -0.7998792273476616 0.6896650228458623 0.7214062637028739 0.6637438213396447 0.6231611299871302 0.8787808841826231 0.6588392851594539 0.7672886478260544 0.5306337849933651 0.7629755825788821 0.5335402528306543 0.6190578047417843 0.7976426669076081 0.7609467046175068 0.5362832487739712 0.6434943456215479 0.6695216549858272 0.576130874400416 0.6711205843091379 0.7052266260070661 0.7518427062610962 0.7155114785893881 0.502420081432413 0.6159496703563222 0.568593592328608 0.6192805235178388 0.5292847078803739 0.6977736645187113 0.43490531239969 0.7209044319243247 0:7 1:2 2:3 3:5 4:3 5:6 6:6 7:8 8:6 9:7 10:5 14:4 15:5 16:4 17:4 18:3 19:3 20:4 21:5 22:3 23:3 24:3 25:4 26:6 27:7 
-0.006426766873687981 -0 -0.3035610520374867 0 0.1217626550278487 0.0156085473892911 0 0.06595308186149881 0 0 0 0 0 0 0 0 0 0 0 0 0 0 0 0 0 0 0 0 0 0 0 0 1:1 2:4 3:5 4:4 5:3 6:3 7:7 8:10 9:5 14:4 15:5 16:4 17:3 18:1 19:2 20:2 21:1 22:1 23:2 24:2 25:5 26:5 27:5 
-0.701476511169129 -0.5350781463452828 -0.6403944889284604 0.7220885374532027 0.6493646241968158 0.6807188841444188 0.6816457603411848 0.7876205308769032 0.698814125222602 0.7916954721804945 0.5619399324540395 0.7870257507152034 0.5603861685750601 0.6528379413009459 0.8393623386157815 0.8009768646931059 0.5683420627601842 0.6776464988898384 0.7067033732789278 0.6210869143617408 0.7004790251628801 0.7455639364696028 0.7866782060976414 0.7483284817129993 0.5322801010324391 0.640563728633193 0.6019841478365381 0.6514274554135532 0.5924970033031114 0.7280258237255918 0.4555136340942227 0.7808220521289384 0:6 1:2 2:4 3:5 4:2 5:3 6:5 7:11 8:9 9:2 14:5 15:4 16:4 17:4 18:2 19:2 20:3 21:2 22:3 23:3 24:2 25:5 26:5 27:5 
-0.3352636546276838 -0.08580520137378472 -0.338992192108536 0.1764086973112984 0.6020135650329527 0.2468250035911852 0.1442872977889188 0.4444073438380263 0.1087848094883888 0.1321561552992027 0.0921309907076774 0.2079568517695334 0.09915483852761289 0.09104170594734919 0.1404212287834428 0.1509417849642012 0.08479977771073852 0.09254777697205534 0.1239162718658877 0.09053072560051718 0.114374803712611 0.1252341089283458 0.1289003547846428 0.1347203027403971 0.08290188970764925 0.1028594611726245 0.09192832411674157 0.1154436157232653 0.1048310749536929 0.1163657769730507 0.06898478388488831 0.126684654928323 0:1 1:4 2:4 3:4 4:2 5:4 6:5 7:8 8:9 9:5 10:2 11:2 14:4 15:6 16:4 17:4 18:2 19:2 20:3 21:5 22:3 23:2 24:2 25:4 26:4 27:5 
-0.9526758042493947 -0.7163009109160442 -0.9372091625482041 0.9505480458659507 0.976051554037333 0.9394180693545992 0.9336194829522318 1 0.9221780318955729 1 0.7622211762926222 1 0.7564222619506382 0.8776560516269026 1 1 0.7718246432818038 0.9164336641472774 0.9485280276019102 0.8271234977417043 0.9400492283295239 1 1 1 0.7166160961614453 0.855247487592136 0.8119422025530825 0.8847142792681049 0.7545449372150582 0.9812880405185204 0.6213290498026331 1 0:1 1:1 2:5 3:6 4:2 5:3 6:3 7:7 8:9 9:4 10:3 11:9 13:1 14:5 15:4 16:2 17:2 18:1 19:3 20:4 21:3 22:2 23:3 24:3 25:7 26:6 27:7 
-0.4568649302347451 -0.3707737897842394 -0.41661850299157 0.496453911622746 0.279688382337025 0.4458024909073933 0.4379980534100588 0.5017568386378918 0.4665594161194028 0.5514314014576192 0.3840484811130899 0.5414319025691677 0.3849450161677947 0.4555355879922497 0.5863215854866326 0.5484750663007429 0.3991460465582923 0.4996007946956614 0.4905382011403208 0.4291192791834658 0.4898392551022407 0.51876069529936 0.5513567881644859 0.5259659269263801 0.3738585902787673 0.443123451644766 0.4219358346956812 0.4487608286466152 0.3851222752932406 0.5097868109995823 0.3162388791608051 0.552228475922149 1:1 2:1 3:6 4:3 5:4 6:4 7:7 8:10 9:9 10:1 14:1 15:6 16:3 17:3 18:2 19:2 20:1 21:3 22:2 23:2 24:1 25:3 26:5 27:6 28:5 29:1 
-0.2259460148833941 -0.1341167025920478 -0.3202603164424948 0.1848371145790978 0.3676744494544669 0.225998206099408 0.2416845398312806 0.2943231809533049 0.2077273113430306 0.1986442332580104 0.1452381474059323 0.1967787371987108 0.1494785612966909 0.1636938442167556 0.2043860762622423 0.2057417088884221 0.1386774836440924 0.1646101421421091 0.1747381729469429 0.1522178647419441 0.1694213641342437 0.187682912940666 0.1940123271680161 0.1808142588998528 0.1306424342866407 0.1734861177547461 0.1489209147777661 0.1664067993903526 0.1484325496239498 0.1771642170896401 0.1129799494552106 0.1800350429188019 1:1 2:2 3:6 4:3 5:4 6:3 7:6 8:9 9:9 10:1 15:7 16:3 17:3 18:2 19:2 20:1 21:3 22:2 23:2 24:2 25:3 26:4 27:6 28:4 
-0.4702734685812076 -0.3653856522828839 -0.3701223064919471 0.4834692643798572 0.7352106587491903 0.4661704279368822 0.4888347190167333 0.5405582789635598 0.4572362858789618 0.5429583973065949 0.3718655174436164 0.526208718162986 0.3800127478116738 0.4527584976453493 0.5739355667067378 0.5480456498326172 0.3891558523194992 0.4832469241467974 0.4804695916388138 0.4265147676718497 0.480026348238788 0.5100110176570071 0.5402400312196938 0.509335848079765 0.3659901438832003 0.4257643873980621 0.4142734248242539 0.4386593766005539 0.3710064333715131 0.4994216208965472 0.310383543306277 0.5230117398195663 2:1 3:5 4:4 5:3 6:4 7:6 8:10 9:9 14:6 15:5 16:3 17:2 18:2 19:3 20:3 21:2 22:1 23:1 24:2 25:4 26:4 27:4 
-1 -0.6833431338560426 -0.8313404935949092 0.9040802363728829 0.8760716903378224 0.8940561453598431 0.8843676134920713 1 0.9073340838681285 1 0.7178335926437672 1 0.7184516484189334 0.835590261056224 1 1 0.7310154032212745 0.8750847371259658 0.9055671516983211 0.787272466326194 0.9036016440800124 0.9679537387311565 1 0.9758104086127454 0.6830320698052913 0.816975345165099 0.7718998188891083 0.84409891534713 0.7138183881570819 0.9530949983517715 0.5781407657431427 0.9737612044129237 0:10 1:8 2:4 3:4 4:3 5:5 6:4 7:9 8:8 9:5 10:2 13:1 14:5 15:5 16:4 17:2 18:3 19:4 20:4 21:4 22:3 23:5 24:3 25:6 26:7 27:6 
-0.2300176043489082 -0.1619269819815377 -0.7013830964949519 0.2162086946903714 0.5146183100902753 0.2252968083650017 0.3455705516560253 0.2663048546874059 0.1989536094007882 0.2567621206435391 0.1720745752676148 0.2372549545291614 0.175269705238762 0.2070983876614767 0.2680963826308818 0.2518687353031029 0.179928831245569 0.2129407025701384 0.2247065855161369 0.1956914174678599 0.2230557071586254 0.2375524630827182 0.2540361767994805 0.2365483106365847 0.1713982113089592 0.189946676104344 0.1903569924625845 0.2039890880977546 0.1559029464741168 0.2333265520330332 0.13076821103442 0.2354882385117107 0:1 1:3 2:2 3:4 4:3 5:4 6:5 7:7 8:5 9:7 10:5 14:4 15:6 16:5 17:3 18:1 19:2 20:3 21:3 22:2 23:2 24:2 25:2 26:4 27:7 
-0.2331017659261559 -0.1784275936088461 -0.2568406090069662 0.2011356432382781 0.2912244958924476 0.2156624211502462 0.4433328795763036 0.2798309730938719 0.2000885769996278 0.2304982751963359 0.1614578805829077 0.223128311087335 0.1619491820087481 0.2344670805051493 0.2395991867402079 0.2355236585306896 0.1840070449747999 0.2075927825244365 0.2052498582469665 0.2015390607879795 0.2005375765876166 0.2161485610027093 0.2253826424536759 0.2110392506204151 0.160946162316166 0.1758608594135232 0.1754730198780449 0.1853749391663879 0.1668991477156469 0.2075710077218632 0.1265151497044072 0.2165578755825754 0:4 1:2 2:2 3:4 4:4 5:6 6:7 7:3 8:5 9:6 10:2 13:1 14:4 15:7 16:4 17:2 18:2 19:2 20:4 21:2 22:3 23:2 24:1 25:2 26:6 27:3 
-0 -0 -0 0 0.3534195048433506 0 0 0 0 0 0 0 0 0 0 0 0 0 0 0 0 0 0 0 0 0 0 0 0 0 0 0 1:1 2:4 3:4 4:4 5:4 6:3 7:8 8:10 9:5 14:4 15:6 16:3 17:3 18:1 19:3 20:2 21:1 22:1 23:2 24:2 25:5 26:4 27:5 28:1 
-0.7629745399844664 -0.5825295743709356 -0.7165152808621467 -0.7546572836015645 0.7595900751529965 0.7480457869725314 0.75423649579709 0.8384114590005626 0.7522804341824996 0.8707112398294927 0.6090166294951329 0.8598873517536891 0.6076615032671752 0.7119931126493029 0.9221513482922969 0.870329850134794 0.6190726249167535 0.7464738286810652 0.7670325163778399 0.6707753743898771 0.7621641630858185 0.8143312243864775 0.8651046035933532 0.8164911896109496 0.5775931548002006 0.6918282215971189 0.6550856378533347 0.7078106308139118 0.6156797627748364 0.7925661550178452 0.4820875881628625 0.8435149583583063 1:2 2:3 3:5 4:4 5:4 6:4 7:12 8:14 9:5 10:1 11:3 14:2 15:3 16:3 17:6 18:3 19:5 20:2 21:4 22:4 23:10 24:8 25:3 26:2 27:2 
-0.2743168590661886 -0.2041680315388768 -0.2562135564907319 -0.2740502452578689 0.2776364932963379 0.2739416393645244 0.2728171917756275 0.3011461638422109 0.2734316635855222 0.3212124000269642 0.2242463574109096 0.3173012006230454 0.224847364335093 0.2592567391143422 0.3392414511404414 0.3173216580363899 0.2267001544190411 0.275630014368743 0.2611533673694673 0.2471957483183336 0.2807003062697309 0.3040682116481884 0.318915842173986 0.3014593336837075 0.2143343250525286 0.249181487296638 0.2404258464061956 0.2608259091179549 0.211376147062014 0.2932601588951886 0.1517928558578636 0.2940012842975799 1:1 2:4 3:6 4:4 5:8 6:9 7:9 8:8 9:6 10:2 11:1 13:2 14:2 15:3 16:4 17:4 18:3 19:3 20:4 21:3 22:4 23:9 24:8 25:6 26:2 27:1 
-0.3543095367366272 -0.2429473026047282 -0.3123003342052033 -0.3335170424747451 0.3370492851538845 0.3353839576988303 0.3175962251510064 0.3904798462824431 0.3096173437162896 0.3826228527150728 0.2549535144441926 0.3814893448940036 0.2522760078173424 0.2989618042720158 0.4051722255293194 0.380689496429684 0.2705899143417978 0.3262154995685753 0.3489212986956975 0.2882727406745816 0.3353306680194107 0.3486538699910208 0.381541115192422 0.3593664188088228 0.2491140754639567 0.2966909086863169 0.2708227023224106 0.3095149789563783 0.243039094630875 0.3507994889990401 0.1965005402627088 0.3625692559870329 2:6 3:11 4:5 5:7 6:6 7:7 8:5 9:5 10:4 11:1 13:3 14:3 15:4 16:4 17:4 18:4 19:3 20:3 21:7 22:5 23:7 24:6 25:4 
-0.3212897228300469 -0.2155110736653804 -0.3187043636571936 -0.359988689473026 0.3205546434764515 0.3326755015420427 0.3237222104996532 0.3878679964500252 0.3808656299547012 0.3889638889729969 0.2719179974692421 0.4235817679734798 0.3009651785644022 0.2992041253842254 0.4148702892102401 0.3492528747457408 0.2744896872383164 0.3268131144182718 0.3599507262304824 0.294217467575429 0.3396255193724827 0.3741730125508849 0.3928834196117366 0.3976277628692259 0.2557965712002605 0.3630710973246556 0.2849810707602594 0.3463421175927309 0.3743952352736804 0.3853129575634863 0.2674929208625502 0.4934888331045311 0:2 1:3 2:3 3:4 4:2 5:5 6:6 7:9 8:9 9:7 10:2 16:2 17:4 18:4 19:3 20:4 21:6 22:4 23:6 24:6 25:4 26:4 27:3 28:2 
-0.6195895460001878 -0.503748472562797 -0.5763569588973947 -0.5944143199684442 0.6151887433515713 0.6467594025172437 0.6443726276787585 0.6936386765620526 0.5714153617748545 0.6834210638935195 0.529089318394295 0.6713079477641515 0.5624014953222317 0.6322343138410097 0.7122194554123304 0.6982140946622791 0.4916759527067536 0.59127002041071 0.7849310101420572 0.550050615014167 0.5929536345884242 0.6775423069128915 0.6766568406727155 0.6481633153113154 0.4684593703417468 0.5844313038458069 0.5665505378675977 0.5611441731610027 0.6006177540700081 0.6150728041525291 0.4545629662444485 0.6972575219675995 2:7 3:8 4:5 5:6 6:5 7:5 8:4 9:5 10:1 13:1 14:2 15:3 16:3 17:4 18:3 19:3 20:3 21:5 22:4 23:6 24:6 25:3 
-0.0343764834764128 -0 -0 -0 0.02020306658920254 0.01219655588837948 0 0.0196477033722888 0 0 0 0.004503356850423379 0 0 0 0.1071275881606456 0 0 0 0 0 0.04306928839268053 0 0 0 0 0 0.03575398295266846 0 0 0 0 0:2 1:3 2:4 3:4 4:3 5:5 6:6 7:7 8:9 9:8 10:2 15:1 16:3 17:4 18:3 19:4 20:4 21:6 22:5 23:5 24:6 25:5 26:3 27:2 28:2 
-0.1476886441691589 -0.2036850585925598 -0.1474794997347808 -0.2117754127923936 0.1759293922814333 0.140771429172753 0.1918555597870508 0.1636515386797945 0.1340675286206878 0.1663411299238791 0.1161723151853579 0.2536787233485202 0.09541845268781796 0.1770500618836242 0.1804879007321687 0.1829156724838598 0.1267045214194608 0.1667892641043308 0.1487814392226274 0.1393338692514252 0.1756943289418878 0.1463241244815635 0.1621730630657179 0.1583709506843954 0.1138433209620041 0.1473797394247271 0.141780431789756 0.1153799798435487 0.03362234886378201 0.1628982781037799 0.1506144376577414 0.1669797962191685 0:2 1:3 2:3 3:3 4:2 5:6 6:7 7:10 8:8 9:6 10:1 15:2 16:2 17:4 18:5 19:5 20:3 21:4 22:3 23:5 24:6 25:5 26:3 27:2 28:2 
-0.03444164390477827 -0.05177585803955224 -0.04745217042264763 -0.0880984104126125 0.1033090696340665 0.04564743480564411 0.05688782664834642 0.06295663466649666 0.06192758090682724 0.03732080664983457 0.03400041822918746 0.03633686888201483 0.02880670739521918 0.04754320226674753 0.03956290093317889 0.04196414371875733 0.02926481927072347 0.04182501573320748 0.01496921119404387 0.03707305609390475 0.03208649689355253 0.03182877407745791 0.03617360466210745 0.03589219554429027 0.02414796301326713 0.03469163550336191 0.03253601174901247 0.03593411200848431 0.08052048378757802 0.03426484096071422 0.1003653161760035 0.03790956837713347 2:4 3:5 4:5 5:6 6:5 7:9 8:9 9:6 10:1 11:1 14:2 15:3 16:3 17:4 18:3 19:4 20:3 21:3 22:3 23:6 24:8 25:6 26:2 27:1 
-0 -0 -0 -0 0 0 0 0 0 0 0 0 0 0 0 0 0 0 0 0 0 0 0 0 0 0 0 0 0 0 0.0829949485173487 0 0:1 1:3 2:4 3:3 4:4 5:6 6:8 7:6 8:8 9:8 10:3 11:1 15:3 16:3 17:5 18:4 19:5 20:4 21:5 22:5 23:7 24:5 25:5 26:1 27:2 28:1 
-0.9710239552943343 -0.7408450103636414 -0.9119137416166307 -0.9623151624672643 0.9695953274506153 0.9527935327640237 0.9597278217948959 1 0.9098092256996243 1 0.7743709927717569 1 0.7728625799638897 0.9062182161913448 1 1 0.7880901167699986 0.9504699090843061 0.976320985674885 0.8540252565078702 0.9694482036622627 1 1 1 0.7354973486426557 0.8779369441616814 0.8336062958910506 0.9004857339676379 0.7709460415686425 1 0.617821901859997 1 1:3 2:4 3:4 4:4 5:6 6:4 7:13 8:15 9:2 10:5 11:9 14:1 15:2 16:3 17:4 18:4 19:6 20:7 21:5 22:4 23:5 24:11 25:9 26:3 27:4 28:1 
-0.4601473401069353 -0.3433296271880991 -0.4323659024109376 -0.4603806153314522 0.4590161191365508 0.4511763651980605 0.4535532271764083 0.5044346019548926 0.7990831263040243 0.5229392133660052 0.3663607079635325 0.5168730888183167 0.3664329017569277 0.4286742511132315 0.5528210996803405 0.5217029696717508 0.3725752397320582 0.4490675385733816 0.4642235767048437 0.4040712203243969 0.4587218084126114 0.4904820967326216 0.5199831132058783 0.4925628993074007 0.3487285487372866 0.4157456182424234 0.3936166359600214 0.4267034497392933 0.3531053499462331 0.4779471104855146 0.2889606837436134 0.4998435463211265 0:2 1:4 2:4 3:3 4:4 5:4 6:8 7:14 8:7 9:1 10:1 14:2 15:3 16:4 17:4 18:3 19:2 20:2 21:3 22:3 23:9 24:10 25:2 26:2 27:3 
-0.3136153218085641 -0.2823154928944263 -0.3160970951424213 -0.3220938223253846 0.3468964236400013 0.3340746540092125 0.3611663762737057 0.35352920692227 0.2293743171654038 0.3721160645104182 0.2601192838548974 0.2833017789463981 0.2160025010656144 0.3452852658853584 0.4504177661170182 0.3991864033632226 0.2992119199923239 0.3567295811978545 0.362449787605067 0.3205607957541129 0.3870964045514839 0.3585006704692314 0.3849009523670842 0.2981472723572693 0.2741349053873373 0.2680538833367374 0.311612472236993 0.2462000446399623 0.2587113542682102 0.3816425583487042 0.2038247697260998 0.4077860709073159 0:1 1:3 2:4 3:3 4:3 5:7 6:7 7:5 8:8 9:8 10:5 11:4 15:2 16:4 17:5 18:4 19:6 20:4 21:4 22:4 23:7 24:5 25:5 26:3 27:2 28:2 31:1 
-0.2835443449200978 -0.1567811970731682 -0.2269004082495509 -0.2495121153446389 0.2782244536729742 0.2250470664622705 0.2070667581459263 0.3004541639146845 0.1664148864076597 0.214488852784069 0.1475653276928344 0.2598444021350156 0.1265512458944878 0.1911556052207398 0.2336623631526551 0.2046189562164043 0.1627332210245095 0.1980423407295487 0.1969776531085833 0.178045674944787 0.1957973678701914 0.1894900320913908 0.1923731626040404 0.178849823358407 0.1534955043157077 0.1505465752054284 0.1683881692637954 0.1625795979763596 0.1534944100014567 0.2030465363999539 0.07617799739461675 0.2164368753127139 1:3 2:4 3:3 4:4 5:6 6:6 7:7 8:10 9:9 10:4 11:2 15:3 16:4 17:4 18:5 19:4 20:4 21:5 22:5 23:7 24:5 25:5 26:4 27:2 28:1 
-0.08975605325170323 -0.07951997303859586 -0.01914466643100733 -0.1078819996198637 0.1261904381154731 0.1066631638047888 0.1275268055271629 0.1177968104786817 0.1178354842018233 0.1014170276380508 0.113433865956382 0.1941452094409873 0.1122583980307211 0.09846187592122628 0.1051846916646623 0.09094298212363987 0.08047231702061099 0.09196464866062354 0.07883733017128984 0.08316317310153534 0.07027055116439322 0.1168349101752486 0.1496936641427133 0.1713383056136062 0.07098762446741112 0.08231908054447251 0.0907521061354364 0.1138302392481982 0.1169314545191978 0.08081272683065614 0.110594205785288 0.1024116424751536 1:3 2:4 3:3 4:3 5:7 6:6 7:5 8:8 9:8 10:5 11:3 15:2 16:3 17:5 18:4 19:5 20:4 21:4 22:3 23:7 24:5 25:5 26:4 27:2 28:2 
-0.3009052229398421 -0.1538507309543097 -0.3850001919330261 -0.2659936345466615 0.2624358304291944 0.2233504791451829 0.2058759371629864 0.2827058287933584 0.3011018049583676 0.3112609916100572 0.1780989274710409 0.311919270485143 0.2342172619161177 0.1973805598824011 0.2573767378292527 0.283800146523016 0.1728884740681468 0.2014705959953665 0.2416994867605483 0.1842125054099785 0.2353792805656283 0.2825802036758384 0.2922263532916018 0.311363654827515 0.1562705707866039 0.2703194473561296 0.1937095159848927 0.3360985709005395 0.1748737293554971 0.2452896999119381 0.1519390358894307 0.2124233035753709 0:1 1:3 2:4 3:3 4:3 5:7 6:6 7:5 8:7 9:9 10:5 11:3 15:2 16:3 17:5 18:4 19:5 20:4 21:4 22:4 23:7 24:5 25:5 26:3 27:3 28:2 
-0.07054240308099438 -0.0351309232856716 -0.05891014195490754 -0.03971683503498502 0.05872603633396938 0.0720906975197034 0.05481737017428769 0.08786729316190123 0.04693401566597945 0.0809742326669575 0.04310518511489038 0.05273798704279938 0.04467107291254265 0.05600204870838225 0.08560496205368442 0.07607754637199582 0.05417174328727033 0.061431264153432 0.09703471192012492 0.05505194809245205 0.06742523492295682 0.06424078105974816 0.08026165638762206 0.07263303087256634 0.05225617081505643 0.02543864560513391 0.05210894588357907 0.05662419946488668 0.06832353608291969 0.07350569977766144 0.02613487064400655 0.1311511057947146 0:2 1:3 2:4 3:4 4:3 5:6 6:8 7:9 8:10 9:5 15:2 16:3 17:4 18:3 19:5 20:4 21:5 22:4 23:7 24:7 25:5 26:1 27:2 28:1 29:1 
-0.404085355727912 -0.2793756428739694 -0.3653203304371941 -0.3683728577327892 0.3841037111563121 0.390591073303017 0.3826307836392144 0.4297326266252394 0.3287268878422932 0.4542559715727553 0.3118699543796906 0.4604338366715438 0.3052274516982817 0.3623332252242872 0.4796106779128415 0.4530784495404846 0.3212649422936585 0.3856586392046344 0.3902482216789472 0.3467268545927634 0.3936129701396396 0.4260801537000091 0.4513580901426319 0.4275289651279056 0.3020169900508702 0.3212732958765983 0.3393245107772869 0.3634766254826925 0.2916421621724156 0.4078607528896441 0.202936662445847 0.4817971786835964 1:3 2:4 3:4 4:3 5:4 6:5 7:11 8:12 9:7 15:2 16:3 17:4 18:5 19:4 20:3 21:5 22:3 23:5 24:8 25:5 26:2 27:1 28:2 29:1 
-0.6160376797026084 -0.5141885046130694 -0.5818277440326394 -0.6147784199996316 0.6162916137439733 0.6044124760982994 0.6160675074226791 0.675754447424974 0.6607771452543779 0.7016915281142707 0.492956292570036 0.693735206608409 0.4909574906329985 0.5791431015305784 0.7414775897508075 0.7009940446555262 0.503651443883296 0.6069979584284242 0.6241715265691397 0.5473209927576752 0.6157458303896518 0.6581596310090992 0.6974206051594594 0.6601024989025612 0.4673604654164558 0.5580534385153603 0.5328123441114795 0.5723974951713026 0.4913924292654721 0.6404576386942864 0.3972296694030063 0.688413693566797 1:3 2:3 3:3 4:3 5:5 6:7 7:14 8:4 9:2 10:2 14:2 15:3 16:3 17:4 18:3 19:2 20:3 21:2 22:2 23:7 24:10 25:1 26:2 27:2 
-0.3436871651189196 -0.2496910055277551 -0.3206997364410628 -0.3258266840083955 0.338913909004582 0.3365603452847984 0.3362208509852321 0.37668022145065 0.3448830112507703 0.3910489623922571 0.2737145827856477 0.3874416005452265 0.2742001312692567 0.3196860274113645 0.4139832039415161 0.3968428638525325 0.2788251780430908 0.3351405411533434 0.348813312839641 0.3005162536455101 0.3431591078018056 0.3672221159929632 0.388968621818992 0.3678442919263208 0.2602536262477783 0.3111182666019306 0.2941130549431372 0.3193372920814925 0.3153376633621989 0.3608095692461443 0.2153584320050404 0.3807365898706682 0:2 1:4 2:4 3:5 4:3 5:4 6:6 7:14 8:9 9:2 10:1 14:2 15:2 16:3 17:3 18:4 19:4 20:4 21:4 22:4 23:6 24:11 25:3 26:2 27:2 
-0.1995202587016819 -0.1487328868517425 -0.1890740925964241 -0.1919499985538633 0.192952945236694 0.1949112972538313 0.194042575360519 0.2291492579851856 0.190955342077519 0.2274742520740893 0.1568650402504524 0.2450619454851043 0.1575050831785366 0.1831039561924371 0.2396546689590507 0.2334515346024669 0.1625530666804228 0.1924998500069094 0.218810543550139 0.174321388242944 0.1987404388202762 0.2120267048232313 0.2269473189046149 0.2108888983334845 0.1521375146915517 0.1785141726666041 0.1732587771034221 0.1825496199929405 0.13766475727589 0.2055092878145685 0.1287479656618647 0.2143852092020442 2:3 3:7 4:5 5:5 6:6 7:11 8:8 9:7 10:2 11:1 13:2 14:2 15:3 16:3 17:4 18:3 19:4 20:3 21:4 22:4 23:7 24:8 25:5 26:2 27:1 
-0.1610504024662795 -0.1798648671195594 -0.1793034339639898 -0.2226481325062123 0.190553641310129 0.1494595511288606 0.1790439394780934 0.1705626704833635 0.3769951000274497 0.1783752980214539 0.1744567632044166 0.1679100680083686 0.2128113946887492 0.1696270275197156 0.1831911757484537 0.2094278874537822 0.135493127368379 0.1730496425461383 0.1715806729912485 0.1554184759054726 0.1537948409478816 0.2050021049555291 0.1837477005262368 0.1734610486928091 0.119404324591937 0.3532943744885626 0.146364041198005 0.1776326885895805 0.4315802933514672 0.1572222722109091 0.2472577504644402 0.237386998896146 0:2 1:3 2:3 3:4 4:2 5:6 6:6 7:7 8:9 9:6 10:1 15:1 16:3 17:3 18:4 19:4 20:2 21:5 22:4 23:5 24:6 25:5 26:3 27:2 28:2 
-0.3493207826639887 -0.2819930471022687 -0.3264277240433535 -0.3880992773997479 0.3518987104488533 0.3413601179025638 0.3435023240397809 0.3966791809903508 0.3906363512387822 0.3937348327722767 0.2773354738381112 0.4066537121899095 0.2774203826493155 0.3216933169039962 0.415616252822151 0.3959013679762983 0.2808804038838702 0.3397337443705423 0.3452541027732304 0.305456290428933 0.3432677818212199 0.3703229464208173 0.3910884624440018 0.3717813507739188 0.2612798585706388 0.3180721652577452 0.2956919744703329 0.3226647352647053 0.4056278636805595 0.3576771923091625 0.2244338422931952 0.4281206717468143 1:4 2:3 3:4 4:3 5:3 6:6 7:13 8:11 9:3 14:1 15:3 16:3 17:4 18:4 19:4 20:3 21:4 22:3 23:4 24:9 25:4 26:2 27:2 
-0.9391797922520656 -0.7161710429018265 -0.8816294189361648 -0.928729090721355 0.935240217782623 0.9192702895891227 0.9270868033709989 1 0.8771929307363266 1 0.747943619177464 1 0.7456108225541263 0.8750724273144954 1 1 0.7615922213283463 0.9172447767285032 0.9424582168057796 0.8246361904890777 0.9359570148627272 1 1 1 0.7097474967491728 0.8473512747104121 0.8050389139389349 0.8695272528500446 0.7425095618487585 0.9747792418987423 0.5966757132565185 1 1:1 2:3 3:5 4:3 5:4 6:5 7:11 8:13 9:7 10:10 11:6 13:1 14:3 15:3 16:3 17:5 18:5 19:6 20:5 21:6 22:4 23:10 24:9 25:3 26:3 27:2 
-0.6343150102432104 -0.4876695406367511 -0.6102500664615295 -0.6288590335632958 0.6348230122834834 0.6293757974647082 0.6443123669001575 0.6964395479375664 0.5927194930210626 0.7210816414449099 0.5055918661704791 0.7125260038210908 0.5017184902315424 0.5957243531541822 0.7628510373225863 0.7217135881868342 0.5156890286729074 0.620524645283652 0.656335100031942 0.5588147168780906 0.633746635383508 0.6860174456601298 0.7182567088197195 0.682259135310297 0.4805502508704027 0.5725157491679659 0.5606761874766574 0.588325623638683 0.5046471806299072 0.6581888205899935 0.40609934065797 0.6931991361273721 2:5 3:11 4:5 5:7 6:5 7:7 8:4 9:5 10:3 11:4 13:3 14:2 15:5 16:5 17:5 18:3 19:2 20:3 21:7 22:5 23:7 24:5 25:4 
-0.4174530645645893 -0.3655659764045282 -0.408734950095164 -0.4131758214175337 0.415852340667016 0.4032769287017028 0.4167047884077051 0.4600688145187709 0.4001407954336239 0.46669038567124 0.3255146651252632 0.4785197923092845 0.330868880421732 0.4209530200395002 0.4950215139367703 0.4669426385474254 0.3393377748058918 0.4051364207320431 0.6091400475217864 0.3685538104556584 0.4120851036908357 0.4333903552709725 0.4651091501089847 0.4379388295591244 0.3141298692752947 0.3848973786425836 0.3791763557479126 0.379319209892417 0.3167247860936763 0.4278979991853219 0.3442443460312469 0.4597878169507933 1:3 2:5 3:6 4:5 5:8 6:9 7:7 8:5 9:4 10:1 13:1 14:2 15:3 16:3 17:4 18:3 19:4 20:2 21:3 22:6 23:7 24:8 25:5 26:2 
