svm_type c_svc
kernel_type rbf
gamma 0.0277778
nr_class 33
total_sv 995
rho 0.0735825 0.0305236 -0.0434482 0.130039 0.0377205 -0.0645101 -0.0202888 0.0477765 0.0271942 0.0448752 -0.157931 0.0461788 -0.200245 0.010864 0.0798368 0.138868 -0.12259 0.0464962 0.0757708 -0.108488 -0.0810341 -0.0379751 0.0936011 0.0178078 -0.0417433 -0.153284 -0.161499 -0.00917271 -0.0224203 -0.0136025 -0.167852 0.105192 -0.043596 -0.141892 0.0548053 -0.0384435 -0.126071 -0.0955739 -0.039484 -0.0458049 -0.028999 -0.230361 -0.0294575 -0.270551 -0.0718801 0.00599263 0.0596127 -0.246958 -0.0268126 0.000687837 -0.185008 -0.153007 -0.109718 0.0192038 -0.0544476 -0.147017 -0.228693 -0.240432 -0.0811394 -0.0980068 -0.0855715 -0.247443 0.0306801 -0.0714195 0.10048 0.00515075 -0.0843001 -0.0512955 0.00188937 -0.00294523 0.0133486 -0.188282 0.0128827 -0.229441 -0.0194191 0.0497168 0.105549 -0.156492 0.0162984 0.0443427 -0.140278 -0.110772 -0.0679104 0.0633808 -0.0123362 -0.0745222 -0.185051 -0.190729 -0.0391625 -0.053553 -0.0436092 -0.200622 0.0753073 0.170429 0.0700376 0.0235313 0.0108477 0.0922444 0.0621332 0.0799557 -0.126713 0.0804186 -0.169068 0.0458817 0.116921 0.175306 -0.0909159 0.082792 0.113058 -0.0729049 -0.0508328 -0.0076838 0.131105 0.0516496 -0.00964296 -0.120608 -0.132265 0.0222707 0.00833984 0.0175323 -0.135311 0.143261 -0.0953438 -0.18165 -0.149983 -0.0965359 -0.103197 -0.0834983 -0.283434 -0.0847907 -0.324487 -0.119514 -0.0486406 0.00474026 -0.260515 -0.0829526 -0.0552918 -0.241182 -0.205078 -0.165292 -0.0364368 -0.108977 -0.180636 -0.285236 -0.283171 -0.135407 -0.154769 -0.140757 -0.307245 -0.0259729 -0.104798 -0.0561601 -0.00700366 -0.00815973 0.00818907 -0.193722 0.00621674 -0.234869 -0.024721 0.0446767 0.100643 -0.162082 0.0112197 0.0394342 -0.145748 -0.115885 -0.0730337 0.0584169 -0.017537 -0.0800743 -0.190608 -0.195588 -0.0443119 -0.058922 -0.0487555 -0.206703 0.0702744 0.0328246 0.188469 0.0806117 0.125195 -0.103186 0.0984441 -0.148886 0.0638746 0.132271 0.194877 -0.0620368 0.0993041 0.131979 -0.0531506 -0.0280577 0.0151932 0.149188 0.0707172 0.0131804 -0.0967487 -0.10939 0.0440087 0.0306718 0.0394977 -0.111171 0.157305 0.0535294 0.0474873 0.0641556 -0.137107 0.0636937 -0.179151 0.0347318 0.100272 0.154897 -0.103119 0.0675567 0.0948396 -0.0931914 -0.060849 -0.0177053 0.113837 0.0379312 -0.0203536 -0.131319 -0.143124 0.011097 -0.00214553 0.00664722 -0.145933 0.125593 -0.00572224 0.0100099 -0.191089 0.00922971 -0.232619 -0.0222332 0.0456929 0.101828 -0.159412 0.0132397 0.0415948 -0.143146 -0.113474 -0.0707007 0.0594013 -0.0151369 -0.0774851 -0.188224 -0.193257 -0.0419125 -0.0564684 -0.0463591 -0.204025 0.0712149 0.0182965 -0.205932 0.0464988 -0.31273 -0.0162744 0.0521221 0.109314 -0.153075 0.0189063 0.0473675 -0.137074 -0.107977 -0.0684395 0.0679089 0.0191215 -0.0715362 -0.245628 -0.18784 -0.0368321 -0.0498635 -0.0410722 -0.212318 0.0790247 -0.206717 -0.000730677 -0.257418 -0.0330909 0.034994 0.109015 -0.170901 0.00282428 0.0305905 -0.154205 -0.124045 -0.0847216 0.0524347 -0.0266335 -0.0887044 -0.200741 -0.203284 -0.0534537 -0.0679794 -0.0570882 -0.221422 0.0596869 0.207429 -0.0559872 0.168953 0.236174 0.290589 0.0418915 0.204388 0.233675 0.0492686 0.0741899 0.124514 0.255766 0.188915 0.117523 1.77964e-05 -0.0113158 0.160068 0.140378 0.145059 -0.0187135 0.263233 -0.2494 -0.0325792 0.0354467 0.0909308 -0.17044 0.00326729 0.0308142 -0.153731 -0.12372 -0.0877471 0.0465437 -0.0391901 -0.0882316 -0.202012 -0.20283 -0.0572581 -0.0672057 -0.0564176 -0.220449 0.0601061 0.210391 0.276202 0.335151 0.0873224 0.244961 0.288402 0.0942623 0.117315 0.169483 0.298091 0.221749 0.159255 0.0653156 0.0359863 0.197479 0.192424 0.191039 0.0403617 0.306161 0.0693587 0.124518 -0.156257 0.0366605 0.0643713 -0.14587 -0.0919518 -0.0488099 0.0830158 0.0068084 -0.0616967 -0.16471 -0.215762 -0.0200611 -0.0336643 -0.0244899 -0.181006 0.0948693 0.0173867 -0.209021 -0.0325784 -0.00531336 -0.190935 -0.158011 -0.115618 0.0133809 -0.0630784 -0.127328 -0.234801 -0.236504 -0.0871391 -0.103388 -0.0914908 -0.252243 0.0240483 -0.265594 -0.0879569 -0.0628906 -0.246271 -0.210123 -0.188432 -0.0432052 -0.115565 -0.185977 -0.290351 -0.28767 -0.143965 -0.160063 -0.145897 -0.312095 -0.0311483 0.185951 0.203329 -0.0568325 0.032396 0.0790787 0.223155 0.142468 0.0880703 -0.0353358 -0.0516829 0.112241 0.0975893 0.107318 -0.0481531 0.235477 0.0270263 -0.170871 -0.126552 -0.0837892 0.0463594 -0.0283335 -0.0931796 -0.201719 -0.20999 -0.0551083 -0.0703644 -0.0595213 -0.218706 0.0588637 -0.185477 -0.1531 -0.112077 0.0186834 -0.055488 -0.123796 -0.236206 -0.232088 -0.0825552 -0.102063 -0.0866424 -0.274116 0.0305911 0.0236682 0.0689994 0.204573 0.126983 0.0612083 -0.0427483 -0.061146 0.0990499 0.0857094 0.0944274 -0.0556609 0.216611 0.0435328 0.171458 0.0986615 0.0387947 -0.0673139 -0.081805 0.0719674 0.0588474 0.0679566 -0.0802672 0.182043 0.132948 0.0578522 -0.00194556 -0.113674 -0.12439 0.0510504 0.0160995 0.0247165 -0.131313 0.142839 -0.0755489 -0.142001 -0.251058 -0.249011 -0.0989973 -0.118416 -0.105079 -0.271474 0.0112488 -0.0610652 -0.175936 -0.17872 -0.0320312 -0.0409721 -0.031364 -0.19281 0.0852687 -0.110407 -0.133666 0.0319749 0.0187803 0.0276091 -0.12663 0.156127 -0.0170775 0.145873 0.13757 0.140629 -0.012279 0.267438 0.152576 0.140158 0.148221 0.00591877 0.260555 -0.0143458 -0.0045241 -0.163114 0.112676 0.0100201 -0.177884 0.108794 -0.164143 0.11651 0.292876
label 48 49 50 51 52 53 54 55 56 97 98 99 100 101 102 103 104 105 106 107 108 109 110 112 113 114 115 116 117 118 119 120 121
nr_sv 30 30 29 26 32 32 27 26 38 33 31 26 30 26 35 33 36 33 31 32 30 30 33 32 24 32 24 30 29 26 31 28 30
SV
0.6462726513084475 0.6377554305472687 0.6012208549256568 0.6856244185192257 0.6277942462554806 0.6103298959804092 0.5874448679167048 0.6869887095076651 0.6167699920136838 0.6224143742369425 0.5048434222498597 0.6367205927907671 0.48170191702065 0.6065023835979887 0.6480153163131381 0.6924364787755929 0.52662565430918 0.627908088983813 0.6523339965093461 0.5349873806343758 0.5523339677052314 0.5789228521662777 0.6556670069485555 0.612307044590845 0.575116226479231 0.5081857727187713 0.5030834290769748 0.5958650735833012 0.5876866009150408 0.5922569432343662 0.499784094793807 0.6632362321663408 0:8 1:11 2:8 3:8 4:6 5:7 6:7 7:9 8:11 9:8 10:5 11:2 13:1 14:6 15:9 16:6 17:6 18:5 19:5 20:6 21:7 22:7 23:6 24:7 25:7 26:7 27:5 
0.8145638601977214 0.8030509028626303 0.7254713652885256 0.8582529811879407 0.8377334248125627 0.9532220565466639 0.7444418696582834 0.9610472545409739 0.787103261616793 0.7947009575054068 0.6385600308148307 0.8060341621704312 0.6075354749941534 0.7661573954914417 0.8198093199715873 0.8585394645967559 0.6647261702820886 0.7927644327224985 0.8191870826817406 0.6754967285732277 0.6964938527897732 0.7295736661503196 0.8337995300371454 0.7824990662946406 0.7260543078987999 0.6431265778147904 0.6349095014450009 0.7508176849050963 0.7412762189963419 0.7480886785434901 0.6313561106939451 0.8396613755486224 1:7 2:10 3:12 4:9 5:8 6:7 7:6 8:9 9:11 10:11 11:7 14:6 15:8 16:7 17:5 18:7 19:6 20:7 21:7 22:6 23:6 24:6 25:7 26:8 27:7 28:4 
0.5643737393795426 0.5423983703708429 0.5101507320250616 0.5962430386704647 0.5406825843941684 0.5581167684324799 0.5150765998349345 0.6028986745969646 0.5414759522592328 0.5496994817918249 0.4437561430068991 0.560670973019598 0.4206234951797956 0.5315889112000437 0.5687285791929469 0.621619718607227 0.4611285071222079 0.5508725187420445 0.5629894227399467 0.4694504721185843 0.4837902414086288 0.5066255233906509 0.5752206577957479 0.535540839589678 0.5040706010317278 0.4457258823962265 0.4414526791226427 0.5216747828721965 0.5148372270425121 0.5188909800055769 0.4376766538772356 0.5817431946978686 0:8 1:11 2:10 3:8 4:8 5:7 6:6 7:9 8:12 9:10 10:6 13:5 14:8 15:7 16:6 17:6 18:5 19:6 20:7 21:7 22:6 23:7 24:6 25:7 26:7 27:5 
0.6092533154334074 0.6578247147611359 0.6177879125574726 0.645275612157306 0.592440908683822 0.5773335115705451 0.5554198562047061 0.6996701005006676 0.5824436547329471 0.5645489494415581 0.477988110812374 0.5539696527927094 0.4533471943514152 0.5740281619334131 0.6129469032940827 0.6117233437654945 0.4982920912442254 0.5933326466758608 0.6119349406614913 0.5060802770883518 0.5228552469653214 0.5435348977086571 0.6188724774218137 0.5721401482538246 0.5434748274405308 0.4818384076653459 0.475851059143203 0.5646278803492036 0.5558416999959274 0.5608082859135322 0.4723773290684415 0.6272798363075897 0:3 1:8 2:12 3:10 4:7 5:6 6:7 7:9 8:11 9:11 10:8 14:3 15:6 16:8 17:7 18:5 19:5 20:6 21:6 22:6 23:7 24:6 25:7 26:6 27:8 28:6 
0.4512654925720891 0.4323183464527233 0.4036716321969073 0.4741617900788361 0.4367048787752664 0.3627735961072457 0.4116123616574932 0.3859810749417335 0.4317633121510043 0.4346804093585219 0.3536101866887917 0.4250242626247261 0.3363507065909052 0.4249012282163088 0.4533805602674155 0.4566400569998474 0.3682602120033948 0.439981085682444 0.4465036612948282 0.3739815538649673 0.3861630108272633 0.4038545217540052 0.4592918823774554 0.4278570724986807 0.4023306251344445 0.3564169998326545 0.3522314397016391 0.416888866147671 0.4113046619517297 0.4143424743278793 0.3492285924779312 0.4642147581588562 1:10 2:13 3:15 4:7 5:5 6:5 7:9 8:14 9:11 10:6 13:4 14:7 15:8 16:6 17:6 18:6 19:7 20:6 21:6 22:6 23:6 24:7 25:6 26:8 27:6 
0.01392246166930944 0.05059771604628713 0.1540925645845622 0.01667677382208675 0.1184865485815601 0.5298104622551743 0.01440119539441741 0.2642146246175258 0.01154380399210088 0.03616977170769574 0.01490137786466674 0 0.0133406992665072 0.01426062717191974 0.01700883864528835 0.05240832308965727 0.01297944305850104 0.01520349299462667 0.02036712733312383 0.01280708246464211 0.01290171149523059 0.01677246752835669 0.01971777283288303 0.01083423215176456 0.01406872309502783 0.01288813629227392 0.01325139943125363 0.01867027783601684 0.01382128357347851 0.01376546548681625 0.01317054084855928 0.01648147591760229 0:4 1:9 2:12 3:10 4:6 5:6 6:7 7:9 8:12 9:10 10:6 14:3 15:7 16:8 17:6 18:6 19:6 20:6 21:6 22:6 23:6 24:6 25:6 26:7 27:7 28:5 
0.4194366901687659 0.4016176864462321 0.4018930241857574 0.4415639703151213 0.4070210827269615 0.3907142232245441 0.3832188861780024 0.3882643050104035 0.4021207408832175 0.387141860439366 0.3287578965767944 0.4002838349156329 0.3120594873840504 0.3953957007607036 0.4219179500377683 0.4280228389970646 0.3433321684380741 0.4097150484535748 0.4103016676664785 0.3482156689860814 0.3596532210477313 0.3753910723962683 0.4255202977585832 0.3966354255646324 0.3743719121733568 0.3318776390264366 0.3277826256557329 0.3844163994561449 0.3817956128138695 0.3850670923967254 0.3256628232482872 0.4311930379642108 0:7 1:11 2:14 3:8 4:5 5:5 6:7 7:13 8:12 9:9 14:5 15:7 16:7 17:6 18:7 19:6 20:6 21:6 22:6 23:6 24:5 25:6 26:6 27:7 28:5 
0.4779222759813883 0.4637693085005303 0.4374365307246803 0.5032235337556324 0.4906376153086145 0.4260374147517765 0.4357129509203069 0.4448375913355008 0.4576878984830127 0.451376457205067 0.3758307114264653 0.4664481903264164 0.3569909137853076 0.4493314442464175 0.4813555227279394 0.5108561616677355 0.391405404990163 0.4656580405870901 0.4710449572278431 0.397024030430371 0.4096818111911172 0.4278625195048315 0.4874047889637726 0.4532538075794461 0.4267968670199598 0.3773497563731697 0.3734276471716428 0.4408442320556565 0.4345098964759817 0.438923693855659 0.370664481856456 0.4918181865052352 1:7 2:12 3:14 4:7 5:6 6:6 7:6 8:14 9:13 10:9 13:3 14:7 15:8 16:6 17:6 18:6 19:6 20:6 21:6 22:6 23:6 24:6 25:6 26:8 27:6 28:2 
0.08923393600384691 0.07987313285476001 0.07079447378339185 0.08988765933099227 0.07090049481326702 0.1800127703901926 0.08088950958610941 0.1660526572252498 0.08370220703709826 0.1175331423207483 0.06961194750160649 0.08487173970813883 0.06690261204926301 0.08402048009577741 0.08915884337460432 0.1695863729341314 0.07163251432553877 0.08598591266946362 0.1142279813315576 0.07383122957003586 0.07553875866222394 0.08178022245515133 0.09277313197850544 0.08410026762983142 0.08031692766932988 0.069028014524597 0.06954897874262972 0.08685084435075183 0.08048989483051279 0.08195968056421722 0.06792852770175667 0.09180326783212396 0:6 1:11 2:14 3:10 4:5 5:4 6:6 7:11 8:12 9:10 10:2 14:5 15:7 16:6 17:6 18:6 19:6 20:6 21:6 22:7 23:6 24:6 25:5 26:6 27:8 28:5 
1 0.9978721643615306 0.9253002935660647 1 1 0.9039840889249791 0.9478757369859101 1 0.9977313800196193 1 0.8147717874091134 1 0.7734077324284275 0.9773863541338109 1 1 0.8486167134292645 1 1 0.8620313147095202 0.8888878880955022 0.9305516003178055 1 1 0.9269065453690356 0.8199193934112365 0.8110276179586365 0.9617935253253284 0.9458428954145262 0.9543366748158255 0.8052456082874353 1 0:4 1:9 2:12 3:10 4:6 5:6 6:7 7:9 8:12 9:10 10:14 11:11 14:3 15:7 16:8 17:6 18:6 19:7 20:7 21:7 22:8 23:8 24:8 25:8 26:9 27:9 28:7 29:2 
0.08317816953965401 0.07981307114571613 0.1057764117027704 0.09533304675392422 0.07942322073716115 0.3061029942556915 0.07438761062754731 0.362504947187037 0.08127659251220289 0.09065581402843723 0.06438854845664045 0.1499898520530348 0.06384859608149313 0.07701138345022771 0.08218606171735304 0.1077474954569701 0.06759995939369656 0.08004522827654637 0.1130019297630968 0.06791892857398074 0.07128282459210543 0.07589380750606645 0.08735945624360411 0.08220700054896862 0.07268128222612162 0.06652571499757745 0.06370265923802269 0.07684163207177976 0.07580020096450285 0.07568506146578984 0.06562457189099521 0.08455605655106561 0:6 1:10 2:13 3:8 4:6 5:6 6:8 7:10 8:12 9:9 10:4 14:5 15:7 16:7 17:6 18:7 19:6 20:6 21:6 22:6 23:6 24:7 25:6 26:8 27:6 28:3 
0.930194119171845 0.8928770816632932 0.8286677209355922 0.9791152617117563 0.8991229222475304 0.8077399012199645 0.8494663932986402 0.9112530955910764 0.8898804520690012 0.9094158023453507 0.729500019714328 0.9062680961138917 0.6929259445626521 0.8763499171684253 0.9359105180375953 0.9910538861220776 0.7599079756394558 0.906675066594205 0.9330923934738714 0.77254568208027 0.7962020860747062 0.8338004628286736 0.9474301341732788 0.8816833010640872 0.830269683394858 0.7336018424075215 0.7266821081213626 0.858705872316226 0.8471049445471952 0.8551399151069722 0.7210160427810135 0.9576610351326977 0:15 1:15 2:14 3:8 4:5 5:5 6:7 7:13 8:12 9:9 14:5 15:7 16:7 17:6 18:7 19:6 20:6 21:6 22:6 23:7 24:6 25:7 26:8 27:9 28:7 29:2 30:1 
0.4888645076921766 0.480019021448966 0.4612838088080963 0.5228829576081218 0.594859187171187 0.8161562043559215 0.4461752899028842 0.6494790747306625 0.485909482661622 0.5157214722252571 0.3858991594990598 0.6120173767671332 0.3770123104183333 0.4596368394741991 0.492552105011116 0.5529047349422657 0.3992811605893782 0.4763477003697206 0.5367431398880265 0.4060787933506114 0.4182831504491923 0.4414907927231174 0.5015765062204174 0.479393896317822 0.4363418247382666 0.3869087035179316 0.381917931209336 0.4580700606244724 0.4459917504883209 0.4493117585133692 0.3809155914853388 0.5033205772253154 0:2 1:8 2:11 3:10 4:9 5:7 6:6 7:8 8:9 9:12 10:9 11:5 13:2 14:6 15:7 16:6 17:7 18:6 19:7 20:7 21:6 22:6 23:7 24:6 25:7 26:8 27:6 28:2 
0.01749248684348845 0.03005115994849112 0 0.01782276956012107 0.1111876946800451 0.3976720629207769 0.01621262465339934 0.6911785175588719 0.01163346087477238 0.02171567927009744 0.0127408217193945 0.04095825435851842 0.0101803319358104 0.01719831208729431 0.01736952656301506 0.01088096642198937 0.01441302611988393 0.01718960340867818 0 0.01466531684640319 0.01468087032316051 0.01384450576563014 0.01568379815064843 0.01298810606272442 0.01633064579565454 0.01261321861869827 0.01358963884365404 0.01237019335936505 0.01620626652259395 0.01652362593956979 0.01265506347697113 0.01819631478027055 0:2 1:9 2:12 3:12 4:8 5:6 6:7 7:9 8:14 9:12 10:8 13:3 14:6 15:8 16:7 17:5 18:6 19:7 20:6 21:6 22:6 23:7 24:6 25:7 26:8 27:7 28:4 
0.133140225902925 0.126716249080711 0.1340790797330677 0.1408957468162686 0.1129803121434531 0.2749892183115133 0.1221677878670818 0.331247474786172 0.1291025574647263 0.134452676387473 0.105134714994469 0.1447882395499382 0.1007383040057564 0.1254442534465157 0.134074069895051 0.1486004929988214 0.1092346942500553 0.1293841019122774 0.1725977946671272 0.111350465063597 0.1146046473175305 0.1200790220544428 0.136481838327548 0.1296134031789888 0.1190515300520068 0.1064333786914432 0.1046266897251817 0.1243362066181504 0.1217876236894841 0.1229119744445649 0.1036765987409208 0.1374009490694817 1:9 2:12 3:14 4:7 5:4 6:5 7:9 8:14 9:11 10:6 11:3 14:5 15:7 16:6 17:6 18:6 19:6 20:6 21:6 22:6 23:7 24:7 25:7 26:7 27:7 28:5 
0.0843994745307072 0.07684091728765627 0.06807232301227419 0.08970493704128617 0.07342381103534071 0.09571607145343111 0.07696092270891462 0 0.08168442591733117 0.09782281805072694 0.06638048021709259 0.08301032573598034 0.06351135915647461 0.0797599403565583 0.08585217014396369 0.1673744872391231 0.06965580474844824 0.08255274786822282 0.09527777415657335 0.07145083109291206 0.07268295750682557 0.07634504967038924 0.08620538110033039 0.07862464419677506 0.07560704674578146 0.06626103212426175 0.06607244068490517 0.0782932415761801 0.07636904479142026 0.07821220499694131 0.0663148166699508 0.08695989044170782 0:3 1:10 2:13 3:13 4:6 5:4 6:6 7:10 8:13 9:11 10:5 13:4 14:6 15:6 16:7 17:6 18:6 19:7 20:7 21:6 22:6 23:6 24:7 25:6 26:8 27:6 
0.511649366385771 0.4947462595709924 0.4522113805236721 0.5402050079842097 0.4958138973140913 0.4625173963517732 0.4668590717826334 0.4838840424679696 0.495122791659842 0.5236318787387435 0.4019484243860079 0.5078937770089375 0.3838844678066243 0.4816535417839327 0.5146197466826679 0.55274213215822 0.4185865760552359 0.4994155221500931 0.5074032461917226 0.4246878967219839 0.4383791434702985 0.4587287024397361 0.5259349556636262 0.4864930866544779 0.4563594722491501 0.4042205356674832 0.3997273869973881 0.4735901728924455 0.4668358714913183 0.4699725202240295 0.3981814964735459 0.5270110694437625 0:11 1:11 2:14 3:10 4:5 5:4 6:6 7:11 8:12 9:10 10:2 14:5 15:7 16:6 17:6 18:6 19:6 20:6 21:6 22:7 23:7 24:7 25:6 26:7 27:9 28:5 
0.7410124639501694 0.7084585326696272 0.68317249392223 0.7796749602060465 0.6918195709735279 0.5361709868214244 0.6755936633647134 0.8792689459880635 0.7081979797778573 0.7169489161175893 0.580675723735697 0.7189561015409371 0.551507348302997 0.6979641835116018 0.7450717913339899 0.7806071376562093 0.6057943190045502 0.722349174087199 0.7402791604506457 0.6155596651772602 0.6340359112126828 0.6631299635972268 0.7542604938558596 0.7029079158257147 0.6611270189787871 0.5842501577290707 0.5787194136039459 0.6830405238247906 0.6745024481936944 0.6811435345424894 0.5742110207177836 0.7632778876470178 1:10 2:13 3:15 4:6 5:4 6:5 7:15 8:13 9:11 10:2 14:5 15:7 16:8 17:6 18:6 19:6 20:6 21:7 22:7 23:6 24:6 25:6 26:6 27:7 28:5 
0.04940834781629996 0 0.06516401263394314 0.05481105802335756 0.01221188054917525 0.2367979539088756 0.04395074606614374 0.01239115484755435 0.07234708771159698 0.1121119811975817 0.03692899932551008 0.1664996242116471 0.04368772336472306 0.04452231305600288 0.04737694763166712 0.08999962311920418 0.03833660273666516 0.04752445738261352 0.06722516447435883 0.03907766177378625 0.03988990284292947 0.04669140654113382 0.05395329501670313 0.06124919961672043 0.0423675916517323 0.03990290172026648 0.03618269785925524 0.04545056978410884 0.04265930344419743 0.04354489899873659 0.03676188916763382 0.04903530363635367 0:3 1:9 2:12 3:10 4:7 5:6 6:7 7:9 8:12 9:11 10:7 11:1 14:3 15:6 16:8 17:7 18:6 19:7 20:6 21:6 22:7 23:6 24:6 25:7 26:6 27:8 28:5 
0.04839365520928793 0.04281887164200267 0.0365639390023474 0.05030132291972522 0.02971387537888294 0.1114803771016846 0.04358524153027293 0.05740962441456406 0.04322159761829979 0.05036966653777666 0.03694914332561065 0.03395925444149061 0.03379130492525618 0.04543173598185499 0.04820213467283035 0.04734717785372973 0.03858247109267332 0.04692262287140961 0.06437263074087145 0.03963541384187009 0.04109612062491395 0.04237475106824335 0.04808835942454459 0.04322416089134901 0.04273687876266319 0.03704485916453385 0.03736427321299444 0.04265243216147852 0.04361709219832753 0.04426849223087208 0.03726947636249671 0.04945014057668431 1:8 2:13 3:14 4:7 5:6 6:6 7:7 8:14 9:11 10:8 11:3 13:3 14:7 15:7 16:7 17:7 18:7 19:6 20:6 21:6 22:6 23:6 24:6 25:6 26:8 27:6 28:3 
0.4281097499977281 0.395617283969049 0.3485479722355379 0.4490003912046335 0.3605521415740841 0.063854661650771 0.3903314891871984 0.04854367391544772 0.4077302614308006 0.4676521441194412 0.3356352751921233 0.4294967195267177 0.3165347711872733 0.4028049490558238 0.4306620127752802 0.5284549725777002 0.3496653711560389 0.416914640613632 0.4197840848781149 0.3552225322674846 0.366130233806653 0.3871784066514504 0.4383779604373501 0.407957157658821 0.3815464462034887 0.3371586258849188 0.3346047615198253 0.4011364665083102 0.3900769568935566 0.3930391167703339 0.3314521964638981 0.4402525472367693 0:3 1:9 2:13 3:13 4:6 5:4 6:4 7:6 8:13 9:13 10:9 14:4 15:8 16:6 17:6 18:6 19:6 20:6 21:6 22:6 23:6 24:7 25:7 26:7 27:8 28:4 
0.4945906693926944 0.4747422376637113 0.4180146549863234 0.5156792963879393 0.4738390831868045 0.4394635540841427 0.4514794680011315 0.4885131275676797 0.4722092805507079 0.4895732763403364 0.3878603802194793 0.4647129912330502 0.3740354721580135 0.465752086055343 0.4975818424443951 0.5228114643328913 0.4039245308471316 0.4816893352712788 0.5111239350341706 0.4109501154596313 0.4230484031213151 0.442066539447363 0.50380385453482 0.4676140904528274 0.4415182954492207 0.3891194743097687 0.385978019366381 0.4579146570954957 0.4502289506711478 0.4538348089693858 0.3836450035863251 0.5085819676291452 0:10 1:11 2:13 3:8 4:5 5:6 6:8 7:9 8:11 9:8 10:3 14:6 15:8 16:6 17:6 18:6 19:6 20:6 21:6 22:7 23:6 24:6 25:6 26:9 27:6 28:2 
0.09398648812653615 0.1172953633415528 0.1460894037881498 0.10319702683353 0.1293370988279096 0.2775110543490607 0.08696489872263839 0.5342977003694427 0.09328121786295623 0.08885538813721289 0.07583059967833813 0.1085394244907654 0.07159557318643682 0.09034620288951006 0.09576582069846527 0.09163207848375535 0.07700484483971484 0.09220214468900816 0.1082414962015999 0.07903451947816739 0.08156756359718542 0.08709976835269688 0.09572432200362208 0.09164574863228109 0.08468854128417058 0.0771718890631137 0.07511303658436283 0.08862113394203193 0.08722865552521614 0.08801420022490872 0.07456181167337017 0.09943747791535594 0:3 1:11 2:13 3:10 4:5 5:6 6:7 7:14 8:13 9:9 13:2 14:6 15:7 16:6 17:6 18:6 19:6 20:6 21:6 22:6 23:6 24:5 25:6 26:8 27:6 28:3 
0.418554237283693 0.4033069344088879 0.3681440655975923 0.4390904118957398 0.4086298186569668 0.1445441254011957 0.3851552515032065 0.2045490467419337 0.4012569524179559 0.4102893792342029 0.3310062872725866 0.4185625328752265 0.3128576307088459 0.3981514562298232 0.4248150319033889 0.4646547781222141 0.3443698615273705 0.4105796957470193 0.4039586748657222 0.3517354949363818 0.3611226567422743 0.378089667996777 0.430003941530667 0.3997829128087804 0.3758329280262869 0.3260676352954355 0.3301813173390735 0.3897691605859189 0.3848363353301008 0.3901491136938261 0.3255388893185308 0.4381622757439086 0:4 1:11 2:14 3:9 4:6 5:6 6:6 7:14 8:13 9:9 13:3 14:7 15:7 16:6 17:6 18:6 19:6 20:6 21:6 22:6 23:6 24:5 25:6 26:8 27:6 28:2 
0.302949812082686 0.2938710651930608 0.2710931591479506 0.3165823931617273 0.342950745715158 0.3755684987573751 0.2776410804435851 0.3763320513179447 0.2882866145676487 0.3131647512276567 0.2374905496038815 0.3000742860759724 0.2257943750645333 0.2855585114741718 0.3046090399935272 0.3530370895441294 0.2479874387066259 0.2950700313331598 0.3037494341636198 0.2515657795707448 0.2589188216610736 0.2713559657800486 0.3083991090558835 0.2865198444430015 0.2706732467263325 0.2387185915150273 0.236700666675992 0.2789757453057305 0.2756471191004871 0.2786821532520082 0.2349820762835729 0.3120473812389596 0:7 1:10 2:11 3:9 4:8 5:6 6:6 7:8 8:11 9:10 10:7 11:1 13:4 14:7 15:9 16:5 17:6 18:6 19:6 20:6 21:7 22:6 23:7 24:5 25:7 26:8 27:5 
0.7480492603450324 0.717594905570579 0.6674202605520149 0.7875889986803079 0.7293758988046238 0.6556535081567531 0.6830189130074201 0.7436022397238863 0.7154887335274995 0.7676263432029914 0.5866030439866465 0.7888093091488967 0.5571316140542822 0.704491761159878 0.7523579240832061 0.8236765318678466 0.6114870732482989 0.729184707510756 0.7742683015838789 0.6205631225328728 0.6401563977718334 0.6712509471688387 0.7626837876830642 0.7159500828808153 0.667856557679762 0.5902588028929288 0.5840480029765215 0.6906477067932068 0.681106786691862 0.6870427034787279 0.5797295270986785 0.7704571017605311 0:3 1:10 2:13 3:13 4:6 5:4 6:6 7:10 8:13 9:11 10:7 11:5 13:4 14:6 15:6 16:7 17:6 18:8 19:9 20:8 21:7 22:7 23:6 24:7 25:6 26:8 27:6 
0.2466398499404394 0.2470812674426744 0.2216234743101178 0.2607835806189158 0.2972300195278808 0.693945163975995 0.225203033653915 0.777701956428859 0.2454559297042342 0.2441855195984657 0.1939666771634195 0.2609012533306004 0.1872740187781807 0.2328306001719595 0.2479222290806775 0.2891565459161847 0.2015054272872132 0.241070343928799 0.2538379464747396 0.2044228545729579 0.2106231162011278 0.2236454902328149 0.2512712840164876 0.2349997977765987 0.2207039025274231 0.1945140208531931 0.1923161323363805 0.2334279276312384 0.2242859665659968 0.2271469310554032 0.1913993908921877 0.2550252860866737 1:7 2:11 3:14 4:8 5:5 6:4 7:7 8:13 9:12 10:9 11:1 14:4 15:7 16:6 17:6 18:5 19:6 20:7 21:6 22:6 23:6 24:7 25:6 26:6 27:8 28:5 
0.2002182604164141 0.181229638041251 0.1464794646431093 0.2093004620293885 0.1814651907709176 0.3676563908184945 0.1788450007111071 0.4959024216556661 0.1882691460189702 0.1911695530975457 0.1525322329610259 0.172288335592482 0.1463182414407578 0.1829067990772077 0.1963302503189625 0.1971026128957936 0.1613274388712084 0.1920357658387369 0.2095451796990034 0.1609900611990512 0.1675245930834202 0.1733471961536674 0.1994913542280541 0.1843621022280185 0.176046721056642 0.1595127957219271 0.1516791677512448 0.1793031270927413 0.1773226656459477 0.177083384936076 0.1524169033055393 0.196602761517137 0:4 1:11 2:14 3:10 4:6 5:6 6:6 7:14 8:13 9:9 13:3 14:7 15:7 16:6 17:6 18:6 19:6 20:6 21:6 22:6 23:6 24:5 25:6 26:8 27:6 28:2 35:1 
0.3615798452032432 0.3513581471559498 0.3242301507864512 0.3811678149115831 0.4228059542292333 0.8606387022936134 0.3305167848917613 0.9903999863860713 0.3460624798787553 0.3506710400917688 0.2840186866915548 0.3503199651620898 0.2692431343238408 0.3404774338884023 0.3641917940290391 0.379151806151692 0.2954258197673171 0.3525948145948357 0.3734209417166127 0.3004287827075643 0.3100315245938811 0.324203309268927 0.3691547728217938 0.3420879713342941 0.3228764965531229 0.2852911963743359 0.2823620911614072 0.3337294068860507 0.3297614283097574 0.3322746792102934 0.2805573712031455 0.3723838155462183 1:10 2:13 3:15 4:6 5:6 6:5 7:12 8:13 9:11 10:2 13:1 14:6 15:8 16:6 17:6 18:5 19:6 20:7 21:6 22:6 23:6 24:6 25:6 26:8 27:6 28:4 
0.3003827397683813 0.2867336855606331 0.2481477455557182 0.3146337937557881 0.3024189934834512 0.2932302265353027 0.2741164223661613 0.5512948684763407 0.284755805103066 0.2891374629332172 0.2361918286466686 0.2743685654963407 0.2234159401921961 0.2830635894716552 0.3020635116232319 0.3219246187794302 0.245918657057207 0.2933652045417211 0.2960036689971929 0.2504354737442642 0.2575699160215618 0.2681810246094335 0.3057138963396983 0.2827960408822797 0.2678770802035154 0.2368620316619069 0.2352857432845329 0.2759376757712375 0.2742849336382078 0.2753019978144928 0.2334175724847935 0.3091278931323571 1:8 2:12 3:14 4:7 5:5 6:5 7:7 8:14 9:12 10:7 14:4 15:6 16:8 17:5 18:6 19:6 20:6 21:6 22:6 23:6 24:6 25:6 26:6 27:8 28:6 
-0.7609363121008476 0.7857313457458099 0.7056772525164651 0.8663397070388176 0.7902181049006309 0.7178240759101007 0.8317500007305358 0.78902600186127 0.7837454508551661 0.7979983275963539 0.6321005954671953 0.7974113980654064 0.5987864315805074 1 0.8264155914504279 0.8705975865599473 1 0.9586832503685464 0.8219161022146448 1 0.6953705732755153 0.7314819171060294 0.8371194180882144 0.7768806478535524 0.7371644946486936 0.6331547051195131 0.8679473553045869 0.755107577489342 0.7413023581105487 0.7511104446947234 0.6187849899943136 0.8464951716749858 3:1 4:7 5:15 6:15 7:8 8:1 13:2 14:4 15:3 16:3 17:3 18:3 19:3 20:3 21:3 22:3 23:3 24:3 25:3 26:3 27:3 28:2 
-0.7593655686168256 0.7838348009612721 0.702911555213894 0.8653428080440607 0.7884967181694339 0.716360145580381 0.7410956549105278 0.787494341207379 0.7825920064198911 0.7961524977690306 0.6306454553839409 0.7958188698080859 0.597944642085019 0.7673355555669007 0.824778144376446 0.8688850766581663 0.616097566642546 0.7971572067683483 0.8205432069753992 0.6646690535915529 0.6943624750245007 0.7294712887327232 0.8356811921065481 0.77509741084658 0.7007552886570995 0.6322371726388605 0.6240168255004135 0.753520484876935 0.7429491361573249 0.7498062040206662 0.6175406665914567 0.844954754008441 2:2 3:3 4:2 5:6 6:14 7:15 8:11 9:1 10:4 11:6 13:2 14:3 15:4 16:6 17:7 18:5 19:6 20:5 21:5 22:5 23:4 24:3 25:2 26:3 27:3 32:1 
-0.4498917252043443 0.464152809285537 0.4163859982685472 0.5115464971946413 0.4665364478964161 0.4237502138715091 0.4398505989094515 0.4662024168669232 0.4632292769927245 0.4715293924142424 0.3731506397707626 0.4711665191708439 0.3545106382382751 0.4559233300235599 0.4884102030576806 0.5140409227492364 0.3515816578592798 0.4718278943288015 0.4852303122892044 0.4047557680577153 0.410855462959144 0.4324159930926895 0.4949605923058598 0.4595855118093275 0.4172516513595069 0.3742834713774664 0.3789663023274772 0.4463967331533076 0.4411585909397375 0.4439636984146407 0.3655700334412448 0.500433073393216 2:2 3:3 4:2 5:5 6:14 7:15 8:11 13:2 14:3 15:4 16:6 17:7 18:5 19:3 20:3 21:3 22:3 23:3 24:2 25:2 26:3 27:3 
-0.7229325532914745 0.7466702317334081 0.6714051137822455 0.8246058538595334 0.7505690425707835 0.6819746952313458 0.7060351338214532 0.7501172978678072 0.7449567648111358 0.7582087549097756 0.6012224472060942 0.757475484731178 0.5700482113367874 0.7246166977897509 0.7856709134597837 0.8274262577950401 0.5897587779544257 0.7599674668228221 0.7816052844406549 0.631103572785959 0.661159082661708 0.6946058887974972 0.7958202738511166 0.737787370518788 0.6663583099484076 0.6021902587518999 0.5926885359114961 0.7177169872740906 0.7103614114688177 0.7136885028701604 0.5871346320918868 0.8045694640975394 2:3 3:3 4:3 5:3 6:15 7:15 8:15 14:3 15:3 16:4 17:6 18:7 19:6 20:4 21:3 22:3 23:3 24:3 25:3 26:3 27:3 28:3 
-0.6330194914903406 0.6542220182205134 0.5900834018293774 0.7266100065446884 0.6577362474676028 0.5968732069943863 0.6174092426561784 0.6563527224635781 0.6518165491752822 0.6637554409725572 0.5262155295234862 0.6631681372204817 0.4979571729084272 0.6407950078355149 0.6874874569557455 0.7240359670811565 0.5102937224733612 0.6727922984749712 0.6835540579427288 0.5560209244290639 0.5818405016594337 0.6086406194323497 0.6964741073766062 0.646124612550721 0.5854435449401871 0.5274865069584282 0.5267514501780788 0.6281636430287357 0.6298394965780308 0.6246856313252457 0.5180644893659988 0.7069757340707326 0:4 1:2 2:1 3:3 4:3 5:8 6:13 7:14 8:10 9:5 11:3 14:2 15:3 16:5 17:7 18:6 19:4 20:6 21:5 22:4 23:4 24:3 25:3 26:3 27:3 28:3 29:3 30:1 31:1 
-0.1156514069927261 0.1193626172426012 0.1258615101634251 0.129815146123407 0.1192868946230621 0.1085923814950369 0.1057642574759127 0.1196926353010281 0.1190497830446052 0.1206802502755409 0.09568070696283328 0.1207185811742225 0.09126026770205334 0.03135512942239453 0.1254562141260231 0.1322982357763884 0.07683211694265414 0.1274872195268744 0.124877790574819 0.159763955160746 0.1043733360680679 0.11092537341934 0.1270364159467225 0.1180150903269833 0.09337278033549008 0.09575980289448932 0.06423999121629977 0.1143505234527283 0.107975642357871 0.1136718007660052 0.09065897039068056 0.1269307149036366 0:1 2:1 3:2 4:3 5:9 6:14 7:13 8:9 9:4 14:2 15:3 16:5 17:7 18:6 19:4 20:3 21:3 22:3 23:3 24:3 25:3 26:3 27:4 28:3 29:1 
-0.1835195320929417 0.1862229675063026 0.1548537572435882 0.2120056187789003 0.1897545417568063 0.1737850226379167 0.1746627992988131 0.1898928990384462 0.1885873542664099 0.1923780356857874 0.1521026534467046 0.1908129666474959 0.1447604028706826 0.1801846948583931 0.20131316745935 0.2105658672619138 0.1313484559464349 0.2485496116564218 0.1983815068493627 0.2632720721250612 0.1693406479245638 0.1761082344775959 0.2017487467321648 0.188434051853027 0.1353656390776259 0.1511258171949113 0.07822061142212601 0.1825908410532727 0.1885179147822704 0.1810343263249065 0.1433842853734561 0.2063553250058693 1:3 2:3 3:4 4:5 5:8 6:12 7:12 8:8 9:3 13:3 14:3 15:4 16:4 17:6 18:6 19:5 20:4 21:3 22:3 23:3 24:3 25:3 26:3 27:3 28:1 30:1 
-0 0 0 0 0 0 0 0 0 0 0 0 0 0.2241214390065167 0 0 0.04846926724326336 0 0 0.03121925727690142 0 0 0 0 0 0 0.2064904760539194 0 0 0 0 0 2:1 3:3 4:7 5:12 6:12 7:11 8:6 9:3 10:1 14:1 15:4 16:5 17:7 18:6 19:4 20:3 21:3 22:3 23:3 24:4 25:3 26:3 27:3 28:3 29:1 
-0.4802258503128627 0.4958688063261329 0.9593530280819815 0.5464074479575203 0.4985007553969573 0.4531077683218481 0.465317570729835 0.4978656993950918 0.4946336726948279 0.5027718179070809 0.3989512453046795 0.5030822397387109 0.3777609569972771 0.4681460485887118 0.5211748040170303 0.5495385989363679 0.5166223268799188 0.5068840567003431 0.5188957738909689 0.5674967064645399 0.4391771249981726 0.4615981707027699 0.5282638080496249 0.4901186154139891 0.4416899487989324 0.4000925548701331 0.395347622619345 0.4766617883639924 0.4685534376475114 0.4744201480542258 0.3895533659055011 0.5339701978133128 2:3 3:3 4:3 5:9 6:15 7:15 8:2 11:1 14:3 15:4 16:4 17:6 18:5 19:5 20:2 21:2 22:2 23:3 24:3 25:3 26:3 27:3 28:3 
-0.03577051905589575 0.04542461904963537 0.04329356380688131 0.04216571611754272 0.03979225459601683 0.03323663288527352 0.05838752318402257 0.03733961997766976 0.03817805153028021 0.03747747747377016 0.02963366166565199 0.03952818526685705 0.02822891702842701 0.06029317626409238 0.03696981176897388 0.04068791644265136 0.01541294897689026 0.01629514256507963 0.03952111896072499 0 0.03095315425761205 0.03474036263569302 0.03929305267094713 0.03529008394245909 0 0.0326846973287158 0 0.03486220865060801 0.04381852523315598 0.03549940687035889 0.04280158152429738 0.03967325718870528 1:3 2:4 3:4 4:5 5:9 6:11 7:12 8:7 9:3 11:1 13:2 14:3 15:4 16:5 17:6 18:6 19:5 20:4 21:4 22:3 23:3 24:3 25:3 26:3 27:4 28:1 
-0.3028203143205186 0.3115241791683814 0.2733262187151096 0.3460393018307534 0.3145542530968105 0.2861023580687462 0.2863944974647767 0.3138992873094608 0.3122797617168326 0.318110034086392 0.2529146218887284 0.3171898845223953 0.2386683713002128 0.3813500167769741 0.3291641409125026 0.3466335221935217 0.2828724746727586 0.3392647352354323 0.3268898162773305 0.3359495007813841 0.2771795386814306 0.2910589877473367 0.3338580752153987 0.3088464909625181 0.2301058446872615 0.2530804422943554 0.1841921025408539 0.3010939288493386 0.2989059869992032 0.2994284065855875 0.2514937014275962 0.3377908789508262 3:3 4:6 5:10 6:11 7:9 8:8 9:5 10:2 15:3 16:5 17:7 18:7 19:3 20:3 21:3 22:4 23:3 24:3 25:3 26:3 27:3 28:3 29:1 
-0.7639943961273107 0.7908418935343743 0.7057453292811827 0.8882162462310903 0.7931125285606396 0.7209562236468029 0.7460446476751016 0.7919201586380403 0.7867278732559237 0.8006912194309118 0.6345957949941797 0.8001226796568836 0.6015362459769501 0.7664932778523621 0.8293484219070669 0.8736785614129491 0.6216672266266867 0.8025381388762789 0.8236908602869872 0.6717577157837584 0.6984863232522358 0.7342387349001614 0.8403208200462351 0.7790401304160884 0.6989747592354585 0.6355610631203857 0.6268933094377629 0.7570844305831235 0.7437400492823131 0.7547097057052805 0.6200353280268891 0.8500530197626013 0:11 1:7 2:1 3:3 4:3 5:8 6:13 7:14 8:11 9:5 10:1 13:1 14:4 15:4 16:7 17:7 18:4 19:5 20:5 21:5 22:6 23:6 24:5 25:5 26:4 27:4 28:4 29:1 
-0.3445257885289971 0.3574585417384905 0.3359956375566158 0.3943818793853909 0.3580733735061857 0.324698240651876 0.3288283455191883 0.3572377338267544 0.3553376152866378 0.3600877943411141 0.284650906304737 0.3609942020082454 0.270687618491441 0.3248941433335307 0.3736502790771192 0.3937758380801362 0.1851459134211571 0.3607159365607086 0.3723157333094588 0.4512735888072384 0.3148504365612738 0.3315232424189554 0.3786902595205755 0.3522093074178823 0.4984529960771119 0.2880204016037643 0.4157213213334601 0.3414470417693269 0.3354811933379204 0.3399546710502492 0.2920292149804509 0.3846629109615228 0:2 2:1 3:4 4:8 5:11 6:11 7:9 8:7 9:3 14:1 15:3 16:6 17:7 18:7 19:3 20:3 21:3 22:3 23:3 24:4 25:4 26:3 27:3 28:3 
-0.8184665986689673 0.8474269255051685 0.7598410657837995 0.949095306172316 0.8488892889210017 0.7707422845166259 0.7970809912428707 0.8477669660453981 0.8444855271655495 0.8562731965920233 0.6793052668120333 0.8567750770263238 0.6533605958142457 0.8300574898489801 0.8865609985416122 0.9432515364441093 0.6634816475059081 0.8576987264677507 0.9144011286061153 0.720451648001495 0.8027213098185436 0.7857057179938366 0.8984554445596511 0.8383289012981611 0.8406676644052479 0.6836866837303971 0.6722611065752147 0.8102658844140308 0.8046903720576726 0.8097122029798712 0.6731425766760203 0.9091039168466203 0:11 1:8 2:4 3:3 4:6 5:10 6:11 7:9 8:8 9:5 10:2 15:3 16:5 17:8 18:8 19:5 20:5 21:5 22:6 23:6 24:6 25:6 26:6 27:4 28:3 29:1 
-0.09963571724079183 0.1034166868457252 0.1543571901302865 0.112736359230922 0.103431618052223 0.09431133399814717 0.1201314379307305 0.1039586737765209 0.102840336030372 0.1051239845717415 0.08251446986448321 0.1041545350502051 0.07787038772360287 0.4192971588158014 0.1087733964389348 0.113959518667105 0.2405746454321482 0.1096731523644657 0.1080249520912031 0.2491277006059018 0.09167337899954964 0.09520256597466641 0.1098879762529916 0.1014663367460746 0.1284252105991476 0.08285387472459997 0.1930888400773422 0.09907129495780932 0.09338893054610167 0.09884907094443778 0.08258094963304428 0.1112173209028004 0:2 1:3 2:3 3:4 4:5 5:11 6:15 7:10 8:5 13:1 14:3 15:4 16:4 17:5 18:7 19:5 20:4 21:3 22:3 23:3 24:3 25:3 26:3 27:3 28:3 35:1 
-0.6753877159366868 0.701051731711089 0.6368449908293649 0.7698775162629907 0.7025757497586218 0.6373282140118309 0.6963389162808834 0.7007644212013718 0.6956333914845531 0.7078073207124745 0.5611213315048552 0.707668180456277 0.5319681120034847 0.8539399049392173 0.7336178766297787 0.7724591764301941 0.575980561322525 0.7181483611920801 0.7297995905680068 0.7488498263991293 0.6179196115665671 0.6494177113428561 0.7430489152710807 0.6895135976063308 0.6119685831153657 0.5620437661028039 0.516438812286512 0.6701576302261225 0.6571044628916319 0.66693614048384 0.5486794352274794 0.7513678757931139 3:2 4:6 5:9 6:10 7:10 8:8 9:6 10:4 11:1 14:2 15:5 16:7 17:8 18:3 19:3 20:3 21:3 22:4 23:3 24:3 25:3 26:3 27:4 28:2 
-0.5622357947862299 0.5825018946209086 0.5792364939235179 0.6510767617900498 0.5829753748358703 0.5302544032632155 0.5472832939949148 0.582601381050778 0.5790663957997656 0.5890307173875716 0.4668930258001089 0.5889463831466197 0.4421660663566613 0.5441913628328234 0.6101025493497156 0.6427483521475719 0.4466885911531108 0.5889972105015501 0.60759511498777 0.5105578236919589 0.5136161155423989 0.5401459206382609 0.617924690248787 0.5736794044674095 0.5178703673669889 0.4683091251630764 0.4508932138139651 0.5574966660780768 0.5622180766101792 0.5541819054351819 0.4586234247657754 0.6261615558873759 0:7 1:5 2:3 3:2 4:4 5:9 6:14 7:14 8:8 9:1 14:3 15:3 16:5 17:7 18:6 19:4 20:3 21:5 22:5 23:5 24:5 25:5 26:4 27:4 28:3 
-0 0 0 0 0 0 0 0 0 0 0 0 0 0.1167364634546235 0 0 0.1379022909974883 0 0 0.0588761112012265 0 0 0 0 0 0 0 0 0 0 0 0 1:3 2:2 3:3 4:4 5:9 6:15 7:13 8:6 13:2 14:3 15:4 16:5 17:7 18:6 19:4 20:3 21:3 22:3 23:3 24:3 25:3 26:3 27:3 
-0.2422867777038585 0.2486528259587405 0.2045929670196061 0.2746897169642106 0.2497188843390824 0.2275733466077449 0.241588662439073 0.249717916754389 0.2481378485733877 0.2525588561068859 0.2006725083272553 0.252636321079158 0.190073095571627 0.4161511950185965 0.2618178599248413 0.275725981634411 0.2272414448106705 0.2470150100507526 0.2602305109806115 0.8200687720879108 0.2207270792939807 0.2316876183250988 0.2653510327358229 0.2459474853181999 0.2335904150235318 0.200886434052274 0.2079027334353218 0.2391264023421718 0.234719912378999 0.2373967744816338 0.1953154270033199 0.2675854789147794 1:3 2:2 3:3 4:4 5:16 6:16 7:10 13:2 14:3 15:3 16:4 17:6 18:6 19:4 20:3 21:3 22:3 23:3 24:3 25:3 26:3 27:3 28:2 
-0 0 0 0 0 0 0 0 0 0 0 0 0 0 0 0 0.2292755598633241 0 0 0 0 0 0 0 0 0 0 0 0 0 0 0 2:3 3:2 4:4 5:9 6:14 7:14 8:8 9:1 14:3 15:3 16:5 17:7 18:6 19:4 20:3 21:3 22:3 23:3 24:3 25:3 26:3 27:3 28:3 
-0.2077047001053227 0.2144282054546684 0.1817370059480474 0.2364735323392321 0.2161001425976601 0.1965345799252383 0.2032579703616326 0.2152922188602024 0.2140723607949113 0.217404394269822 0.1728938079463475 0.2176936645797648 0.1631523526935786 0.2138888340571598 0.2250712987874032 0.2371408388636729 0.119544577944676 0.2171058421509431 0.2241380979575664 0.1873687103197884 0.1905087219920178 0.1995322619711212 0.2284638145310751 0.2116050135429871 0.1916901194132458 0.1732260651991152 0.1794473370684394 0.2056252357399444 0.201561000756264 0.2048642869778927 0.1694382950112178 0.2317091937901912 2:2 3:3 4:3 5:6 6:15 7:15 8:9 14:3 15:3 16:5 17:6 18:7 19:5 20:3 21:3 22:3 23:2 24:2 25:2 26:3 27:3 28:3 
-0.1491343723280725 0.1531070602102365 0.1190643087331541 0.1675927430278084 0.1536774820845265 0.1407169751883259 0.1666092037368616 0.1544498222971374 0.1529818608997465 0.1566216895261051 0.1243860338996337 0.1562213723302177 0.1178465954615486 0.4089335184505484 0.1624889105015599 0.1711000411876205 0.3664154666887862 0.1629918488965875 0.1608653332084637 0.5341479034263779 0.1357046193885331 0.1431655040597629 0.1641723038631459 0.1515796479887185 0.2772611865602193 0.1226423667376271 0.6509707754650517 0.1477179008485998 0.1403074984702735 0.1469753294482082 0.113296769558973 0.1643838716456622 2:2 3:4 4:8 5:11 6:12 7:9 8:6 9:2 14:1 15:4 16:6 17:7 18:6 19:3 20:3 21:3 22:3 23:3 24:3 25:3 26:3 27:3 28:3 
-0.321322554380274 0.3300613665967643 0.2968257011585105 0.3645674101889214 0.3333371772170516 0.3028414383778613 0.3413281306454185 0.3326900688420013 0.3305055495587172 0.3367888568180902 0.2704351169853441 0.3350499990270101 0.2540300066681757 0.5093877899173646 0.3482330613929923 0.3667378499169475 0.3935134660580433 0.3605207826653519 0.3435347407413081 0.6329848624428708 0.2955778114134925 0.3080583893640053 0.3532420925760165 0.3286369813696582 0.525911725578553 0.2683014719551175 0.6788904118232194 0.3187717906138287 0.3149349130221289 0.3163327881245158 0.2637333612455343 0.357170605379257 0:2 1:4 2:4 3:4 4:7 5:9 6:9 7:8 8:5 9:2 11:1 13:1 14:3 15:3 16:4 17:6 18:6 19:6 20:4 21:3 22:3 23:3 24:3 25:3 26:3 27:3 35:1 
-0.4870679629440499 0.50319505578225 0.4611044230253791 0.5542995104119621 0.5059432374843847 0.4600443459304199 0.4644233542702683 0.505703252799847 0.5021451989829157 0.5113080213791189 0.4047976781071374 0.5104724749425065 0.3837460110152938 0.46394440873265 0.5294043446310106 0.5578839630527 0.306013230966532 0.5221500508719346 0.5267323404554612 0.4372907950501081 0.4454333082321646 0.4685083973521755 0.5365149263611764 0.4979879073523791 0.4468515656086149 0.4060254971414463 0.4147057127540319 0.4834190282463303 0.4746512622835469 0.4810875019005359 0.3966169248047466 0.5425253005475731 1:2 2:3 3:2 4:3 5:15 6:15 7:15 14:3 15:3 16:4 17:6 18:7 19:5 20:3 21:3 22:3 23:3 24:3 25:3 26:3 27:3 28:3 
-0.6019186215983049 0.6225339924820252 0.5398800406251693 0.6857236489785649 0.6253517442335113 0.5677811679174912 0.5962474969545583 0.6242512820911619 0.6203111281786866 0.6308929498267287 0.5001822657043995 0.6311804439584556 0.4742174708493473 0.6443900564981495 0.6537754602985784 0.688537517798015 0.5475405288608609 0.682492688452788 0.6512831011270362 0.6312652583249695 0.5506262962654995 0.5790967936605862 0.6623113629839812 0.615006778913158 0.5502493635002151 0.5012755591834326 0.5277433141926173 0.5967300188043506 0.5862677393498678 0.5944797146227132 0.4973292461336844 0.6696255402213185 1:3 2:4 3:3 4:4 5:10 6:16 7:10 8:5 9:1 10:3 11:2 13:2 14:3 15:3 16:4 17:5 18:5 19:5 20:4 21:3 22:3 23:3 24:3 25:3 26:3 27:3 28:4 29:2 30:3 
-0.08198292044252244 0.0837732233855122 0.1108257676515509 0.09394854100700034 0.08498930289220707 0.07658276442244608 0.08809270754004354 0.08429717625546608 0.08390495255000094 0.08544336369461288 0.067324626379448 0.08517524507116203 0.06497753637600995 0.1050392099344869 0.08857850628874465 0.09297025106216372 0.7543475478877598 0.08629161833856798 0.08743886403665425 0.4312650212187361 0.07426829694341963 0.07853559229308457 0.08961273939625583 0.08329806178713831 0.07014865557818258 0.06785184309833835 0 0.08071100611467302 0.07944072888286732 0.07982260804095431 0.06569894387597726 0.09084859933165916 2:3 3:3 4:3 5:14 6:15 7:13 8:3 14:3 15:4 16:6 17:6 18:5 19:4 20:3 21:3 22:3 23:3 24:3 25:3 26:3 27:2 28:3 
-0.1581054462476471 0.1620713182604609 0.168370354302265 0.1786094580446173 0.1633990788099715 0.1487167382222459 0.1480626242281199 0.1636097097633734 0.1624013263508859 0.1654739748185646 0.1313389749305135 0.1656113720452026 0.1240669694109792 0.07313516327431396 0.1714061973434003 0.1810348252854587 0.1166024523717861 0.1501298506886529 0.1705707254978935 0.04629793176302378 0.1444123240572251 0.151749204071378 0.1741765282271304 0.1612653088392574 0.1540211615741967 0.1310994501272555 0.1014485070952397 0.1568378880666254 0.1497304376738874 0.1559201666609223 0.1254197130233447 0.1751399927266034 1:2 2:3 3:3 4:3 5:8 6:15 7:14 8:6 13:2 14:3 15:4 16:5 17:7 18:6 19:4 20:3 21:2 22:3 23:3 24:3 25:3 26:3 27:3 
-0.6270670602027412 0.6490318361836722 0.5859550756414635 0.7165409935511635 0.6511104758921831 0.5921983281002131 0.6397943149064536 0.650663092111228 0.6470258075356499 0.6572297825819572 0.5224847661306193 0.6584715684651603 0.4942294524015195 0.8225609603156433 0.6819662196111109 0.7189619824112931 0.5854993790043113 0.6905741869850045 0.6888451118698748 0.8606039546310698 0.5750741664818386 0.6041592362666504 0.6900078811274831 0.6400389876463282 0.7461428585377299 0.5246681442838887 0.721052530013308 0.6227267574832909 0.6449268529790327 0.6201180910489303 0.5487803772096327 0.7026307824842889 0:3 1:4 2:4 3:5 4:8 5:9 6:8 7:8 8:5 9:1 11:1 13:2 14:2 15:4 16:4 17:5 18:6 19:5 20:6 21:3 22:3 23:5 24:3 25:3 26:3 27:2 
-0.7908406379236677 0.816608817228698 0.7294473472822884 0.8992618133264088 0.8211113728669702 0.7457712994840657 0.7730160441084455 0.8200685973102213 0.8145800753486647 0.8294365320066827 0.6571753951861714 0.8288197298064497 0.6223217237513269 0.8446989414748226 0.8588542273168516 0.9042211395315076 0.6418166812771865 0.8315279457794285 0.8551743976188173 0.7003755942984834 0.7346581810800129 0.7601008360699988 0.8704968826450468 0.8077490314690419 0.8025958761635368 0.6585368885274488 0.6486153268176311 0.7843401899067388 0.7695536282981287 0.7816151125040953 0.6430078193067554 0.8799686616025271 0:11 1:9 2:3 3:3 4:4 5:10 6:16 7:10 8:5 13:1 14:3 15:3 16:4 17:5 18:5 19:6 20:5 21:5 22:5 23:5 24:5 25:5 26:5 27:4 28:4 29:1 
-0.3932278136694694 0.4075390485732039 0.3758465812392069 0.4490425828037282 0.4093808747684038 0.3719990830582335 0.3976206702311608 0.4089878973141334 0.4062216981849733 0.4135165272530491 0.3279357253328098 0.4136484092520866 0.3103954043007007 0.4909663116448577 0.4279285164686178 0.4512242760355804 0.2683372592085938 0.4073262307808193 0.4264470307942114 0.09253581279839131 0.3606238883237828 0.3785817025450998 0.4335184028262471 0.40242677497558 0.3596084095059696 0.3286783382916101 0.3073499964409521 0.3911264698521873 0.384253212385396 0.3902513474317127 0.3197078449809492 0.4390754265679705 1:2 2:3 3:4 4:4 5:14 6:16 7:12 13:3 14:3 15:4 16:6 17:7 18:6 19:3 20:3 21:3 22:3 23:3 24:3 25:2 26:2 27:3 28:1 
-0.8649641172540266 -0.9095037531112822 0.8534281132249432 0.959343378564274 0.9096187267355426 0.8228347277264693 0.8272822084117305 0.9429305158393886 0.8706645432475707 0.8833758971440322 0.7075083026170701 0.8909804435661967 0.671842092432395 0.8544051532592365 0.9148902912989501 0.963675737429481 0.7352408881855306 0.8858339034531645 0.9100361758745552 0.7490421311100304 0.7747746443534032 0.8124769063101692 0.9270649702799194 0.8609971731478988 0.8064971506519224 0.7102273934947734 0.70522972644202 0.8377490004000766 0.8253224314082581 0.8336632737528192 0.6969905229200568 0.9369631280901832 1:5 2:7 3:10 4:8 5:8 6:8 7:11 8:11 9:11 10:8 11:7 14:6 15:8 16:6 17:6 18:3 19:3 20:5 21:6 22:6 23:5 24:5 25:4 26:11 27:10 28:10 
-0.9614551050306226 -1 0.9201253055980186 1 0.996434261274492 0.9082240170787922 0.9406251698319561 0.9940656810084444 0.9883127211042463 1 0.8050992585623817 1 0.7638373374701141 0.9723749550218362 1 1 0.8365605711834732 1 1 0.8525737378075959 0.8815919201611112 0.9237988967698512 1 0.9790916992275638 0.9174751509088559 0.8079683193547051 0.8026670898811411 0.9529322453119156 0.938073448531052 0.9479017081488443 0.7925746071587213 1 0:13 1:11 2:6 3:8 4:10 5:11 6:13 7:12 8:7 9:3 10:3 11:3 13:1 14:7 15:8 16:6 17:5 18:5 19:4 20:3 21:3 22:5 23:4 24:6 25:10 26:11 27:10 28:7 29:4 30:1 
-0.8919775832873542 -0.9518355869169797 1 1 1 0.8372925355727106 0.8655062790952635 0.9326558189451839 0.9095242098272168 0.9232415663182071 0.7395804524067955 0.9255104702110672 0.7016468573325756 0.893905025950342 0.9564654517356136 1 0.768652428478322 0.9267663581599995 0.9517955407476684 0.7835744369301194 0.8104921589067059 0.8495956620731429 0.9691114177758737 0.8996730031030731 0.8433558918779434 0.7426930600150197 0.7373711242549336 0.8757876285706329 0.8630702227301107 0.8713092652861878 0.7286167299680099 0.9800416632159465 0:1 1:3 2:5 3:6 4:6 5:7 6:6 7:11 8:15 9:12 10:6 14:5 15:7 16:8 17:5 18:3 19:4 20:5 21:4 22:3 23:2 24:6 25:6 26:6 27:8 28:6 
-0.4120802965655823 -0.4554582423252507 0.485602994878553 0.4790555919470625 0.4268604517051246 0.3873330688684437 0.4186189903598207 0.4175991573773744 0.4342660076250729 0.4415879373108232 0.353695644613966 0.4404894104676089 0.335488303584654 0.4278407394211119 0.4583098612909089 0.481621373231713 0.3670958237844286 0.4433341044932663 0.4542706634312942 0.3748813525621272 0.3882480189329162 0.4072932167437327 0.4636623800159411 0.4301142391167489 0.4039484809206726 0.355685209077876 0.3533153405336508 0.418783320473873 0.412573597981207 0.417039163019291 0.3486228685537617 0.4687954121434664 1:4 2:6 3:9 4:9 5:8 6:8 7:9 8:11 9:9 10:6 14:6 15:8 16:8 17:6 18:3 19:3 20:3 21:4 22:4 23:4 24:4 25:3 26:3 27:10 28:10 
-0.3535545581691937 -0.3801195607922291 0.6558638237448398 0.4015722509963324 0.4355193373926492 0.3352473224099536 0.3446333565725102 0.3714384861424574 0.3635200407221535 0.3690292419633577 0.2967749082879125 0.3700973706640519 0.2811717442581455 0.3574813079740961 0.3841194182286129 0.4037289204624219 0.3078837634293912 0.3710018688279163 0.3805859268695331 0.3135123477225095 0.3252726321017311 0.3399185708189263 0.3879692524735968 0.3602159788273647 0.3376877492106092 0.2973112521994263 0.2957728880018934 0.3509784092596603 0.345280835877389 0.3489829509659272 0.2913335075062146 0.3923477888767217 0:4 1:4 2:7 3:8 4:7 5:10 6:12 7:13 8:10 9:9 10:3 11:3 13:2 14:7 15:10 16:7 17:6 18:6 19:3 20:4 21:3 22:3 23:3 24:3 25:7 26:9 27:9 28:6 29:2 
-0 -0 0.2806363130533785 0 0.018993105058227 0 0 0 0 0 0 0 0 0 0 0 0 0 0 0 0 0 0 0 0 0 0 0 0 0 0 0 0:3 1:5 2:7 3:8 4:9 5:11 6:11 7:12 8:11 9:7 10:3 11:3 13:4 14:8 15:8 16:6 17:6 18:6 19:3 20:3 21:4 22:3 23:3 24:4 25:7 26:9 27:8 28:6 29:2 
-0.528182963528348 -0.5103093206202978 0.744487503329345 0.545234337896333 0.7051961180662691 0.5556358420531139 0.4779040594311207 0.6374954834005784 0.4884284566767767 0.5018986921848474 0.395284335990468 0.4917623273885308 0.3782856647662307 0.4817771097303552 0.5131524862423837 0.5597366690506246 0.4137552584080653 0.498011620910505 0.5195354407640653 0.4211762250466894 0.4342349893572197 0.4554127296865922 0.5188562557240158 0.4825571223200017 0.4520296415076983 0.396802777212503 0.3963018109025357 0.4691789604995499 0.4632601688283261 0.4672225577210256 0.3916004321876697 0.5265455421161077 0:4 1:5 2:7 3:10 4:10 5:9 6:10 7:8 8:11 9:8 10:6 13:4 14:7 15:9 16:6 17:4 18:3 19:3 20:5 21:5 22:5 23:6 24:5 25:4 26:7 27:9 28:5 29:1 
-0.4898978207446949 -0.5233370617773661 0.553838855873254 0.5527147572261587 0.5442506266995204 0.4600467885341989 0.5069441465658654 0.5192948592327378 0.4997844121116962 0.5055529090675096 0.4062580109871965 0.5091526985037564 0.3859712939172749 0.4972805667913468 0.5237099576935779 0.5522296906251813 0.4217045070767457 0.5084335108503278 0.526644325812588 0.4306425173495935 0.4443170158440753 0.4658460743427164 0.5311778692852261 0.4929263887041531 0.4620212801867716 0.4097009144866971 0.4065775477088072 0.4802277855804651 0.4735229843952248 0.4774578464086186 0.4049228867209684 0.5370656453383871 0:3 1:4 2:6 3:9 4:10 5:8 6:9 7:9 8:6 9:8 10:6 11:3 14:4 15:7 16:9 17:5 18:3 19:3 20:3 21:5 22:6 23:6 24:5 25:4 26:5 27:8 28:6 29:2 
-0.8772886574901742 -0.921831366266939 0.8551815623862244 0.9717751426130092 0.9049839313775724 0.8391723309203015 0.8313190541609083 0.9571037356059299 0.8787863786666357 0.9058140515724664 0.7138776106306036 0.8917064293235207 0.6810351361260379 0.8618906511132902 0.9227811975719661 0.9889640060804148 0.7413869065427493 0.8934784917065571 0.928584055741202 0.7560661980920625 0.7824915631325768 0.8201088163892624 0.9357807923006082 0.8683135826839078 0.8139407307971793 0.7189401470696728 0.7112314436250533 0.8451835844550609 0.8326959027918559 0.8415602329194551 0.704330321477187 0.9452794490978903 0:10 1:6 2:6 3:9 4:10 5:8 6:8 7:10 8:9 9:7 10:5 11:1 14:4 15:7 16:8 17:5 18:4 19:4 20:5 21:5 22:7 23:8 24:6 25:4 26:5 27:9 28:6 29:2 
-0.3386389898498199 -0.3494647961299453 0.3325419826614623 0.3691386499529078 0.4109723865228963 0.3207320583535709 0.3123768550453925 0.3946093682029273 0.3361808053366484 0.3411548453968177 0.2722491650877316 0.3420999131589892 0.2585755377055757 0.3269290039333288 0.3521439403760143 0.3715698953240718 0.2823002399727977 0.3407479002216938 0.3491540133671359 0.2880502021561502 0.2981371649960733 0.3122839794273523 0.3562991132016071 0.3317516275362159 0.3101067367981093 0.2728344995481594 0.2705883793966412 0.3220340967474486 0.3165800104275472 0.3203508960481262 0.2675969475212185 0.3609148937119843 0:2 1:3 2:7 3:9 4:10 5:9 6:8 7:8 8:9 9:11 10:7 11:3 14:5 15:8 16:7 17:6 18:3 19:3 20:3 21:5 22:5 23:5 24:5 25:4 26:6 27:10 28:8 29:3 
-0.5266118825267979 -0.5742095132505858 0.931004021564689 0.6012403962077286 0.5815251033322812 0.4962772163874791 0.517728580423936 0.5378501085601731 0.5413011197158603 0.5494823780267744 0.4401177558426491 0.5507073306317875 0.4182002734282892 0.5338437583985017 0.5695390567127767 0.5996186990806245 0.458472247901621 0.551726687212116 0.5666286611363408 0.4671162942481542 0.4827608360610434 0.5061105370645791 0.5773281914401407 0.5355257509464114 0.5019578391124986 0.4421814831570822 0.4391888723494129 0.5217694625451449 0.5136328544849311 0.5187820541274668 0.4340618706661116 0.5837093305981217 0:4 1:4 2:5 3:6 4:8 5:10 6:13 7:13 8:11 9:6 10:3 11:3 13:3 14:7 15:8 16:7 17:6 18:6 19:3 20:3 21:3 22:3 23:3 24:5 25:8 26:9 27:7 28:4 29:1 
-0.07692352610806691 -0.07927796668650064 0 0.08632556382917914 0.0736451090757896 0.070887644939546 0.07609841254657719 0.09492102460831914 0.07904393552411713 0.08102548275125573 0.06467558936117818 0.08152145525406809 0.06137140798181896 0.07738729972427866 0.08292731484995515 0.08857335431591645 0.06670124170600437 0.08068821785689878 0.08370474942892228 0.06765654285755555 0.07000748299341027 0.07443976271963722 0.08407596816381493 0.07917401376777844 0.07395821601129952 0.0645880742991259 0.06303306516740019 0.07537815369195694 0.07511573393559695 0.07646679452996244 0.06291332886559439 0.08527863750997856 0:4 1:5 2:7 3:8 4:9 5:11 6:11 7:12 8:11 9:7 10:3 11:3 13:4 14:8 15:9 16:6 17:6 18:6 19:3 20:3 21:4 22:3 23:3 24:4 25:7 26:9 27:8 28:6 29:2 
-0.01012252458264783 -0.04148386076245381 0 0.03864964901863399 0.01446157765185231 0.00318810654871714 0.02631456920438604 0.03064748250670637 0.03914686767801919 0.04422950779463083 0.03396987852992438 0.05070656857859967 0.02961392452035981 0.03687496161844699 0.04170711824542953 0.03002970592320917 0.03255560827520657 0.03975611560034591 0.03623387532793136 0.03376612953071032 0.03612699231001095 0.03728266663416056 0.04408029019496663 0.03952350431181704 0.03735503385289966 0.03496930116683416 0.03167017463669079 0.0391991602672942 0.03751424444003329 0.03830556918023609 0.03115120550617272 0.04210408498235597 0:4 1:5 2:7 3:10 4:10 5:9 6:10 7:8 8:11 9:8 10:6 11:1 13:4 14:7 15:9 16:6 17:4 18:3 19:3 20:5 21:5 22:5 23:6 24:5 25:4 26:7 27:10 28:5 29:1 
-0.3781043595707589 -0.4057959579817952 0.6689422607038236 0.4280147891950755 0.4016938371766171 0.3535536367653204 0.3668888486776431 0.3904804318571967 0.3875382794014365 0.3950045337280264 0.3154505982189649 0.396931736128036 0.2992499939829069 0.3805212613855309 0.407901701748407 0.4297685180641451 0.3272706671221315 0.3947885866362059 0.4061589563073578 0.3338276109949772 0.3465535882706915 0.362896588808494 0.4120913904616887 0.3838785332206509 0.3596923087314328 0.3161990125800093 0.3149295080001823 0.3758190581073736 0.3676131349185692 0.3719301306786503 0.3131831624727589 0.4182815353649226 0:1 1:3 2:8 3:8 4:10 5:9 6:9 7:13 8:11 9:8 10:3 11:1 13:5 14:7 15:8 16:5 17:6 18:3 19:3 20:3 21:4 22:4 23:3 24:3 25:8 26:9 27:10 28:3 
-0 -0 0.0649376003254432 0 0.04511651838089446 0 0 0 0 0 0 0 0 0 0 0 0 0 0 0 0 0 0 0 0 0 0 0 0 0 0 0 0:3 1:5 2:9 3:9 4:8 5:10 6:11 7:12 8:10 9:6 10:3 11:1 14:6 15:8 16:8 17:6 18:6 19:3 20:3 21:4 22:3 23:3 24:4 25:4 26:9 27:10 28:7 29:3 
-0.3301622720155693 -0.4019860262148333 0.2113928923486591 0.426542535976468 0.08649413955195338 0.2945352519343399 0.3604880298199851 0.2960879241166738 0.3752630820583255 0.3825229237446615 0.3121420531095468 0.3774003067347696 0.2941760475496011 0.3697899745017033 0.4050116841022425 0.4230241489176199 0.3235359618617163 0.3911820299047328 0.3976292023591658 0.3277091076150627 0.3421130023189296 0.3577279506529047 0.4051383023560344 0.3818731561762965 0.3546183904183072 0.3136157862827564 0.3114893485087664 0.3691476601261475 0.3646882297794437 0.3690724924501294 0.3046186068226792 0.4137933687984906 1:4 2:7 3:9 4:10 5:9 6:8 7:8 8:10 9:10 10:8 13:4 14:7 15:9 16:6 17:6 18:3 19:3 20:3 21:4 22:4 23:4 24:4 25:4 26:10 27:10 28:2 
-0.5073907006405415 -0.5504357980559444 0.4755455241197661 0.5767443737355415 0.5559172683179037 0.4799548380389283 0.5006729799238303 0.5297691676380373 0.5216289771667929 0.5302735576464422 0.4245186977418005 0.5297916662484357 0.4024303947405433 0.5150467822910598 0.5489565943546363 0.5785686356362068 0.4415016809743997 0.5322809304483389 0.5480021904098078 0.4504371028964658 0.465053534340253 0.4867688434667513 0.5562689125789924 0.5166001507116665 0.4843432034105831 0.4263826825752653 0.4270698457884876 0.50213851723514 0.4949767527971959 0.5001400576501486 0.4194726887705694 0.5624980820941299 0:4 1:4 2:7 3:8 4:8 5:10 6:13 7:11 8:9 9:3 10:3 11:4 14:6 15:8 16:7 17:6 18:5 19:4 20:3 21:3 22:3 23:4 24:4 25:7 26:9 27:8 28:5 29:2 
-0.009922094145749211 -0.006584998536274091 0 0 0 0 0 0 0 0 0 0 0 0 0 0 0 0 0 0 0 0 0 0 0 0 0 0 0 0 0 0 1:4 2:8 3:9 4:9 5:9 6:9 7:10 8:11 9:10 10:5 14:4 15:8 16:6 17:6 18:5 19:3 20:3 21:4 22:4 23:4 24:4 25:4 26:9 27:10 28:10 
-0.3615816142659746 -0.3962449248752085 0.502974378050055 0.417967769644161 0.3780120619245332 0.3311456883733159 0.3603792453755045 0.3405741024483268 0.3782514032731188 0.384088617724382 0.309049818084669 0.3837665577857362 0.2922686956401585 0.3726378372912805 0.3986927027530196 0.4202290057775278 0.3205553167173694 0.3854358909868279 0.3961596193202518 0.3261731829782006 0.3371897102094339 0.3535583917711982 0.4037168577712111 0.3748842148734423 0.3514629471649606 0.3082894373140259 0.307352708358389 0.3647415026129111 0.3595036598236347 0.3629992007550616 0.3034084208174895 0.4081229345087714 1:5 2:7 3:10 4:8 5:8 6:8 7:11 8:11 9:9 10:3 14:6 15:8 16:6 17:6 18:3 19:3 20:3 21:3 22:3 23:3 24:3 25:3 26:10 27:10 28:10 
-0.5998514975723614 -0.6130784337791184 0.7598175935563132 0.6472648895219246 0.6232821871683597 0.5719271551957968 0.5571787152148204 0.6562599050639302 0.5861377817014968 0.5957959550992594 0.4775028182219464 0.5961168044532393 0.4535891430456213 0.5768642264792627 0.6170989339784909 0.6501947827857733 0.4961029242222715 0.5970598863422562 0.6153729278802109 0.5054448453412647 0.5225875995870368 0.5482103698459321 0.6252636391232809 0.5806813688617518 0.5442534558714569 0.4791054099844204 0.4760605568060695 0.5648779537665486 0.5567274896892535 0.5628403184505321 0.4701307280418219 0.6326353105848113 0:2 1:7 2:9 3:10 4:8 5:8 6:9 7:12 8:11 9:8 13:3 14:7 15:9 16:6 17:6 18:3 19:3 20:3 21:4 22:5 23:4 24:4 25:3 26:10 27:10 28:4 
-0 -0 0.08128629475133596 0 0 0 0 0 0 0 0 0 0 0 0 0 0 0 0 0 0 0 0 0 0 0 0 0 0 0 0 0 0:2 1:6 2:9 3:10 4:9 5:9 6:9 7:12 8:10 9:9 10:3 14:6 15:9 16:6 17:6 18:5 19:3 20:4 21:4 22:4 23:4 24:3 25:4 26:10 27:10 28:10 
-0.1743841713860342 -0.1965633644309 0.2152775733572298 0.206657794053354 0.2074096421325911 0.1660954593861475 0.1818024610011141 0.1751030279950481 0.1879755149461555 0.1907897302450049 0.1531541575263766 0.190289149151868 0.1447124836958726 0.1847804599099123 0.1972527456639866 0.2084408083914226 0.1584361021411623 0.1918147705412393 0.1977705639386834 0.161817190715501 0.1674523499125119 0.1751898944588471 0.199851979686526 0.1857280339198405 0.1739322615942948 0.1541517730388977 0.1530981563299431 0.1809125892770007 0.1784490882032607 0.1794522366962261 0.1508033785940757 0.202281172313404 0:2 1:6 2:9 3:9 4:9 5:10 6:9 7:11 8:8 9:6 10:2 13:1 14:6 15:8 16:7 17:6 18:3 19:3 20:3 21:3 22:4 23:4 24:4 25:3 26:10 27:10 28:6 
-0.4253158091810447 -0.4355275050711753 0.4222362645267593 0.4595242826944946 0.4760181876656926 0.4002573292237808 0.3931793327342479 0.4457275524527869 0.4152253790098615 0.4222018634591922 0.3382620914015873 0.4230073771407238 0.3218770217658935 0.4091481847513007 0.437779555064947 0.4614775174745779 0.3529454360593785 0.424346045994328 0.4363603460448204 0.358014647931718 0.3700741049775146 0.3882829035101852 0.4436375804425368 0.4124252759191183 0.3864542368757787 0.3394780835993808 0.337179233877789 0.4009326284125042 0.3948918670005884 0.399125084098099 0.3334691710841963 0.4486701144682993 1:4 2:8 3:9 4:9 5:9 6:9 7:9 8:10 9:9 10:7 14:4 15:8 16:9 17:6 18:5 19:3 20:4 21:4 22:4 23:4 24:4 25:4 26:4 27:10 28:10 
-0.4271219267492334 -0.4597352679099866 0.5904226240407119 0.4848645894010124 0.422822803750409 0.4030530488101008 0.4166471813435679 0.4417689965147839 0.439426045725295 0.4462558486827836 0.3574136470326038 0.4461364740885018 0.3396145449378424 0.431655698449804 0.4622659703286942 0.487239937695036 0.3716979620240683 0.4471252025491712 0.4604167986663967 0.3784993222055809 0.3916763654325278 0.410360810527453 0.4684069878935724 0.4349773238324049 0.407281745927368 0.3603191788907567 0.3562894668139346 0.4235879654821681 0.4165984624201097 0.4213564276683293 0.352785225191352 0.4738638204091367 0:3 1:5 2:9 3:8 4:8 5:10 6:11 7:12 8:10 9:4 10:3 11:1 14:6 15:8 16:6 17:6 18:6 19:3 20:3 21:4 22:3 23:3 24:3 25:4 26:9 27:10 28:7 29:3 
-0.3957534722849937 -0.3654933287739297 0.6065057680626788 0.3828671070009209 0.7355528512767709 0.38999230863559 0.340985228578502 0.4483937241208056 0.3588120696334374 0.3616591400531041 0.2845716633939789 0.3693274788170474 0.2728997612399985 0.3518802082535971 0.3669815747370633 0.3893923492103377 0.2968949863144271 0.3561935342525036 0.3699318173583561 0.3047289540456538 0.3118493782730173 0.3274822679859738 0.3769949653650481 0.3445334819070968 0.325672114269918 0.2854317493771692 0.283694940628484 0.3376604208106569 0.3310412996862545 0.3339682696007067 0.2834254666881793 0.3772021573703012 1:4 2:7 3:9 4:10 5:9 6:8 7:8 8:10 9:10 10:8 11:1 13:4 14:7 15:9 16:6 17:6 18:3 19:4 20:3 21:4 22:4 23:4 24:4 25:4 26:10 27:10 28:2 
-0.0533543955850377 -0.05503604979919785 0.2678611395874752 0.06548476912771113 0.1137188998955227 0.0595112015846478 0.0558232002654083 0.08471269923914167 0.06155128194568008 0.06126018333996879 0.04935619918365491 0.06227754332804082 0.04613630334246841 0.05865218911890858 0.0617676178596571 0.065156729485147 0.04972455316010948 0.05967338257953116 0.06263931419648788 0.05151982436079205 0.05338939154037574 0.05502103452670342 0.06298728181985457 0.05859152636096881 0.05457321078143667 0.05065269469501739 0.0483036783557138 0.05665614376533172 0.05611822992410766 0.0563288980102496 0.04900186593540558 0.06388336747142208 1:4 2:8 3:9 4:9 5:9 6:9 7:10 8:11 9:10 10:5 14:4 15:8 16:6 17:6 18:5 19:3 20:3 21:4 22:4 23:4 24:4 25:4 26:9 27:10 28:10 
-0.267853198626642 -0.2930760037077229 0.4373155183099429 0.3085250405479637 0.3279689853155894 0.2566994243841271 0.2688828109527475 0.2860981585612991 0.2798845875842577 0.2828672632364378 0.2275168103679996 0.2822019656309608 0.2161272629042395 0.275346332133071 0.2944638383874271 0.3097863000674616 0.2368123712909643 0.2850761016798293 0.2930234801259826 0.2418358848876759 0.2487279643050968 0.260706221759653 0.2993538731994441 0.2769581992590947 0.2594879455916708 0.2290407073039386 0.2268277685131664 0.2671032495878458 0.2657335994808294 0.2680941672717639 0.2225647491090919 0.3013506391310031 1:3 2:8 3:8 4:10 5:10 6:9 7:13 8:11 9:8 10:3 11:1 13:4 14:7 15:9 16:6 17:5 18:3 19:3 20:3 21:4 22:4 23:3 24:3 25:8 26:9 27:10 28:3 
-0.8598931630283467 -0.9225035116670443 0.8366971847287307 0.9748559210606131 0.8864537525845027 0.8092315511274375 0.8516585858909481 0.8927931492071406 0.8821383129757187 0.8954762640642077 0.7171225088743043 0.8964075467599462 0.6816310221168741 0.8681029730187548 0.928112778258681 0.9775411125685004 0.7478404711572464 0.9013455819102953 0.9242417986611783 0.7603322671355579 0.786389705589934 0.8244524351553693 0.9402238723981243 0.8734441783100427 0.8182424953060651 0.7214607139957572 0.7158566030032062 0.8496133402508359 0.8370430094454798 0.8462031116523031 0.7076628581632907 0.950866453437291 0:3 1:5 2:5 3:7 4:8 5:10 6:9 7:9 8:7 9:6 10:9 11:7 14:6 15:8 16:7 17:3 18:2 19:2 20:3 21:6 22:8 23:8 24:6 25:4 26:6 27:7 28:5 29:3 30:1 
-0.3458627658191295 -0.3678226198686216 0.1608153811881268 0.3873839471362717 0.3878814529292757 0.3494487450605946 0.332977041973931 0.4130949044819578 0.3506680609628115 0.3566061309349216 0.2841513480080901 0.3574276375770094 0.2714170630281024 0.3445821320507244 0.3701077340022197 0.3890695923272854 0.2963866484909696 0.3585217403671325 0.3671969278231446 0.3025269187938348 0.3124585462563341 0.3284278317162087 0.3746337181861265 0.34789718667706 0.3257797223562795 0.2871803330095706 0.2841188042484113 0.3385685742973973 0.332890339227931 0.3370371493096445 0.2810134384456104 0.3785414871715696 0:1 1:6 2:9 3:10 4:10 5:9 6:9 7:12 8:10 9:9 10:3 14:6 15:9 16:6 17:6 18:5 19:4 20:4 21:4 22:4 23:4 24:3 25:3 26:10 27:10 28:10 
-0.006159467027846081 -0 -0.1209061532003963 0 0.1593372929137817 0.0130715963520297 0 0.04706386748955122 0 0 0 0 0 0 0 0 0 0 0 0 0 0 0 0 0 0 0 0 0 0 0 0 1:4 2:6 3:8 4:7 5:6 6:7 7:12 8:13 9:10 10:3 14:5 15:7 16:6 17:6 18:3 19:4 20:5 21:5 22:3 23:3 24:3 25:6 26:7 27:8 28:5 
-0.3024824294930334 -0.3400580622808459 -0.4388280874904272 0.3467405642569317 0.3393876243545327 0.2938897743814933 0.300474158325799 0.3007440183979871 0.316760562126612 0.3219356489284489 0.2604162232579096 0.3173281953855523 0.2469519443428228 0.3115934848148519 0.3321947861143202 0.3525977815757422 0.2713320955078465 0.3231510564635258 0.330442093599324 0.276376564634927 0.2831382238051464 0.29512533660279 0.3366214594115342 0.3125736960318548 0.2947922854268776 0.2613578973683627 0.2584230697052964 0.3042537656642334 0.2997439775410652 0.3035120167553541 0.2591497892912503 0.339663035546251 0:5 1:3 2:5 3:5 4:7 5:9 6:9 7:11 8:11 9:8 10:6 11:4 13:2 14:6 15:8 16:6 17:5 18:4 19:3 20:5 21:5 22:4 23:3 24:3 25:6 26:9 27:7 28:6 29:1 
-0 -0 -0.006439065755677124 0 0 0 0 0 0 0 0 0 0 0 0 0 0 0 0 0 0 0 0 0 0 0 0 0 0 0 0 0 0:1 1:5 2:8 3:7 4:7 5:7 6:10 7:13 8:12 9:7 10:2 14:6 15:8 16:6 17:6 18:3 19:4 20:4 21:6 22:3 23:3 24:4 25:6 26:8 27:7 28:5 
-0.3465902514818286 -0.3743911372048887 -0.7267579091911097 0.3815565785436436 0.4468785214470445 0.3375489373872435 0.334149021126122 0.3623383226277109 0.3480928052179586 0.3551631827984925 0.2882140829395545 0.3545736940100669 0.2739872165935769 0.3451202713663992 0.3674161255457308 0.3872615427936886 0.2991489702446174 0.3554691980008443 0.3661937086321588 0.305076391440756 0.3121715140991829 0.3258849803544945 0.3718274657814155 0.3456782518573254 0.3258354099608649 0.2892111194084188 0.2857601338440819 0.33826550859885 0.3299142371596248 0.3342999987034074 0.2842175930854435 0.3751613325383186 1:3 2:6 3:7 4:5 5:7 6:7 7:10 8:14 9:10 10:4 14:4 15:7 16:8 17:5 18:2 19:3 20:4 21:4 22:3 23:3 24:3 25:6 26:7 27:8 28:6 
-0.561560462989965 -0.6022583192409044 -0.5367524747108873 0.6185515044511152 0.7113025454854321 0.5525044232453094 0.542939911467164 0.6326280564711936 0.5630637450916339 0.571696224180586 0.4612354492057746 0.5795075059110607 0.4392181140329205 0.5583504229865723 0.5893368784060701 0.6218893983147896 0.4801530871318709 0.5715084615560725 0.5877482628609996 0.4885067525762436 0.5008345433108158 0.5234548887443273 0.5972813935053679 0.554855997526114 0.5229645749867128 0.4644582656167385 0.4569029201625588 0.5399058337383622 0.5323516153020468 0.5375332850815222 0.4580907893099438 0.603291957855442 0:4 1:5 2:4 3:5 4:10 5:9 6:9 7:9 8:7 9:9 10:7 11:5 13:4 14:7 15:8 16:5 17:4 18:5 19:6 20:7 21:5 22:3 23:3 24:4 25:6 26:9 27:7 
-0.7453742481383108 -0.7968471728336872 -0.7391271221866463 0.8211564866843228 0.7473350112385667 0.7201958396786918 0.704548504138707 0.7710301531318753 0.7407894011856893 0.7530111529006058 0.6089277785620292 0.7601190139016243 0.5796641006056166 0.7286219790033113 0.7790966356239659 0.8231117869561385 0.634456010648921 0.7545367889448802 0.7768055842585487 0.6464036804083262 0.661285602293299 0.691853821499683 0.7888057625831715 0.7332408703529456 0.6903549590291537 0.6131219697675824 0.6058081331896046 0.7126274351429955 0.7041510677227458 0.7096441341327833 0.603295238998298 0.7968235831914138 0:2 1:5 2:6 3:8 4:7 5:6 6:10 7:11 8:13 9:7 10:5 13:4 14:8 15:6 16:6 17:6 18:3 19:4 20:6 21:5 22:3 23:3 24:4 25:8 26:8 27:6 
-0.3083363851181272 -0.3466368606107084 -0.1674208413620936 0.3541035652875472 0.1216911910237158 0.2944518765425493 0.3030439932653045 0.286404584117152 0.3213886477571689 0.3246203665546011 0.262428082050616 0.3251260680727664 0.250369465162402 0.3138996425256255 0.3356571325586763 0.3525266486740027 0.273352578816988 0.327812012298997 0.3350278850042915 0.2797189673674976 0.2857259395544943 0.2988814987791768 0.3407222946928019 0.3168462774518455 0.297976419031984 0.2646716643161872 0.2611958313278271 0.306530250096212 0.3052752209560223 0.3073348514720743 0.2604459887434648 0.3455343605463339 1:3 2:6 3:7 4:5 5:6 6:7 7:12 8:14 9:10 10:3 14:4 15:7 16:7 17:6 18:3 19:3 20:4 21:4 22:3 23:3 24:3 25:6 26:6 27:8 28:6 
-0.08505279760162196 -0.1033876851245454 -0.5922614058274421 0.09794396896496012 0.3727009772115647 0.1045627631637938 0.07866637797603206 0.1525721212588868 0.08611626131948756 0.08447511420633731 0.06766864423189664 0.08880217547458215 0.06595328957116303 0.08374666802951213 0.0873494356846333 0.09859775932918764 0.0709624601866575 0.0863375208968795 0.08811989323231614 0.07443865470723647 0.07395668519845143 0.07763742920700045 0.08747329750836307 0.08275094873101556 0.07734223744814503 0.07432928723891706 0.0693907477127796 0.0795771656471017 0.07829219084383178 0.07922663286505802 0.07098058096854373 0.09092947066851312 0:3 1:5 2:8 3:6 4:7 5:8 6:10 7:11 8:11 9:7 10:4 14:5 15:7 16:7 17:6 18:6 19:3 20:4 21:6 22:4 23:3 24:3 25:5 26:7 27:8 28:6 
-0.3627167605691567 -0.3956485564278165 -0.8263530667343749 0.4073929185082221 0.3379683979683721 0.3536574355429906 0.3523843908717625 0.3729170300262643 0.3690636193882101 0.3769494897703862 0.3037473446190651 0.3756235654979391 0.2886787098323035 0.3642926356058778 0.3895882182049894 0.4094939706860099 0.3171920014957307 0.3774379452223154 0.3872962645093543 0.3224426084648985 0.3310855395690053 0.3458463249182103 0.393953189959289 0.3667190274614465 0.3450547919897691 0.3054976847318215 0.3022978398728262 0.3560257582959883 0.3516297215091346 0.3542770809745415 0.2998175588643528 0.3986880839123375 0:1 1:3 2:5 3:7 4:5 5:6 6:7 7:11 8:14 9:11 10:4 14:6 15:7 16:7 17:4 18:3 19:3 20:5 21:4 22:3 23:2 24:6 25:5 26:7 27:7 28:5 
-0 -0 -0.01264168511018202 0 0 0 0 0 0 0 0 0 0 0 0 0 0 0 0 0 0 0 0 0 0 0 0 0 0 0 0 0 0:2 1:4 2:7 3:7 4:8 5:9 6:9 7:14 8:13 9:8 13:3 14:7 15:8 16:6 17:4 18:3 19:4 20:4 21:5 22:3 23:3 24:6 25:6 26:8 27:7 28:4 
-0.5952800622906483 -0.6479611968965379 -0.9979468489273534 0.6656017929308226 0.6469862349972558 0.5801461848329675 0.5755031302408087 0.6325325484622593 0.6031982465333863 0.6136810761226847 0.496223564383772 0.6139838351529965 0.4716193471237278 0.5946753486836405 0.6344810434014378 0.6676924908186005 0.5165074370786555 0.6152214007486307 0.6338789763552863 0.5267486478897889 0.5393376106674113 0.5636216253012407 0.6428822737230381 0.5976174660338117 0.5630891187505209 0.4997667425882923 0.4930476395421649 0.5811781620688032 0.5717017177327115 0.5785991486703812 0.4903784576324449 0.6501752812945849 0:2 1:4 2:7 3:7 4:8 5:9 6:9 7:14 8:13 9:8 13:3 14:7 15:8 16:6 17:4 18:3 19:4 20:4 21:5 22:3 23:3 24:6 25:6 26:8 27:7 28:4 
-1 -1 -1 1 1 1 1 1 1 1 0.8733129104317995 1 0.8312631474425007 1 1 1 1 1 1 1 0.9490529385278273 0.9924729917544042 1 1 1 0.8793119874324697 0.8823408925660312 1 1 1 0.8652338148213612 1 0:4 2:3 3:3 4:3 5:9 6:15 7:15 8:2 14:3 15:4 16:4 17:6 18:5 19:4 20:2 21:3 22:3 23:4 24:4 25:3 26:3 27:3 28:3 
-0.7405388546183216 -0.8059834916448758 -0.8961230946706089 0.8281516680755721 0.9663155051668316 0.7308107623637196 0.7132199352347702 0.7994417670704201 0.7509098221283947 0.7634344275569154 0.6171371715776433 0.7641706856573824 0.5871326934917623 0.7387307047806364 0.7892693790111684 0.8304907810836659 0.6425370744858236 0.7644701049979074 0.7864037288425417 0.6549309303130151 0.6702383858303056 0.7012522053055028 0.7994136336648262 0.7426762890037372 0.699492236187445 0.6213808110918042 0.6134999648608286 0.7220649908761818 0.7121422788111335 0.7184353401317713 0.6107540472183065 0.8078129904051472 0:2 1:4 2:6 3:7 4:7 5:9 6:8 7:14 8:13 9:10 10:3 11:6 13:1 14:7 15:10 16:8 17:6 18:4 19:6 20:4 21:5 22:3 23:3 24:6 25:6 26:9 27:7 28:4 
-0.07497122053008094 -0.07338333944343449 -0.05506065778146806 0.07492051498779317 0.1496060977776731 0.06982445083832078 0.07497840008587545 0.1239577667614771 0.06753052675872637 0.06646676867491356 0.05384525716311354 0.07489361660666835 0.05249080212071806 0.06994686923403842 0.06999140323755533 0.0729272242346858 0.05646779171933893 0.0679280027921938 0.07000379143548842 0.05768097976167237 0.05885217811067111 0.06224695392021066 0.07065653767492806 0.06582572926397307 0.06132466655565973 0.0548947557067393 0.05379055686524153 0.06416809967369905 0.06330401034368993 0.0635942455760086 0.05379366718157932 0.07139702138954672 0:2 1:4 2:5 3:6 4:6 5:8 6:8 7:11 8:11 9:10 10:6 11:4 13:1 14:6 15:8 16:7 17:6 18:4 19:3 20:5 21:6 22:4 23:3 24:3 25:5 26:8 27:7 28:5 
-0.1239523057292766 -0.1418411335035496 -0.06975809550247393 0.1657950339545446 0.3542145158970378 0.1160811293878562 0.1155584052222529 0.1296998929320491 0.1260493342070019 0.1237287620170659 0.1011245394406354 0.1305940343327009 0.09666589790374634 0.121834645899333 0.1275013198402792 0.1427819941047815 0.1054038698433588 0.1288613757795425 0.1280628861148365 0.1100282777779085 0.1088149478649603 0.114262821068546 0.1294206925886166 0.1208155825841788 0.1134986301257743 0.1059642470311773 0.1000541551361359 0.1181999762396286 0.123773426628409 0.11624907559471 0.1114910879337789 0.133259881036718 0:4 1:4 2:5 3:5 4:7 5:7 6:9 7:12 8:11 9:9 10:3 14:4 15:7 16:6 17:4 18:3 19:4 20:5 21:4 22:3 23:4 24:6 25:7 26:8 27:7 28:4 
-0.5019454400447884 -0.5455126986545288 -0.493237876117565 0.5698959331389977 0.6724999667487945 0.4907982238765532 0.4830094184410967 0.5353268930458187 0.509243516682635 0.5178149927916049 0.4184949939150692 0.5260897995628822 0.3983387183964518 0.5002765162023408 0.5348374418243335 0.5648378699175606 0.4352447966155279 0.5181151222705943 0.5331970432688995 0.4436080368024811 0.454470245022009 0.4757680045473042 0.5422214977450385 0.5041544839861153 0.4745804293574473 0.4206755402016977 0.4150730594742675 0.4907851925976796 0.4826637731462496 0.4877690337481326 0.4124399190999576 0.5479923707355691 0:4 1:4 2:5 3:3 4:6 5:7 6:9 7:12 8:11 9:12 10:6 11:3 13:2 14:6 15:8 16:5 17:3 18:3 19:5 20:6 21:3 22:4 23:6 24:6 25:6 26:9 27:7 28:3 
-0.101729808441898 -0.108841538689314 -0.1711420650630882 0.1109808739927232 0.2253851181165301 0.1051581200146006 0.1009455330283115 0.09791530320177654 0.1021145673351511 0.1030786321488769 0.08426105929255071 0.1034619767957331 0.0791901644026333 0.1010121915566281 0.1062068398553012 0.1119589208107075 0.08668076176012725 0.1047411957669023 0.1057848920341408 0.08897116515670994 0.09107839428673334 0.09484215282265461 0.1081280188456834 0.100382148186644 0.09477718521920575 0.08371885596710156 0.0828583594594602 0.09780896856614735 0.09604847614901878 0.09761056132648532 0.08288271130091428 0.1091623455524477 1:4 2:6 3:7 4:7 5:8 6:9 7:10 8:14 9:9 10:5 13:3 14:7 15:8 16:6 17:5 18:3 19:4 20:5 21:5 22:3 23:3 24:4 25:7 26:8 27:6 28:2 
-0.5643441968684837 -0.5712669510654093 -0.5916371503800325 0.5908616023411152 0.3945563024021701 0.5498531426323499 0.5123616954775002 0.564959960599914 0.5397059412900216 0.5502792854414664 0.4445401747942718 0.5515555679431609 0.4209663133987596 0.5288181860810707 0.5680801418611608 0.597278086561972 0.4604469169359126 0.5486029752244844 0.5667062139641227 0.4685131483331473 0.4815301140495721 0.502894652250004 0.5764501806782902 0.5335068818621219 0.5024080998935113 0.4448078615627188 0.4386638207334765 0.5189265830316937 0.5118683284265672 0.5164059215891577 0.4381640077469877 0.5804888880143598 0:3 1:5 2:8 3:7 4:7 5:6 6:10 7:11 8:11 9:7 10:5 14:5 15:7 16:7 17:6 18:6 19:2 20:4 21:6 22:4 23:3 24:3 25:5 26:8 27:8 28:6 
-0.6894509408117625 -0.7585585961251743 -0.6913327427707706 0.7766348331424402 0.6878554369659318 0.6769229761520159 0.6861459942408302 0.7156255131487957 0.703511815141218 0.7153578273254381 0.5789110922672608 0.7133028550976811 0.5507239509452589 0.6991992839095972 0.7405666524163984 0.779693263545272 0.6033432872245175 0.718606382731833 0.7392002356567097 0.6159737953901008 0.6295175140860244 0.658304071105523 0.7495966142853727 0.6972441240417862 0.6567536870984514 0.5826778249411668 0.5786326874247281 0.6781896541914734 0.6686463065448049 0.6744904989952757 0.573716109965821 0.7581556065953459 0:5 1:5 2:4 3:4 4:10 5:11 6:10 7:8 8:6 9:8 10:6 11:3 13:6 14:8 15:7 16:5 17:5 18:3 19:6 20:7 21:4 22:3 23:3 24:4 25:6 26:8 27:5 
-0 -0 -0 0 0.1877223408908217 0 0 0 0 0 0 0 0 0 0 0 0 0 0 0 0 0 0 0 0 0 0 0 0 0 0 0 0:3 1:4 2:6 3:8 4:7 5:6 6:7 7:12 8:13 9:10 10:3 14:5 15:7 16:6 17:6 18:3 19:4 20:5 21:5 22:3 23:3 24:4 25:7 26:8 27:8 28:5 
-0.6943712047805385 -0.7701473785772097 -0.7864892896539706 0.7762573357867042 0.724685182174105 0.6791162667276439 0.6997746293963439 0.727343706616712 0.7052858870152552 0.717830961813492 0.5806031581259247 0.7161819562745065 0.5520391885694558 0.7132371013145286 0.7415746387036432 0.7822126376220752 0.606746386916277 0.7218826906441024 0.7415331793145497 0.6221317700345209 0.6308311159973915 0.6588241212331506 0.751154490162776 0.698479759816848 0.6587533851665522 0.5844757216638701 0.5923324098903157 0.6788601133208778 0.6699158654412186 0.6757794742129767 0.5777387577247465 0.7590171606393845 0:4 1:6 2:4 3:5 4:10 5:10 6:10 7:8 8:8 9:7 10:4 13:1 14:6 15:8 16:5 17:5 18:5 19:3 20:6 21:4 22:3 23:3 24:3 25:6 26:9 27:6 28:3 
-1 -1 -1 1 1 1 0.9877823157936202 1 1 1 0.8538943217877147 1 0.8155686175283661 1 1 1 0.888491081909784 1 1 0.9059488696843 0.9279540359515341 0.9707184147272749 1 1 0.968114854413298 0.8629545944458107 0.8480180697788874 1 0.9856952533491956 0.9946411626593445 0.847543398042238 1 0:3 1:9 2:12 3:10 4:9 5:7 6:8 7:12 8:10 9:10 10:3 11:3 14:2 15:6 16:9 17:7 18:6 19:4 20:8 21:9 22:6 23:6 24:6 25:6 26:7 27:8 28:6 
-0.9128733999474056 -0.99863781437877 -0.9835015243219181 1 1 0.8984259034646512 0.8810836693583336 0.9880524361732449 0.9269974764847519 0.9424610701390396 0.7613892066034067 0.9449951184684438 0.7249878153641087 0.9117345883883295 0.9745168361498423 1 0.792743184587959 0.9440501968410964 0.9709311001125766 0.8084629745217862 0.8299851274275727 0.865970715697845 0.9870254435901243 0.9184767898228934 0.8637204481654526 0.7670631168864617 0.7566905099735458 0.8914379266159266 0.8791944088695414 0.8875473316764141 0.7533765375025548 0.9973861164505767 0:7 1:6 2:5 3:3 4:6 5:9 6:9 7:12 8:11 9:11 10:5 11:3 14:3 15:6 16:8 17:5 18:3 19:4 20:6 21:5 22:3 23:4 24:6 25:6 26:7 27:9 28:8 29:4 
-0.8556472896900509 -0.9208824594516005 -0.8978109044150486 0.9499324021180017 0.9330670976713547 0.8294399872013394 0.8148718629611196 0.8961414114417959 0.8579534121871185 0.8710997359145054 0.7037214393435758 0.8924727597316765 0.6699223281758858 0.8430904405249277 0.9010739639229967 0.9488128506553116 0.7327840520828248 0.8731243029192777 0.897309964459247 0.7473461167096597 0.765305782486024 0.7999430036492545 0.9118500979812137 0.8484686032198244 0.7983714999468441 0.7093344482000067 0.6998022945174105 0.8249669010862889 0.8131269877097419 0.8204314467342582 0.6973823501617312 0.9216327653716583 0:4 1:4 2:5 3:6 4:6 5:7 6:8 7:10 8:13 9:13 10:10 11:3 13:4 14:7 15:8 16:4 17:3 18:4 19:5 20:5 21:3 22:4 23:7 24:7 25:8 26:9 27:7 28:4 
-0.1499445176325493 -0.1569990565196278 -0.3048037746577932 0.15933384801854 0.1805145010005195 0.1562707155300901 0.139564966214049 0.1908771442740935 0.1453328320369721 0.1487608560086835 0.1202286262664365 0.1489784382454639 0.1147201942226079 0.1434905811751917 0.1550241983872946 0.1617420712828578 0.1254086018798172 0.1494098630680474 0.1551932591301519 0.1273822980098534 0.131300401305808 0.1375766464044546 0.1570224484974719 0.1449554968398974 0.1363615092050581 0.121183277025465 0.1192436847047264 0.141025598824758 0.1388679239453422 0.1398827007568103 0.1185224687237102 0.1582732551291962 0:1 1:5 2:8 3:7 4:7 5:7 6:10 7:13 8:12 9:7 10:2 14:6 15:8 16:6 17:6 18:3 19:4 20:4 21:6 22:3 23:3 24:4 25:6 26:8 27:7 28:5 
-0.1192788619093454 -0.129578231079495 -0.8084066381404315 0.1330494471937979 0.2757294764266345 0.121118736869688 0.114859045661641 0.1803411558975876 0.1203186104565369 0.1238809904054151 0.09982669842214642 0.1309817611259977 0.09477895470263115 0.1172315905368785 0.1280398788058356 0.1328470063702574 0.1039609020299342 0.1230436384323254 0.1278849347696124 0.1051314775149367 0.1086615088350227 0.1135230757059817 0.1295954272272223 0.1209298592804675 0.1136559636714371 0.1004683099440212 0.09778175102293807 0.1168552496301366 0.1149330024121461 0.1159834768880445 0.09760233028929231 0.1312606036695034 0:3 1:4 2:6 3:6 4:8 5:9 6:11 7:11 8:10 9:8 10:6 11:3 13:4 14:7 15:8 16:6 17:6 18:4 19:3 20:6 21:5 22:4 23:3 24:3 25:6 26:9 27:7 28:4 
-0.3335898177677207 -0.3576301840895353 -0.3396647293721746 -0.3089502857651578 0.3396502005081178 0.3177247851186353 0.3228675097237562 0.3479906870034128 0.3505301632371704 0.3490480287583136 0.2800302344294103 0.3589859071248178 0.29932420895922 0.3350742803021937 0.3609765747090229 0.3843877479176012 0.2808147496513085 0.3484354007718847 0.4769169538805056 0.2890718132893589 0.3026245418216116 0.3181961698919581 0.3664763806622237 0.3387614479926807 0.3106061199649731 0.2861707606392032 0.2781914469142052 0.3290740793465119 0.325454877319264 0.3272161570034103 0.2460366566489697 0.3765033443707947 1:5 2:9 3:10 4:9 5:10 6:11 7:9 8:8 9:6 10:4 11:1 13:2 14:3 15:4 16:4 17:5 18:6 19:5 20:5 21:6 22:8 23:10 24:9 25:8 26:5 27:2 
-0.2087037369044714 -0.2182841688766248 -0.2137163555619199 -0.2112278367726144 0.2268073045351332 0.1950144958871059 0.2000537953185296 0.2198265446119188 0.1991630319362952 0.2151123918383598 0.1676406009629179 0.2280795045461162 0.1488322571029197 0.2063062524936451 0.2235747340467261 0.2409826834216046 0.1740561831344752 0.2152254487948985 0.2162225597009854 0.1784815433107785 0.1870365497384544 0.1951614491395792 0.2266156906257845 0.2093871732262181 0.1930259464519008 0.1590684691150241 0.1679288488120216 0.2014992493795633 0.1835508256166564 0.2017770502675478 0.1422989839932325 0.2261867410855493 0:3 1:5 2:6 3:5 4:6 5:9 6:11 7:14 8:13 9:10 10:5 14:3 15:4 16:5 17:6 18:7 19:7 20:7 21:5 22:6 23:9 24:10 25:6 26:5 27:3 28:3 29:1 
-0.1539332034988999 -0.1668012561312211 -0.1590477790656047 -0.1481592254393568 0.1608780956437402 0.1448174743685619 0.15100342113723 0.1593543904675914 0.1589351769235173 0.1627728856930055 0.1267780488730491 0.1613499260417316 0.1196298814733713 0.1561820549821873 0.1686690597477675 0.1768769027588445 0.1312404268049804 0.1622468749724198 0.1677300095479702 0.1348003162719535 0.1405674784178549 0.1477076137053123 0.1707310870952452 0.1582301508384966 0.1447209667139799 0.1264569546526673 0.1273488405967566 0.1529951055475319 0.1526564882636325 0.152476057898727 0.122646758722605 0.1765961435848611 1:4 2:5 3:7 4:8 5:8 6:7 7:15 8:15 9:9 10:2 11:3 13:3 14:3 15:4 16:4 17:5 18:4 19:6 20:5 21:6 22:7 23:11 24:11 25:8 26:3 27:3 
-0.5996595096435192 -0.65672977405828 -0.619816924032962 -0.5708336415897843 0.6225328058047984 0.5631241182377636 0.5853599275826451 0.6225687425986771 0.6179805952960081 0.6313155791183798 0.4934279019392877 0.6301050249153749 0.4650765500574363 0.6062420462547261 0.6549551878057881 0.6918613120990836 0.5094302804235413 0.6320351317925849 0.6512068521054806 0.5222897815704146 0.5472761469680382 0.5751348701163065 0.663530194727901 0.614055031576174 0.5638615921097123 0.4918411555037431 0.4934815626321854 0.5954083905158256 0.5901732125996469 0.5920427363101325 0.4761306301957202 0.670871288445947 0:3 1:5 2:6 3:5 4:5 5:6 6:15 7:16 8:13 9:3 10:2 13:2 14:3 15:4 16:4 17:5 18:6 19:6 20:6 21:5 22:6 23:11 24:11 25:4 26:2 27:2 28:2 
-0.5353054100283993 -0.5813673077554884 -0.5529823521307753 -0.5103287964116326 0.5564986365843511 0.5032960738245675 0.5229958821626944 0.5555753690150262 0.5524716555160987 0.5638966032774361 0.4409237775807903 0.5669329273697541 0.4159942500420969 0.5415135364328282 0.5854305715380937 0.6186936387614892 0.4545916187491976 0.563614040892858 0.5811109371775884 0.4667825133766071 0.4881568987901918 0.5155107258846143 0.5926242440738205 0.5494061821164061 0.5039205651801644 0.4403933260196145 0.4407347254226674 0.5317852886738026 0.5273847746021767 0.5282058754450379 0.4285583412540696 0.5991501888974774 0:3 1:4 2:5 3:7 4:6 5:6 6:6 7:15 8:15 9:7 10:5 11:5 14:3 15:4 16:5 17:5 18:8 19:7 20:6 21:6 22:6 23:6 24:11 25:11 26:2 27:2 28:2 
-0.5655102839587455 -0.6101136264459699 -0.5848561022279452 -0.5439385518871167 0.5841654661501758 0.5300555070437665 0.5490240710232698 0.5901523043671205 0.5782918246407434 0.5916799839806676 0.462447701482443 0.595896083264923 0.4345144719570053 0.5681748659353868 0.6146150802732946 0.6540313242816489 0.4776644557529041 0.5921503408524962 0.6106060872755622 0.4901156646595204 0.513148792912669 0.5413929119761105 0.6216554835058451 0.5755064424284931 0.5288015079141445 0.4597784407186973 0.4627966606843032 0.5583088521241937 0.5463619825926148 0.554912334555677 0.4453804426804054 0.6374501715750202 0:5 1:4 2:5 3:7 4:7 5:6 6:8 7:15 8:15 9:12 10:6 14:3 15:4 16:5 17:5 18:6 19:6 20:6 21:7 22:7 23:8 24:11 25:8 26:5 27:3 28:4 29:2 
-0.7536876179542317 -0.8371320795008441 -0.7790165999333273 -0.7186109588705195 0.7838612083289652 0.7092400461745386 0.7367017070152677 0.7828715565547986 0.7775030915708513 0.793854211686208 0.6208413373914128 0.7931100022184677 0.585513484391374 0.7627520189248963 0.823923257312913 0.8708828158979192 0.6405859641635545 0.7944495476008183 0.8187216014949044 0.6574542585297664 0.6891982282305635 0.7229911352630026 0.834986370056841 0.7719768323814333 0.7099744123210107 0.6190862369646318 0.6210342332550771 0.7490410381568434 0.7323792751460912 0.7448476139587669 0.5995625749572691 0.8435927891050831 0:11 1:5 2:6 3:5 4:5 5:6 6:15 7:16 8:13 9:3 10:2 13:2 14:3 15:4 16:4 17:5 18:6 19:7 20:7 21:6 22:6 23:11 24:11 25:5 26:3 27:3 28:3 29:1 
-0.2281151136738035 -0.2466293587598413 -0.2437646403096874 -0.2325555363590584 0.2486680041591628 0.2151340129083055 0.2209148245032619 0.2467778525595254 0.2366925775991356 0.2377469864286637 0.1854963293183977 0.2463401108253502 0.1627017693017225 0.2314929472256153 0.2460773929210981 0.2662712228939456 0.1917295409286925 0.2372335262218377 0.2733317332220521 0.1962760669833899 0.2051424127623355 0.2153756499166277 0.2492025800904824 0.2298228883418932 0.2128553243020977 0.1910065437813175 0.1957072483578894 0.2240358150209347 0.221955444092391 0.2218032591193124 0.2378314574405333 0.2522816879020927 0:2 1:4 2:7 3:9 4:9 5:9 6:12 7:10 8:9 9:6 10:4 11:1 13:2 14:3 15:4 16:5 17:5 18:5 19:5 20:6 21:5 22:6 23:10 24:9 25:9 26:5 27:3 
-0.7579165862301356 -0.8226781089260895 -0.7833413944341746 -0.7228742212882354 0.7887297003476017 0.7127979897152915 0.7402353710009015 0.7880862488559901 0.7993100375149812 0.7986615557984577 0.6237883657947499 0.8032233859217306 0.5902345377110819 0.7679494831796015 0.8291308872423527 0.8745676409016964 0.6439004192374396 0.7989237016414641 0.8238673310758978 0.6607673662104336 0.6925413544613906 0.7275342192783014 0.8398967612403822 0.7824335129714386 0.7135690126784414 0.6268042462825042 0.6240231855010461 0.7537705779783633 0.7464471917172387 0.7490029184940715 0.6102391175830397 0.848957552856016 0:3 1:4 2:5 3:6 4:7 5:7 6:11 7:12 8:12 9:10 10:4 11:12 15:4 16:5 17:6 18:8 19:8 20:7 21:7 22:7 23:9 24:10 25:8 26:6 27:4 28:3 29:1 
-0.536939995457562 -0.5811114502328759 -0.5544048139071884 -0.5103823390495097 0.5572371839860993 0.5046833078620601 0.5245367401194097 0.5568635775930597 0.5530891329973435 0.5652078625592043 0.4419393985510311 0.5641811276552641 0.4166887110121501 0.5428839862315313 0.5863499368016891 0.6195385198732333 0.4560969950258711 0.5656314489637952 0.5808079332201916 0.4681714446192172 0.4903894087347739 0.5149936253448102 0.5942967321637658 0.5496560617970164 0.5052507227408178 0.4402701671282187 0.4420194169211523 0.5332097329242027 0.5217793011783127 0.5298849147407348 0.4242655664670303 0.5995943982752451 0:3 1:5 2:6 3:7 4:7 5:7 6:13 7:15 8:15 9:3 10:3 14:3 15:4 16:4 17:5 18:6 19:5 20:6 21:6 22:5 23:11 24:11 25:11 26:3 27:2 28:2 
-0.1830797342493274 -0.1995944420189454 -0.1870478432570392 -0.1682251816351603 0.1897375786900953 0.1730828699991509 0.1809882492219851 0.1911589082409308 0.188953530367238 0.1926031079483751 0.1518015391352669 0.19225477569102 0.1434968400237795 0.1865926254124663 0.2017633431364302 0.2098475991558619 0.1570746571522512 0.1933459070397733 0.1983432252237696 0.1594095756985348 0.1742510903660842 0.1750503301794434 0.2041586066802026 0.1881993850060604 0.1733769591945058 0.1478054941606852 0.1515676002616607 0.1826433882891473 0.1484772429388357 0.1817704790959793 0.1428191210881228 0.197540582586419 0:3 1:4 2:5 3:7 4:6 5:6 6:6 7:15 8:15 9:7 10:2 11:1 14:3 15:4 16:5 17:5 18:6 19:5 20:4 21:5 22:5 23:6 24:11 25:12 26:2 27:2 28:2 
-0.03226062663147468 -0.0362203065757304 -0.03476942801249357 -0.03176573366245013 0.03261579120799696 0.03135298560799963 0.03357614652074247 0.0325980540079131 0.03451259636025761 0.03643563733880745 0.02836453866034225 0.03069668479138856 0.0267298195018286 0.0344860271595669 0.03803504571232462 0.03307505346462621 0.02945162179949987 0.03597931307998255 0.02888287364510996 0.02992632574266219 0.03153207450425125 0.03253398966856123 0.03766235619267151 0.03406946787568695 0.03239157207675333 0.02595913043219565 0.02822378883629037 0.03429612433590867 0.03128197527920444 0.03379588877891337 0.01447826537394187 0.041707614374628 0:3 1:4 2:5 3:5 4:7 5:7 6:12 7:15 8:14 9:8 10:2 14:3 15:4 16:5 17:6 18:6 19:6 20:5 21:6 22:6 23:9 24:11 25:7 26:3 27:3 28:2 
-0 -0 -0 -0 0 0 0 0 0.00762715672156583 0 0 0 0 0 0 0 0 0 0 0 0 0 0 0 0 0 0 0 0 0 0 0 0:3 1:4 2:5 3:6 4:7 5:7 6:11 7:12 8:12 9:10 10:4 11:1 15:4 16:4 17:5 18:7 19:7 20:6 21:6 22:6 23:8 24:9 25:7 26:5 27:4 28:3 29:1 
-0.5849331331459067 -0.6342457328423948 -0.603595445964322 -0.5566082326254351 0.607480379159972 0.5503443805095424 0.571044456994187 0.6085767736440457 0.6030752588954825 0.6151852665225607 0.4808598855331997 0.630175291096435 0.4552434596419105 0.5905743755623721 0.6389092382668512 0.6734106052628621 0.4960460503532003 0.6159453709474696 0.623508526798024 0.5098004672520753 0.5336388093842656 0.5605720776969436 0.6469586990760495 0.5985305140909701 0.5501455731656946 0.4788607203123223 0.4792373831841151 0.5801136556689784 0.5669453878776848 0.5770880037870417 0.4570665420727331 0.6528704197006407 1:4 2:7 3:10 4:10 5:8 6:12 7:12 8:11 9:7 10:6 11:6 12:1 13:4 14:4 15:4 16:4 17:6 18:5 19:5 20:6 21:6 22:7 23:11 24:11 25:10 26:6 27:3 
-0.2850380644194889 -0.3097634748145771 -0.2964784445713377 -0.2761629975145456 0.2979264956369507 0.2684922950657 0.278722686628516 0.2949379462599816 0.2963058786284612 0.3006864210530898 0.2351753770748606 0.3018915974472813 0.2214027331226761 0.2889907300237881 0.3122133158007193 0.3289852994940922 0.2428338629598298 0.3013234701123391 0.3021885308252017 0.2495621817523232 0.2610145027762 0.2740206188552176 0.316315046024967 0.2925708014372043 0.2691074856368271 0.2374219691383382 0.2350199525852237 0.2840617009221632 0.2814983103834062 0.2817120110697037 0.2362937531503206 0.3232395270115685 0:1 1:5 2:7 3:7 4:8 5:8 6:13 7:16 8:11 9:5 10:3 11:1 13:2 14:3 15:4 16:4 17:4 18:6 19:5 20:6 21:5 22:7 23:8 24:12 25:9 26:5 27:3 28:2 
-0.7857710815729317 -0.8531235583662068 -0.8119484724254389 -0.7487470114705223 0.8167995814266515 0.738598312203731 0.7673115608815098 0.8163119927820074 0.8107765927288629 0.82729672781671 0.6467198860439044 0.8279810730581295 0.6094509938397127 0.7947777576160794 0.8583596315680662 0.9071401494293172 0.6677064034825638 0.8278575387991849 0.8528907857310215 0.6849771541143799 0.7174707590140397 0.7528022135588797 0.8697018944051332 0.8049433664452482 0.7396653370889417 0.645798470134895 0.6466109162384399 0.7806368204320641 0.7642256006639622 0.7756636183377762 0.6271347165891289 0.880450078352317 1:4 2:5 3:7 4:8 5:8 6:7 7:15 8:15 9:9 10:11 11:11 13:3 14:3 15:4 16:4 17:7 18:6 19:8 20:7 21:8 22:8 23:11 24:11 25:10 26:5 27:5 
-0.2902814018829524 -0.3144860702508802 -0.2994339906387831 -0.2762860443988079 0.3010932025456624 0.2724093090530814 0.2827155298406673 0.3010097621750345 0.2993100286685883 0.3043995751398039 0.2387512765591132 0.3058961287334375 0.2245398344002671 0.2932265981462535 0.3163534431449075 0.3350274446384979 0.2464536609135166 0.3052464645689847 0.3146473884947186 0.2519595124633337 0.2646696853323386 0.2772957147687927 0.3205429280026463 0.2958362845966607 0.2726184225075274 0.2377594417611751 0.2381758062097902 0.2880337246130316 0.2807269473849263 0.2857223795859152 0.230166798063679 0.3227924593762677 1:4 2:6 3:8 4:7 5:7 6:9 7:15 8:15 9:7 10:3 11:4 13:3 14:4 15:4 16:5 17:5 18:6 19:6 20:5 21:5 22:8 23:11 24:11 25:6 26:3 27:3 
-0.5401996397462341 -0.5885395785355896 -0.5597789841370009 -0.5164674219719887 0.563120245731271 0.5088516866749465 0.5294811863740209 0.5621744461454399 0.5562803475335787 0.5700685243307191 0.4451661968423679 0.5668242362736214 0.4150020227268604 0.5484092712688772 0.5917973381833566 0.6259649935168985 0.4599679435862616 0.570151505088931 0.6118712106634285 0.4721890164578274 0.4940013958632563 0.5219763882244836 0.5989651460100276 0.5542164709891647 0.5102707378925498 0.44207855533199 0.4483126988302123 0.5372505224683737 0.5354583654172298 0.5339684357917379 0.4351810130977783 0.6091123698535256 1:4 2:11 3:12 4:9 5:9 6:10 7:7 8:6 9:6 10:5 11:1 12:1 13:3 14:3 15:4 16:5 17:5 18:5 19:5 20:6 21:7 22:9 23:8 24:10 25:7 26:2 
-0 -0 -0 -0.001732155168595069 0 0 0 0 0 0 0 0 0 0 0 0 0 0 0 0 0 0 0 0 0 0 0 0 0.001511200783985871 0 0 0 0:3 1:4 2:5 3:6 4:6 5:6 6:9 7:14 8:14 9:11 10:5 14:3 15:4 16:4 17:5 18:6 19:6 20:6 21:6 22:5 23:9 24:11 25:8 26:5 27:3 28:2 
-0.333209581377179 -0.358938085021447 -0.3480090289310273 -0.3401851470195619 0.3806848464731223 0.3147751673353706 0.3251314474100745 0.3596992201726952 0.3966713288899069 0.3523165015334607 0.2763298036070097 0.3781440307406541 0.2868312642009855 0.3370651123577936 0.3635610340580947 0.3977514811740084 0.2829562384456629 0.3512555508431464 0.3611184799517207 0.2901180015621164 0.3044205501990691 0.3299284682713629 0.3726503636327754 0.3513480282773975 0.3129942583786338 0.3092221482452664 0.2743351047938077 0.339846816395805 0.348141787011146 0.3301184237905188 0.317161082174767 0.3999953409717828 0:3 1:4 2:5 3:5 4:7 5:9 6:10 7:11 8:12 9:11 10:6 11:2 15:2 16:4 17:6 18:6 19:6 20:7 21:7 22:6 23:8 24:9 25:7 26:6 27:5 28:3 29:3 
-0.3125456385705805 -0.3308086902133344 -0.3205235582816462 -0.3037127797342675 0.327873904661025 0.2903585511750558 0.2980647169115281 0.3300532965120189 0.3343235144207272 0.3200831848956501 0.2516280484370065 0.3281753414780996 0.2464780117620702 0.3109475049307013 0.33293597916401 0.3615775459068021 0.2587967196948833 0.3218766847370694 0.331602541821025 0.2658129517899162 0.2772105163686153 0.2921256939029738 0.3348140430986222 0.3112390294925652 0.2868327287977784 0.2596380087886739 0.2517007130133831 0.3045208802067057 0.3028366788551167 0.2988216750936984 0.2306044710909095 0.3436602992371205 0:3 1:4 2:5 3:5 4:7 5:9 6:9 7:11 8:12 9:11 10:7 11:2 14:1 15:4 16:5 17:6 18:7 19:7 20:7 21:6 22:9 23:9 24:7 25:6 26:5 27:3 28:3 
-0 -0 -0 -0 0 0 0 0 0 0 0 0 0.01755893895498476 0 0 0 0 0 0 0 0 0 0 0 0 0 0 0 0.004533911560683369 0 0.03120681759172451 0 1:5 2:8 3:9 4:9 5:9 6:11 7:10 8:9 9:6 10:4 11:1 13:2 14:3 15:3 16:5 17:5 18:5 19:6 20:5 21:6 22:7 23:10 24:9 25:8 26:5 27:2 
-0.4268798137910727 -0.4602043031249297 -0.4386182078134494 -0.402201734382069 0.4401448869087143 0.4005367338561376 0.4146880485537853 0.446311230074464 0.436146744380656 0.4474039435558299 0.3488669700714457 0.4481969234662475 0.3278008947295173 0.4296813719301779 0.4648679598058674 0.492572860416449 0.3608819284034303 0.4476902278971355 0.4933383112198696 0.3696841250372426 0.3879302613803092 0.4073016169958125 0.4707782250248052 0.4355002551627405 0.3996561544266057 0.3478488415623968 0.3475332038580068 0.4218718677960647 0.4080279163565897 0.4204448759704521 0.3285126830095104 0.4752449805903039 0:4 1:6 2:8 3:8 4:9 5:9 6:13 7:14 8:9 9:6 10:3 11:1 13:2 14:3 15:4 16:5 17:5 18:5 19:6 20:5 21:6 22:7 23:9 24:12 25:10 26:5 27:3 28:1 29:1 30:1 
-0.02905238966581605 -0.03546848300918993 -0.03225137650353543 -0.02411381750753514 0.02425514877510206 0.0294501321166435 0.03041408677977338 0.04022767200219027 0 0.03636497504085047 0.02488311671113322 0.02099897522449955 0.01915307874055391 0.03128892369161092 0.03365590080345649 0.04438283910070012 0.02600160747471398 0.03168381181018951 0.03941095961902969 0.02669465905254884 0.03084970036297087 0.03848841794573831 0.03705121922906889 0.02804293543987699 0.02922597697408217 0.01105382659636386 0.02466205678771385 0.03064478854999324 0.03322270585243473 0.03346026721737407 0.0345298545700749 0.02638321877026067 0:4 1:4 2:4 3:6 4:7 5:8 6:10 7:11 8:11 9:11 10:8 11:3 14:1 15:3 16:5 17:6 18:7 19:7 20:8 21:7 22:8 23:9 24:7 25:7 26:5 27:3 28:3 29:1 
