svm_type c_svc
kernel_type rbf
gamma 0.0416667
nr_class 10
total_sv 52
rho 0.156003 0.0856653 0.134544 0.15933 0.183206 0.170945 0.0756518 0.135768 0.172043 -0.0767178 -0.0333393 -2.7715e-06 0.00454476 -0.0347356 -0.0856188 -0.0620692 -0.0347348 0.0560729 0.0763189 0.0835136 0.0432936 -0.0101389 0.0152378 0.0443468 0.0340741 0.041577 -0.00166154 -0.0597354 -0.0317536 -0.00160644 0.00454597 -0.0351517 -0.0856605 -0.0640351 -0.0353396 -0.0509781 -0.0992635 -0.0777863 -0.0457265 -0.0519452 -0.0458027 0.000583485 0.0240345 0.0521361 0.0475506
label 48 49 50 51 52 53 54 55 56 57
nr_sv 5 4 5 6 4 6 6 4 6 6
SV
0.6259672622074735 0.6036345406966697 0.6719092431274752 0.6408299313057962 0.7647789158700173 0.8573777934651428 0.6741698286991046 0.8932636665041561 0.9513824067606887 3:4 4:6 5:4 6:4 7:4 8:4 9:6 10:4 14:2 15:4 16:4 17:4 18:4 19:4 20:4 21:4 22:4 23:2 
0.02011221854234148 0 0.06990431063804221 0.04256005289350967 0.165627966641968 0.407814083098642 0 0.3486970442597943 0.2877261661374184 2:4 3:6 4:4 5:4 6:4 7:4 8:6 9:4 14:2 15:4 16:4 17:4 18:4 19:4 20:4 21:4 22:4 23:2 
0.9987185084500197 0.9907610799533603 1 1 0.9851838549449763 0.998379753417529 0.9810707708740375 1 0.9992383691427185 2:4 3:6 4:4 5:4 6:4 7:4 8:6 9:4 14:2 15:4 16:4 17:4 18:4 19:4 20:4 21:4 22:4 23:2 
0 0 0 0 0 0.05341940114243926 0 0.01750091716790589 0.02724858688938826 3:4 4:6 5:4 6:4 7:4 8:4 9:6 10:4 15:2 16:4 17:4 18:4 19:4 20:4 21:4 22:4 23:4 24:2 
0.7643124960051541 0.7904901030073253 0.8115562811550537 0.776949649969162 0.8452848641039215 0.9801711297768372 0.7011238492302224 1 0.9986532796742541 3:4 4:6 5:4 6:4 7:4 8:4 9:6 10:4 15:2 16:4 17:4 18:4 19:4 20:4 21:4 22:4 23:4 24:2 
-0.782442803257366 0.8637592741082716 0.8987071399599008 0.926377296688527 0.9311105597151877 0.8937516666878221 0.848004161524748 0.8689522321809579 0.8937518642159573 4:2 5:3 6:10 7:10 8:1 9:1 14:2 15:3 16:4 17:2 18:2 19:2 20:2 21:2 22:2 23:6 
-0 0 0 0 0.001061583766095698 0 0 0 0 3:2 4:3 5:10 6:10 7:1 8:1 14:2 15:3 16:4 17:2 18:2 19:2 20:2 21:2 22:2 23:6 
-0.785048219307665 0.861898611850521 0.8986091415296885 0.930209822963644 0.9336848017103977 0.8971381933705506 0.8503154515427989 0.8720186007854561 0.8971452470969613 4:2 5:3 6:10 7:10 8:1 9:1 15:2 16:3 17:4 18:2 19:2 20:2 21:2 22:2 23:2 24:6 
-0.8416194626399577 0.9270830320214397 0.9639308241090161 0.9966655210544265 1 0.9615780413903875 0.9119563062735607 0.9348990565889892 0.9615459424301318 3:2 4:3 5:10 6:10 7:1 8:1 14:2 15:3 16:4 17:2 18:2 19:2 20:2 21:2 22:2 23:6 
-0 -0.07285054518535476 0.2993966379651881 0.07946820868042341 0.1366626764705079 0.07686737783931979 0.04963978476821988 0.0726609735942666 0.1010747487714648 3:2 4:4 5:5 6:4 7:4 8:5 9:5 10:3 15:4 16:4 17:4 18:2 19:2 20:2 21:2 22:2 23:2 24:8 
-0 -0 0.02373608105569892 0 0 0 0 0 0 3:2 4:4 5:5 6:4 7:4 8:5 9:5 10:3 14:4 15:4 16:4 17:2 18:2 19:2 20:2 21:2 22:2 23:8 
-0.7140143616013199 -0.7850127308028299 1 0.7823717212774119 0.8040216597430877 0.770271767969817 0.7780363372223161 0.7885466151168218 0.826554160644163 3:2 4:4 5:5 6:4 7:4 8:5 9:5 10:3 14:4 15:4 16:4 17:2 18:2 19:2 20:2 21:2 22:2 23:8 
-0.9544307597755675 -1 0.9951940095813202 0.991690535177598 0.9645846281570382 0.9867941693620849 0.9886573673064255 0.9990942014549298 0.9932033976275945 3:2 4:4 5:5 6:4 7:4 8:5 9:5 10:3 15:4 16:4 17:4 18:2 19:2 20:2 21:2 22:2 23:2 24:8 
-0.7164406022804678 -0.7948776419920476 0.9828288990935007 0.7877675674066374 0.8322022714677575 0.8192014089023528 0.7751407315417974 0.8151653677610564 0.8022135801805627 2:2 3:4 4:5 5:4 6:4 7:5 8:5 9:3 14:4 15:4 16:4 17:2 18:2 19:2 20:2 21:2 22:2 23:8 
-0 -0 -0.2358126378637143 0 0.0515879320533706 0 0 0 0.03716223734472104 3:2 4:4 5:2 6:3 7:3 8:7 9:7 10:3 15:5 16:4 17:2 18:2 19:3 20:2 21:2 22:2 23:4 24:5 
-0 -0 -0.1099007753003605 0 0.03465245013775663 0 0 0 0 2:2 3:4 4:2 5:3 6:3 7:7 8:7 9:3 14:5 15:4 16:2 17:2 18:3 19:2 20:2 21:2 22:4 23:5 
-0.8619837834557201 -0.9379183772673245 -0.9985540332281537 0.9529731943068116 1 0.9721872504330175 0.9707794466714693 0.9738534195267604 0.9907905034927301 2:2 3:4 4:2 5:3 6:3 7:7 8:7 9:3 14:5 15:4 16:2 17:2 18:3 19:2 20:2 21:2 22:4 23:5 
-0 -0 -0.01684400392010383 0 0 0 0 0 0 3:2 4:4 5:2 6:3 7:3 8:7 9:7 10:3 14:5 15:4 16:2 17:2 18:3 19:2 20:2 21:2 22:4 23:5 
-0.8031744672495756 -0.8624287089478821 -1 0.882533505161574 0.9593396658051854 0.8853305650346447 0.9206686098823114 0.89520747054677 0.990345291861121 3:2 4:4 5:2 6:3 7:3 8:7 9:7 10:3 14:5 15:4 16:2 17:2 18:3 19:2 20:2 21:2 22:4 23:5 
-0.8882115842152755 -0.9609000193833988 -0.9400441773833756 0.9882866071934319 0.998139418541094 0.9864555742917421 0.9923327767309521 0.9896424881385265 0.99426966650173 3:2 4:4 5:2 6:3 7:3 8:7 9:7 10:3 15:5 16:4 17:2 18:2 19:3 20:2 21:2 22:2 23:4 24:5 
-0.8039404856400907 -0.930209822963644 -0.8608672016391654 -0.9204532774707292 0.9356155491791457 0.9064882930720666 0.8507680380564396 0.9017141570931816 0.9110287079253199 3:2 4:3 5:3 6:3 7:3 8:10 9:10 10:1 15:2 16:3 17:4 18:4 19:4 20:4 21:8 22:2 23:2 24:2 
-0 -0 -0 -0 0.002452735495674906 0 0 0 0 2:2 3:3 4:3 5:3 6:3 7:10 8:10 9:1 14:2 15:3 16:4 17:4 18:4 19:4 20:8 21:2 22:2 23:2 
-0.8545632223951561 -0.9966655210544265 -0.9221061901311497 -0.980303164873215 1 0.9698820078086237 0.9120726102515581 0.9603894516070371 0.9671614790510156 2:2 3:3 4:3 5:3 6:3 7:10 8:10 9:1 14:2 15:3 16:4 17:4 18:4 19:4 20:8 21:2 22:2 23:2 
-0.8018359261332212 -0.926377296688527 -0.8583246407717556 -0.9230368643178732 0.9325616661835479 0.9042305757828524 0.8480245186953314 0.898958826106849 0.9196839607366991 3:2 4:3 5:3 6:3 7:3 8:10 9:10 10:1 14:2 15:3 16:4 17:4 18:4 19:4 20:8 21:2 22:2 23:2 
-0 -0 -0 -0 -0 0.1310012652602904 0 0.04783712266809802 0.08731132702049993 3:6 4:7 5:4 6:3 7:3 8:5 9:6 10:3 14:7 15:2 16:2 17:5 18:5 19:2 20:2 21:4 22:4 23:4 
-0 -0 -0 -0 -0 0.1596857457979616 0 0.02174399478341924 0 2:6 3:7 4:4 5:3 6:3 7:5 8:6 9:3 14:7 15:2 16:2 17:5 18:5 19:2 20:2 21:4 22:4 23:4 
-0 -0 -0 -0.05634407576786785 -0 0.2786525971532806 0 0.1488792392015967 0.1600975798024172 3:6 4:7 5:4 6:3 7:3 8:5 9:6 10:3 15:7 16:2 17:2 18:5 19:5 20:2 21:2 22:4 23:4 24:4 
-0.8984358401164376 -0.9348098187400207 -0.8970916058816922 -0.992577095713698 -0.9367011765328772 0.9912662063183865 0.9483404135660018 0.9908864688857846 0.9992831491642882 3:6 4:7 5:4 6:3 7:3 8:5 9:6 10:3 14:7 15:2 16:2 17:5 18:5 19:2 20:2 21:4 22:4 23:4 
-0.9778471701192085 -0.986339715176179 -0.9492177807960641 -0.998139418541094 -0.9878556513321094 1 0.997866309033731 0.9276255020258309 0.9340046027420684 3:6 4:7 5:4 6:3 7:3 8:5 9:6 10:3 15:7 16:2 17:2 18:5 19:5 20:2 21:2 22:4 23:4 24:4 
-0.8845925913252369 -0.9447074112754814 -0.8911618491606349 -0.9966588765147467 -0.9460731229933819 0.9743870090473419 0.9378535041406282 1 0.9886092660166452 2:6 3:7 4:4 5:3 6:3 7:5 8:6 9:3 14:7 15:2 16:2 17:5 18:5 19:2 20:2 21:4 22:4 23:4 
-0.07706542063195373 -0 -0 -0 -0 -0.1098853500894413 0 0.3990078754296748 0 3:6 4:8 5:5 6:3 7:3 8:6 9:6 10:2 15:4 16:4 17:3 18:2 19:5 20:5 21:4 22:4 23:4 24:4 
-0.9951307039346068 -0.8919072026428981 -0.864713740182092 -0.9200842921216481 -0.9028224175751275 -0.998553260367705 0.832372211011665 0.9808497059023418 0.9809501283669823 3:6 4:8 5:5 6:3 7:3 8:6 9:6 10:2 15:4 16:4 17:3 18:2 19:5 20:5 21:4 22:4 23:4 24:4 
-0.1530949119436152 -0.002484951818107778 -0 -0.05288590823815702 -0.009289486962345593 -0.2371556749416426 0 0.5582731753808516 0.1203894474739105 2:6 3:8 4:5 5:3 6:3 7:6 8:6 9:2 14:4 15:4 16:3 17:2 18:5 19:5 20:4 21:4 22:4 23:4 
-0.1074180570089852 -0 -0 -0 -0 -0.2003026370017098 0 0.5042473784160941 0.3656302428473989 3:6 4:8 5:5 6:3 7:3 8:6 9:6 10:2 14:4 15:4 16:3 17:2 18:5 19:5 20:4 21:4 22:4 23:4 
-0.9897193334534148 -0.9990733882935207 -0.9517653912849443 -0.9748139871839011 -1 -0.9978296948583758 0.9326120337436674 1 0.9988910609205048 2:6 3:8 4:5 5:3 6:3 7:6 8:6 9:2 14:4 15:4 16:3 17:2 18:5 19:5 20:4 21:4 22:4 23:4 
-0.9747337339280145 -0.8590023586942335 -0.8366555926065381 -0.8961892022156981 -0.8684889721260695 -0.9912662063183865 0.8122672465152523 1 0.9296689082175928 3:6 4:8 5:5 6:3 7:3 8:6 9:6 10:2 14:4 15:4 16:3 17:2 18:5 19:5 20:4 21:4 22:4 23:4 
-0 -0.08068535080172905 -0.08328425153566685 -0.1852542251068472 -0.07889809057092241 -0.1751097201789292 -0.07074553453400895 0.02995685373516219 0.07614865971030862 3:3 4:4 5:3 6:3 7:3 8:3 9:4 10:3 15:8 16:2 17:2 18:2 19:2 20:2 21:2 22:2 23:2 24:2 
-0.9946537259926278 -0.9916434830903179 -0.9957423870551271 -0.9989872412013188 -0.9937437186230093 -1 -0.9891473116648081 1 0.9877816767967412 3:3 4:4 5:3 6:3 7:3 8:3 9:4 10:3 15:8 16:2 17:2 18:2 19:2 20:2 21:2 22:2 23:2 24:2 
-0.6716716110341963 -0.7624318506943097 -0.7550501223922608 -0.8389910677232928 -0.7624775478713094 -0.8296725018787707 -0.7459370039424368 0.7286853082820407 0.7561578789971808 3:3 4:4 5:3 6:3 7:3 8:3 9:4 10:3 14:8 15:2 16:2 17:2 18:2 19:2 20:2 21:2 22:2 23:2 
-0.6900391117765404 -0.7755152347547509 -0.7573974598557042 -0.860548299253274 -0.7757458099380879 -0.879278004682661 -0.771421641129331 0.7445113715538976 0.7616535712089565 2:3 3:4 4:3 5:3 6:3 7:3 8:4 9:3 14:8 15:2 16:2 17:2 18:2 19:2 20:2 21:2 22:2 23:2 
-0.2945548541905998 -0.03158446060033935 -0.01620635808988635 -0.09838802432759086 -0.05734824916983631 -0.2212698520336879 -0.7860725186747513 -0 0.6376446959495807 2:3 3:7 4:7 5:3 6:3 7:7 8:7 9:3 14:4 15:4 16:4 17:4 18:4 19:4 20:4 21:4 22:4 23:4 
-0 -0 -0 -0 -0 -0 -0.4177667198904206 -0 0.4690757902500607 3:3 4:7 5:7 6:3 7:3 8:7 9:7 10:3 14:4 15:4 16:4 17:4 18:4 19:4 20:4 21:4 22:4 23:4 
-0.01447348411459355 -0 -0 -0 -0 -0 -0.3418743845454092 -0 0.3377618364583019 3:3 4:7 5:7 6:3 7:3 8:7 9:7 10:3 15:4 16:4 17:4 18:4 19:4 20:4 21:4 22:4 23:4 24:4 
-0.9540511716264094 -0.9968357940886006 -0.9990942014549298 -0.9957270212671004 -0.9979880367402528 -1 -0.9918931531868586 -0.9606680946570205 0.9852490320928572 2:3 3:7 4:7 5:3 6:3 7:7 8:7 9:3 14:4 15:4 16:4 17:4 18:4 19:4 20:4 21:4 22:4 23:4 
-0.9963821180002534 -0.8066855713532388 -0.8029086931007949 -0.8655374800697877 -0.8356630701364637 -0.9519056255864696 -0.911307038300872 -0.7593908702160337 1 3:3 4:7 5:7 6:3 7:3 8:7 9:7 10:3 14:4 15:4 16:4 17:4 18:4 19:4 20:4 21:4 22:4 23:4 
-1 -0.8407640635132244 -0.8572579052814636 -0.8990508525475779 -0.8700630787605149 -0.963796849944572 -0.9934643205306507 -0.7830945686980462 0.9923642370429109 3:3 4:7 5:7 6:3 7:3 8:7 9:7 10:3 15:4 16:4 17:4 18:4 19:4 20:4 21:4 22:4 23:4 24:4 
-0 -0 -0 -0 -0 -0 -0 -0 -0.4690757902500607 3:2 4:6 5:6 6:3 7:3 8:5 9:8 10:6 14:4 15:4 16:4 17:4 18:5 19:5 20:2 21:3 22:4 23:4 
-0.9934099462851833 -0.8589838010233641 -0.8378637514509581 -0.9209271208964661 -0.8649315387029771 -0.9661313771739478 -0.9631135358239887 -0.8076654746290339 -0.8856752737805494 3:2 4:6 5:6 6:3 7:3 8:5 9:8 10:6 14:4 15:4 16:4 17:4 18:5 19:5 20:2 21:3 22:4 23:4 
-0.03688167391068817 -0 -0 -0 -0 -0 -0 -0 -0.3615668610872104 3:2 4:6 5:6 6:3 7:3 8:5 9:8 10:6 15:4 16:4 17:4 18:4 19:5 20:5 21:2 22:3 23:4 24:4 
-1 -0.8919003856590857 -0.894869755095412 -0.9542550861983903 -0.9070186249611614 -0.9720963070429345 -0.986319668594574 -0.8330520393721887 -0.9991529387788325 3:2 4:6 5:6 6:3 7:3 8:5 9:8 10:6 15:4 16:4 17:4 18:4 19:5 20:5 21:2 22:3 23:4 24:4 
-0.2594182259046965 -0.002487117061570684 -0 -0.1373854921054457 -0.02592398404889601 -0.2411535648360896 -0.4736301053627334 -0 -0.7297230559925416 2:2 3:6 4:6 5:3 6:3 7:5 8:8 9:6 14:4 15:4 16:4 17:4 18:5 19:5 20:2 21:3 22:4 23:4 
-0.9745389625039 -0.9990717499990299 -0.9903123806774146 -1 -1 -0.9899246756929472 -0.9724664780450932 -0.9410242727119644 -0.9769016719045167 2:2 3:6 4:6 5:3 6:3 7:5 8:8 9:6 14:4 15:4 16:4 17:4 18:5 19:5 20:2 21:3 22:4 23:4 
