svm_type c_svc
kernel_type rbf
gamma 0.030303
nr_class 10
total_sv 13
rho 0 1.62032e-05 0 1.71696e-11 2.63128e-05 0 0 0.000544767 0 5.78032e-07 0 -0 1.52096e-11 0 0 1.12288e-12 0 -0.0279942 0 0 -1.52503e-05 -0.000512732 0 -5.44525e-05 1.27037e-07 0.00183075 0 0 0.000263245 0 0 -1.19407e-10 -1.05729e-11 0 -1.52164e-10 -0.00356581 -6.14695e-05 0 -0.000402353 0 0.0233403 0 7.36279e-08 0 -0.0379029
label 48 49 50 51 52 53 54 55 56 57
nr_sv 1 1 2 1 1 2 1 1 2 1
SV
1 1 1 1 1 1 1 1 1 1:8 2:12 3:6 4:4 5:4 6:4 7:4 8:4 9:4 10:4 11:6 12:12 13:8 16:5 17:7 18:4 19:4 20:4 21:4 22:4 23:4 24:4 25:4 26:4 27:4 28:4 29:4 30:4 31:4 32:7 33:5 
-1 1 1 1 1 1 1 1 1 3:4 4:5 5:4 6:4 7:18 8:18 9:2 10:2 11:2 12:2 16:2 17:5 18:6 19:4 20:2 21:2 22:2 23:2 24:2 25:2 26:2 27:2 28:2 29:2 30:2 31:2 32:10 33:10 
-0 -0 0 0 0.002338442119354986 0 0 0 0 2:5 3:6 4:6 5:6 6:6 7:6 8:6 9:6 10:6 11:9 12:6 16:6 17:10 18:4 19:2 20:2 21:2 22:2 23:2 24:2 25:2 26:2 27:2 28:2 29:2 30:2 31:2 32:11 33:11 
-1 -1 1 1 1 1 1 1 1 2:5 3:6 4:6 5:6 6:6 7:6 8:6 9:6 10:6 11:9 12:6 16:6 17:10 18:4 19:2 20:2 21:2 22:2 23:2 24:2 25:2 26:2 27:2 28:2 29:2 30:2 31:2 32:11 33:11 
-1 -1 -1 1 1 1 1 1 1 2:4 3:4 4:6 5:6 6:6 7:6 8:7 9:9 10:12 11:11 12:4 16:6 17:9 18:4 19:2 20:2 21:2 22:2 23:3 24:5 25:7 26:3 27:3 28:2 29:2 30:2 31:4 32:10 33:7 
-1 -1 -1 -1 1 1 1 1 1 1:2 2:4 3:5 4:5 5:4 6:5 7:5 8:5 9:5 10:18 11:18 12:2 13:2 16:2 17:3 18:4 19:5 20:5 21:4 22:4 23:4 24:4 25:5 26:4 27:13 28:13 29:2 30:2 31:2 32:2 33:2 
-0 -0 -0.002338442119354986 -0 -0 0 0 0.002070946916419306 0 2:11 3:11 4:6 5:6 6:6 7:6 8:6 9:6 10:8 11:9 12:7 16:11 17:11 18:2 19:2 20:2 21:2 22:2 23:6 24:9 25:4 26:3 27:2 28:2 29:2 30:3 31:4 32:9 33:6 
-1 -1 -1 -1 -1 1 1 1 1 2:11 3:11 4:6 5:6 6:6 7:6 8:6 9:6 10:8 11:9 12:7 16:11 17:11 18:2 19:2 20:2 21:2 22:2 23:6 24:9 25:4 26:3 27:2 28:2 29:2 30:3 31:4 32:9 33:6 
-1 -1 -1 -1 -1 -1 1 1 1 1:8 2:12 3:7 4:7 5:6 6:6 7:6 8:6 9:6 10:7 11:8 12:9 13:5 16:6 17:9 18:4 19:3 20:2 21:2 22:2 23:8 24:10 25:7 26:6 27:4 28:4 29:3 30:5 31:5 32:8 33:5 
-1 -1 -1 -1 -1 -1 -1 1 1 2:2 3:4 4:7 5:6 6:6 7:6 8:5 9:5 10:5 11:5 12:4 13:3 16:12 17:12 18:3 19:2 20:2 21:2 22:2 23:2 24:2 25:2 26:2 27:2 28:2 29:3 30:2 31:2 32:2 33:2 
-0 -0 -0 -0 -0 -0.002070946916419306 -0 -0 0 1:4 2:11 3:11 4:9 5:8 6:6 7:7 8:7 9:8 10:9 11:11 12:10 13:4 16:6 17:9 18:6 19:4 20:4 21:5 22:5 23:7 24:5 25:8 26:6 27:5 28:4 29:4 30:5 31:6 32:10 33:6 
-1 -1 -1 -1 -1 -1 -1 -1 1 1:4 2:11 3:11 4:9 5:8 6:6 7:7 8:7 9:8 10:9 11:11 12:10 13:4 16:6 17:9 18:6 19:4 20:4 21:5 22:5 23:7 24:5 25:8 26:6 27:5 28:4 29:4 30:5 31:6 32:10 33:6 
-1 -1 -1 -1 -1 -1 -1 -1 -1 1:5 2:10 3:9 4:6 5:6 6:6 7:6 8:6 9:6 10:7 11:8 12:11 13:7 16:5 17:9 18:5 19:4 20:3 21:4 22:4 23:4 24:6 25:7 26:10 27:7 28:1 29:2 30:2 31:5 32:9 33:6 
